tree
version=v3
num_class=1
num_tree_per_iteration=1
label_index=0
max_feature_idx=27
objective=binary sigmoid:1
feature_names=country_code subject_line_length last_open_day last_login_day last_checkout_day open_count_last_10_days open_count_last_30_days open_count_last_60_days login_count_last_10_days login_count_last_30_days login_count_last_60_days checkout_count_last_10_days checkout_count_last_30_days checkout_count_last_60_days attr_1 attr_2 attr_3 age domain day last_open_day_nan last_login_day_nan last_checkout_day_nan attr_1_nan attr_2_nan attr_3_nan age_nan domain_nan
feature_infos=[1:7] [10:75] [-9999:808] [-9999:18141] [-9999:1445] [0:31] [0:92] [0:135] [0:254] [0:735] [0:1260] [0:157] [0:531] [0:783] [-9999:1] [-9999:1] [-9999:4] [-9999:98] [0:10] [0:6] [0:1] [0:1] [0:1] [0:1] [0:1] [0:1] [0:1] [0:1]
tree_sizes=3301 3337 3350 3360 3358 3369 3383 3381 3382 3394 3375 3375 3392 3375 3408 3391 3381 3374 3378 3377 3404 3369 3381 3391 3396 3368 3408 3404 3340 3394 3407 3396 3369 3377 3371 3395 3373 3356 3387 3379 3318 3379 3383 3356 3366 3402 3343 3348 3354 3339 3338 3315 3366 3345 3346 3348 3328 3335 3309 3368 3340 3299 3315 3355 3311 3319 3310 3314 3332 3316 3322 3300 3308 3342 3357 3331 3288 3331 3338 3324 3316 3307 3326 3319 3311 3335

Tree=0
num_leaves=31
num_cat=0
split_feature=5 6 0 5 0 6 0 0 5 6 5 7 7 6 7 5 7 0 0 0 0 19 7 0 0 5 1 6 0 6
split_gain=14494.6 2667.83 1078.63 759.129 530.514 309.486 430.421 239.913 235.019 231.599 194.285 178.006 156.175 112.757 82.0487 73.4009 70.7002 66.7359 58.502 59.8878 56.7139 51.5026 52.4173 46.9333 50.7604 44.1329 43.4912 41.4233 40.0112 36.2376
threshold=1.5000000000000002 9.5000000000000018 3.5000000000000004 1.0000000180025095e-35 3.5000000000000004 16.500000000000004 3.5000000000000004 3.5000000000000004 3.5000000000000004 5.5000000000000009 3.5000000000000004 4.5000000000000009 9.5000000000000018 2.5000000000000004 12.500000000000002 7.5000000000000009 24.500000000000004 5.5000000000000009 5.5000000000000009 6.5000000000000009 4.5000000000000009 1.0000000180025095e-35 3.5000000000000004 2.5000000000000004 4.5000000000000009 5.5000000000000009 62.500000000000007 3.5000000000000004 5.5000000000000009 5.5000000000000009
decision_type=2 2 2 2 2 2 2 2 2 2 2 2 2 2 2 2 2 2 2 2 2 2 2 2 2 2 2 2 2 2
left_child=3 2 8 7 12 6 10 21 14 17 -3 20 -5 -6 -2 23 -12 27 -11 -20 -9 -1 -23 -7 -25 -10 -13 -4 -8 -15
right_child=1 5 9 4 13 15 28 11 25 18 16 26 -14 29 -16 -17 -18 -19 19 -21 -22 22 -24 24 -26 -27 -28 -29 -30 -31
leaf_value=-1.7607080827345014 -1.6510601019077367 -1.5036136522149364 -1.4963632722039564 -1.7409265278864525 -1.6291150076086656 -1.1910478327442049 -1.1315412542573373 -1.7074866926412009 -1.5120386611029055 -1.2788054248574268 -1.3729327543649963 -1.6307516743301749 -1.6320401452674269 -1.5426361519314546 -1.5526518838030172 -1.1261916965097947 -1.2481720574700077 -1.5704810978359158 -1.5049544622628028 -1.2635303899997699 -1.7577398581708257 -1.792604707564847 -1.7599672532912662 -1.376719558036704 -1.1249971572317912 -1.3576006248687769 -1.4321730223853613 -1.3833235077547275 -1.2464412962342475 -1.4281712259890664
leaf_weight=944.7073258459568 456.50551691651344 101.40183046460152 58.657868206501007 846.98805212974548 200.30478313565254 77.59673148393631 82.594487071037292 318.27811896800995 117.44725629687309 136.91219910979271 153.87826412916183 94.036716967821121 155.98258227109909 108.76694396138191 104.03222814202309 111.2658217549324 64.444743096828461 49.188436567783356 26.698536425828934 16.703025251626968 762.81532645225525 2884.8886527121067 593.28619614243507 34.984289109706879 10.390070825815199 21.963820606470108 12.494388967752455 72.467456012964249 47.873237729072571 37.088607251644135
leaf_count=7183 3471 771 446 6440 1523 590 628 2420 893 1041 1170 715 1186 827 791 846 490 374 203 127 5800 21935 4511 266 79 167 95 551 364 282
internal_value=0 2.57705 1.58377 -0.64615 0.0273511 4.11623 3.63118 -0.808104 0.859895 2.98874 3.00656 -0.409043 -0.341046 1.09475 0.570917 5.04847 3.53782 2.18736 3.79012 2.77845 -0.530573 -0.915259 -0.971497 4.51599 3.70809 2.0218 0.824263 2.55997 5.16186 1.76358
internal_weight=0 1745.01 1060.58 6959.64 1349.13 684.429 450.193 5610.51 699.949 360.628 319.725 1187.62 1002.97 346.16 560.538 234.237 218.323 180.314 180.314 43.4016 1081.09 4422.88 3478.17 122.971 45.3744 139.411 106.531 131.125 130.468 145.856
internal_count=66185 13268 8064 52917 10258 5204 3423 42659 5322 2742 2431 9030 7626 2632 4262 1781 1660 1371 1371 330 8220 33629 26446 935 345 1060 810 997 992 1109
shrinkage=1


Tree=1
num_leaves=31
num_cat=0
split_feature=5 6 5 0 0 0 7 0 6 7 5 5 7 6 5 0 7 0 0 2 6 5 0 0 7 0 1 3 0 13
split_gain=10168.8 1250.48 680.425 507.658 405.103 226.985 162.631 225.508 149.827 130.615 125.93 118.435 71.3172 71.0315 49.328 47.6544 45.3168 43.8978 48.2491 38.1696 35.0633 32.702 32.4802 46.9983 31.5931 38.5305 30.9094 28.5487 28.2729 36.9327
threshold=1.5000000000000002 8.5000000000000018 1.0000000180025095e-35 3.5000000000000004 3.5000000000000004 3.5000000000000004 26.500000000000004 3.5000000000000004 1.5000000000000002 7.5000000000000009 5.5000000000000009 3.5000000000000004 3.5000000000000004 3.5000000000000004 2.5000000000000004 4.5000000000000009 3.5000000000000004 5.5000000000000009 6.5000000000000009 1.0000000180025095e-35 5.5000000000000009 4.5000000000000009 5.5000000000000009 6.5000000000000009 7.5000000000000009 6.5000000000000009 42.500000000000007 1.0000000180025095e-35 2.5000000000000004 1.5000000000000002
decision_type=2 2 2 2 2 2 2 2 2 2 2 2 2 2 2 2 2 2 2 2 2 2 2 2 2 2 2 2 2 2
left_child=2 3 5 11 9 16 7 10 15 19 14 20 -6 -5 -3 27 -1 26 -19 -4 -2 -8 -14 -24 -10 -26 -15 -7 29 -16
right_child=1 6 4 13 12 8 21 -9 24 -11 -12 -13 22 17 28 -17 -18 18 -20 -21 -22 -23 23 -25 25 -27 -28 -29 -30 -31
leaf_value=-0.092951457604350252 0.025128936447235486 0.083036423982198224 0.10852805914012087 0.12956416425291886 0.047087987010778383 0.076661471774606554 0.26148792192236398 0.32633265411145956 0.024501338119320579 0.034876780229661501 0.28400538276386972 0.15178191350193115 0.16317877947127632 0.23110949999685007 0.24651343188734046 -0.067361562571279274 -0.065453754100649283 0.094525448099200604 0.26461793239704806 -0.054766798970135228 0.079619790615461428 0.34093029980673933 0.021044718873535529 0.22248241078603145 0.070508958581620415 0.3031718282838019 0.31740433083764741 -0.029290845499548707 0.12465892100954526 0.16025914075365177
leaf_weight=3421.8593714907765 363.58300969004631 56.651797339320183 14.597645550966261 91.042725324630737 185.79507586359978 28.22993528842926 63.065483167767525 217.02026949822903 136.35639575123787 227.49244549870491 131.79221549630165 122.45532712340355 127.08759517967701 174.37130033969879 100.87259657680988 694.74766898155212 726.59175387024879 42.575420320034027 27.41611322760582 737.62537649273872 174.89041063189507 290.50868870317936 44.184593349695206 15.697300016880034 29.456644311547279 9.385872006416319 54.473881870508194 256.50603133440018 57.913618713617325 97.744807794690132
leaf_count=27827 2685 387 115 617 1349 217 381 1221 1039 1700 788 816 871 1049 646 5526 5802 292 171 5811 1264 1623 304 108 215 62 327 1971 373 628
internal_value=0 1.92874 -0.610733 1.16398 0.0224034 -0.772204 2.72004 2.42759 -0.380061 -0.315183 2.01998 0.630139 0.909661 2.06895 1.67489 -0.532407 -0.881353 2.30455 1.61152 -0.515979 0.42827 3.26761 1.34569 0.738491 0.471658 1.26729 2.51651 -0.187863 1.86139 2.04065
internal_weight=0 2066.38 6655.61 1050.81 1352.48 5303.13 1015.57 661.995 1154.68 979.715 444.975 660.929 372.765 389.879 313.183 979.484 4148.45 298.837 69.9915 752.223 538.473 353.574 186.969 59.8819 175.199 38.8425 228.845 284.736 256.531 198.617
internal_count=66185 13268 52917 7221 10258 42659 6047 4043 9030 7626 2822 4765 2632 2456 2034 7714 33629 1839 463 5926 3949 2004 1283 412 1316 277 1376 2188 1647 1274
shrinkage=0.1


Tree=2
num_leaves=31
num_cat=0
split_feature=5 6 5 0 0 0 7 7 5 0 5 19 6 7 5 7 0 0 1 1 0 7 5 7 2 2 0 6 1 0
split_gain=7644.92 748.644 608.581 326.652 314.12 214.121 125.854 111.33 96.2267 124.672 80.9095 54.0513 52.1614 51.8977 51.8459 48.7623 46.3151 45.4308 39.3635 173.537 127.513 52.8742 36.93 29.6233 29.2337 26.4439 25.8715 25.0396 24.964 36.1233
threshold=1.5000000000000002 8.5000000000000018 1.0000000180025095e-35 3.5000000000000004 3.5000000000000004 3.5000000000000004 4.5000000000000009 9.5000000000000018 3.5000000000000004 3.5000000000000004 3.5000000000000004 1.0000000180025095e-35 2.5000000000000004 3.5000000000000004 2.5000000000000004 26.500000000000004 3.5000000000000004 4.5000000000000009 48.500000000000007 39.500000000000007 1.5000000000000002 1.0000000180025095e-35 7.5000000000000009 12.500000000000002 1.0000000180025095e-35 1.5000000000000002 5.5000000000000009 3.5000000000000004 23.500000000000004 2.5000000000000004
decision_type=2 2 2 2 2 2 2 2 2 2 2 2 2 2 2 2 2 2 2 2 2 2 2 2 2 2 2 2 2 2
left_child=2 3 5 10 7 11 17 24 9 -3 23 18 25 -13 26 16 22 -7 19 -1 21 -21 -10 -2 -4 -6 -5 -26 29 -15
right_child=1 8 4 14 12 6 -8 -9 15 -11 -12 13 -14 28 -16 -17 -18 -19 -20 20 -22 -23 -24 -25 27 -27 -28 -29 -30 -31
leaf_value=-0.084688758501067093 0.027544352421133841 0.11155123381144326 0.090264858903480155 0.15291227125648174 0.14345318875068844 -0.014880862726626733 0.063452800563679468 0.045343626891694466 0.17423504902221681 0.24437282117953971 0.12389528193390782 -0.097081186620371893 0.11710482774261105 0.30221287394411112 0.20517995629345892 0.25531240224702112 0.25514559657506175 -0.060820033643880944 -0.085956772152362235 0.030912360665035294 -0.095254302059992427 0.17530813663738326 0.26851376632502544 0.09174592157005286 -0.055160890139889812 0.031829045435797489 0.076994831214956316 -0.0056627723994285136 -0.066074853429766739 -0.059392556501744659
leaf_weight=312.15175168216228 469.19469717144966 183.85466828942299 15.728450044989584 194.9570781737566 23.833426803350449 311.54955691099167 115.798923432827 166.07220050692558 294.74385483562946 114.79316209256649 134.29263263940811 2509.2191887646914 177.46157310903072 4.5418922603130323 184.00016263127327 379.29254502058029 143.71560335159302 696.5921905040741 386.15251965820789 47.073708951473236 43.815706193447113 54.974562808871269 48.366057738661766 84.868878468871117 655.32094789296389 193.77494728565216 58.316258609294891 121.08308629691601 527.57664307951927 7.0518853515386581
leaf_count=2654 3386 1128 115 1088 167 2420 810 1186 1612 556 816 21935 1109 38 1002 1818 691 5800 3287 402 372 468 242 563 5355 1356 366 970 4414 59
internal_value=0 1.5535 -0.576761 0.971925 0.0183595 -0.737303 -0.352822 -0.291 2.11553 1.62605 0.542572 -0.848319 0.768681 -0.910329 1.64781 2.28431 2.07487 -0.466233 -0.624392 -0.426115 0.474347 1.087 1.87525 0.373784 -0.447072 0.440546 1.35432 -0.474415 -0.628851 0.822673
internal_weight=0 2290.4 6369.77 1125.63 1353.27 5016.5 1123.94 958.205 1164.77 298.648 688.356 3892.56 395.07 3048.39 437.273 866.118 486.826 1008.14 844.168 458.016 145.864 102.048 343.11 554.064 792.132 217.608 253.273 776.404 539.17 11.5938
internal_count=66185 13268 52917 7221 10258 42659 9030 7626 6047 1684 4765 33629 2632 26446 2456 4363 2545 8220 7183 3896 1242 870 1854 3949 6440 1523 1454 6325 4511 97
shrinkage=0.1


Tree=3
num_leaves=31
num_cat=0
split_feature=5 5 6 0 0 0 6 6 0 7 5 19 7 0 0 1 1 0 7 5 6 0 0 5 7 2 1 3 3 0
split_gain=5945.43 543.571 518.308 246.534 201.941 193.948 113.412 97.6398 139.476 93.6566 56.2259 52.4894 51.3284 39.6512 38.4342 36.6243 148.657 98.954 33.5711 31.0374 30.5015 30.0036 37.9941 28.5085 26.0435 25.2386 24.3965 23.3236 22.848 22.4932
threshold=1.5000000000000002 1.0000000180025095e-35 7.5000000000000009 3.5000000000000004 3.5000000000000004 3.5000000000000004 1.5000000000000002 11.500000000000002 3.5000000000000004 7.5000000000000009 2.5000000000000004 1.0000000180025095e-35 3.5000000000000004 4.5000000000000009 4.5000000000000009 48.500000000000007 39.500000000000007 1.5000000000000002 1.0000000180025095e-35 7.5000000000000009 5.5000000000000009 5.5000000000000009 6.5000000000000009 4.5000000000000009 12.500000000000002 1.0000000180025095e-35 33.500000000000007 153.50000000000003 1.0000000180025095e-35 2.5000000000000004
decision_type=2 2 2 2 2 2 2 2 2 2 2 2 2 2 2 2 2 2 2 2 2 2 2 2 2 2 2 2 2 2
left_child=1 4 5 9 11 10 14 8 23 25 -2 15 -13 26 28 16 -1 18 -18 -9 -15 24 -23 29 27 -3 -5 -7 -6 -4
right_child=2 3 7 13 6 21 -8 19 -10 -11 -12 12 -14 20 -16 -17 17 -19 -20 -21 -22 22 -24 -25 -26 -27 -28 -29 -30 -31
leaf_value=-0.081406250104647457 0.015176127430112516 0.076276943022990096 0.095628196388067327 0.041231906368409649 0.067159172035529 0.12655052231291192 0.039423973477168681 0.17949380794404032 0.1949136366777327 0.02752228883063923 0.07594815611853227 -0.094315769221756385 -0.059437461765418656 0.025880560399477281 -0.060631338331121942 -0.082710322316772861 0.027169951418208872 -0.092323001187535544 0.13838442860769526 0.22309690131977949 0.14814146811671822 0.029460086864193449 0.15692754973081996 0.14528789613183621 0.22824034672594562 -0.048167889629238347 0.12258666945593191 0.23740511517970955 -0.025931199035146277 0.022918243615555146
leaf_weight=293.25362502783537 360.28897392749786 16.694545224308968 204.05646027624607 50.820576578378677 29.486013635993004 254.18058981001377 181.90193894505501 595.40575081110001 253.68971890211105 236.87823015451431 263.64200986921787 2333.6160983517766 515.06349932402372 206.17216400802135 634.8254317343235 362.41923662275076 48.141300290822983 40.840708583593369 62.224110454320908 224.9170558899641 22.646898984909058 57.610028028488159 39.3603405803442 92.086528986692429 33.484507948160172 684.57957806438208 134.18851755559444 20.51117667555809 249.14238861203194 53.754330739378929
leaf_count=2654 2532 115 1183 315 217 1298 1316 2819 1155 1700 1693 21935 4511 1350 5526 3287 402 372 468 975 128 347 210 471 161 5811 839 104 1971 320
internal_value=0 -0.54426 1.29909 0.0151928 -0.703465 0.758383 -0.326828 1.68987 1.38459 -0.26842 0.408553 -0.816321 -0.880095 0.658146 -0.470419 -0.591169 -0.398785 0.406618 0.898728 1.91449 0.379811 1.29712 0.811992 0.975274 1.44978 -0.452054 1.00239 1.34828 -0.160799 0.80468
internal_weight=0 6102.89 2452.99 1351.98 4750.91 1029.08 1095.36 1423.91 603.587 938.152 623.931 3655.56 2848.68 413.828 913.454 806.879 444.46 151.206 110.365 820.323 228.819 405.147 96.9704 349.897 308.176 701.274 185.009 274.692 278.628 257.811
internal_count=66185 52917 13268 10258 42659 6345 9030 6923 3129 7626 4225 33629 26446 2632 7714 7183 3896 1242 870 3794 1478 2120 557 1974 1563 5926 1154 1402 2188 1503
shrinkage=0.1


Tree=4
num_leaves=31
num_cat=0
split_feature=5 5 7 0 0 0 7 5 6 7 0 19 7 5 5 1 1 0 6 0 2 0 2 0 1 3 6 2 1 0
split_gain=4713.73 484.43 389.695 194.81 189.869 143.484 96.5841 81.0426 80.5066 56.2836 95.2395 50.7025 50.8135 43.3552 39.3951 33.911 127.87 78.4431 33.5647 27.6983 25.4093 23.0441 22.5552 22.3793 24.3686 22.8145 22.1478 22.0318 21.5342 23.9131
threshold=1.5000000000000002 1.0000000180025095e-35 13.500000000000002 3.5000000000000004 3.5000000000000004 3.5000000000000004 3.5000000000000004 3.5000000000000004 3.5000000000000004 24.500000000000004 3.5000000000000004 1.0000000180025095e-35 3.5000000000000004 5.5000000000000009 2.5000000000000004 48.500000000000007 39.500000000000007 1.5000000000000002 3.5000000000000004 4.5000000000000009 15.500000000000002 1.5000000000000002 1.0000000180025095e-35 2.5000000000000004 62.500000000000007 30.500000000000004 6.5000000000000009 16.500000000000004 23.500000000000004 2.5000000000000004
decision_type=2 2 2 2 2 2 2 2 2 2 2 2 2 2 2 2 2 2 2 2 2 2 2 2 2 2 2 2 2 2
left_child=1 4 5 8 11 7 19 22 -3 10 13 15 21 23 -7 16 -1 20 -5 -6 -18 -13 -2 24 25 -4 -10 -8 29 -14
right_child=2 3 9 18 6 14 27 -9 26 -11 -12 12 28 -15 -16 -17 17 -19 -20 -21 -22 -23 -24 -25 -26 -27 -28 -29 -30 -31
leaf_value=-0.078174916731860444 0.25144812074205708 -0.043611645938741686 0.090315743635038498 0.038504506407121587 -0.017392444190736333 0.086966758721675613 0.070356351055597968 0.096921138182499422 0.0011358917565831178 0.17322014040647998 0.17738776749966989 -0.09928540258225288 0.23311931942206027 0.15576708430832328 0.1436932664777941 -0.079514935216672702 0.16773104383928722 -0.089457568702762891 0.099435000722274458 -0.05500520826510738 0.052188832433202395 -0.077773949537567832 0.021411733225500527 0.035960454958886043 -0.029183396444283607 0.15798961379041637 0.06221463344589824 -0.0040532673977540026 -0.059324431802949773 -0.052401031638833667
leaf_weight=275.7545937821269 4.2962171584367743 653.2295143827796 219.72765150666237 300.65645061433315 286.71528815478086 268.99229972064495 97.951416186988354 205.38180728256702 177.03275737166405 551.41905432939529 285.3687349408865 1396.675027385354 5.3723549544811231 124.39429366588593 224.6841051876545 340.43589396774769 23.903698548674583 38.077629089355469 129.28694662451744 617.34773130714893 93.410804852843285 773.94044134765863 541.28326621651649 68.621297910809517 14.065770521759985 64.421561941504478 89.321542426943779 67.016432374715805 480.96451392769814 6.461157962679863
leaf_count=2654 30 5651 1168 1921 2270 1361 667 1067 1358 2358 1222 14114 38 553 1035 3287 168 372 711 5604 702 7821 3691 374 74 335 617 489 4414 59
internal_value=0 -0.512939 1.11111 0.0126123 -0.670409 0.709081 -0.302369 0.43379 -0.247179 1.48789 1.31442 -0.784949 -0.850341 1.0475 1.12784 -0.559224 -0.372936 0.352531 0.568267 -0.430767 0.757314 -0.916154 0.232232 0.874504 0.992986 1.05659 0.216186 0.401282 -0.560455 0.772238
internal_weight=0 5853.55 2572.66 1349.53 4504.03 1244.64 1069.03 750.961 919.584 1328.02 776.599 3435 2663.41 491.231 493.676 771.583 431.147 155.392 429.943 904.063 117.315 2170.62 545.579 366.836 298.215 284.149 266.354 164.968 492.798 11.8335
internal_count=66185 52917 13268 10258 42659 7184 9030 4788 7626 6084 3726 33629 26446 2504 2396 7183 3896 1242 2632 7874 870 21935 3721 1951 1577 1503 1975 1156 4511 97
shrinkage=0.1


Tree=5
num_leaves=31
num_cat=0
split_feature=5 5 5 0 0 0 6 6 6 6 19 0 6 6 1 1 0 0 0 0 1 2 0 1 6 0 6 0 8 0
split_gain=3785.07 430.886 301.792 177.974 166.096 155.009 83.3344 67.5695 50.8853 50.2497 48.812 47.1959 43.5885 38.4491 31.8013 86.7275 101.827 31.1116 26.7039 25.5622 23.4174 22.0026 21.8396 19.9997 21.0567 19.6591 21.9013 20.5663 19.6352 19.3707
threshold=1.5000000000000002 1.0000000180025095e-35 3.5000000000000004 3.5000000000000004 3.5000000000000004 3.5000000000000004 1.5000000000000002 3.5000000000000004 11.500000000000002 6.5000000000000009 1.0000000180025095e-35 3.5000000000000004 1.5000000000000002 5.5000000000000009 37.500000000000007 48.500000000000007 1.5000000000000002 4.5000000000000009 4.5000000000000009 1.5000000000000002 62.500000000000007 1.0000000180025095e-35 2.5000000000000004 50.500000000000007 6.5000000000000009 6.5000000000000009 4.5000000000000009 5.5000000000000009 14.500000000000002 5.5000000000000009
decision_type=2 2 2 2 2 2 2 2 2 2 2 2 2 2 2 2 2 2 2 2 2 2 2 2 2 2 2 2 2 2
left_child=1 3 4 10 13 7 17 21 11 29 14 -4 19 -2 -1 16 -16 -5 -7 -12 -20 28 -17 24 -9 27 -27 -8 -3 -6
right_child=2 5 8 6 9 18 25 23 -10 -11 12 -13 -14 -15 15 22 -18 -19 20 -21 -22 -23 -24 -25 -26 26 -28 -29 -30 -31
leaf_value=-0.091621713769328983 0.012636249147986979 0.031504281223923535 0.083494014653338555 -0.013291271502175576 0.093030924166862636 0.076259144546451163 0.038135639365611582 0.011734320840543367 0.1476758123624887 0.13907439717097722 -0.096933532075063319 0.14985200594994935 -0.054152101602345827 0.056223727183283903 0.064916820611079049 -0.096400945656770154 -0.061694006968866372 -0.054218021400515543 0.018138438349074824 -0.073716435152446247 0.13656970223042433 -0.043706135230915023 -0.042321982037059704 -0.025518143943775346 0.080282379910959864 0.044026311194277773 0.21320023620028827 -0.046048154009732445 0.35970811145260995 0.036354520537899469
leaf_weight=164.34131692349911 391.1607613414526 14.97327394783497 312.88598066568375 272.46649861335754 261.29771666228771 202.33143679797649 115.54378901422024 128.05533368140459 784.14518459141254 249.21601243317127 1284.4848841801286 163.02683322131634 455.82703792303801 419.32916870713234 127.60297460854053 201.4726884663105 126.48722995072603 583.54414109140635 223.20001980662346 751.77025494724512 18.045611158013344 615.54309444129467 118.65889757871628 73.12076023966074 68.936564356088638 22.877226889133453 11.498938262462614 38.753525078296661 2.0755033195018759 78.395491823554039
leaf_count=1684 2685 101 1542 2188 1219 1154 815 980 3264 1054 13979 691 4520 2392 914 2068 1298 5526 1372 7947 106 5536 1219 538 457 163 61 277 14 421
internal_value=0 -0.48275 0.9652 -0.638108 0.645544 0.0106146 -0.279314 -0.227246 1.3202 1.04971 -0.75413 1.06225 -0.821046 0.351874 -0.528339 -0.417329 0.0188939 -0.411911 0.494674 -0.88362 0.269973 -0.406023 -0.763562 0.191443 0.357225 0.322281 1.00616 0.169919 0.714595 0.79951
internal_weight=0 5621.61 2659.46 4275.33 1399.4 1346.28 1044.68 902.705 1260.06 588.909 3230.65 475.913 2492.08 810.49 738.563 574.222 254.09 856.011 443.577 2036.26 241.246 632.592 320.132 270.113 196.992 188.673 34.3762 154.297 17.0488 339.693
internal_count=66185 52917 13268 42659 7771 10258 9030 7626 5497 2694 33629 2233 26446 5077 7183 5499 2212 7714 2632 21926 1478 5651 3287 1975 1437 1316 224 1092 115 1640
shrinkage=0.1


Tree=6
num_leaves=31
num_cat=0
split_feature=6 5 5 0 0 0 6 0 19 5 5 6 0 2 1 1 0 5 0 0 3 1 0 6 6 2 0 1 2 4
split_gain=3091.73 354.53 324.701 139.712 138.172 101.899 82.3406 59.7596 47.4611 39.3838 39.125 35.6607 32.7993 30.8473 30.6184 68.2273 93.802 30.2583 39.2177 33.1053 24.811 24.7509 23.499 27.6703 22.1079 20.8395 28.3131 26.5343 21.7316 20.8225
threshold=3.5000000000000004 2.5000000000000004 1.0000000180025095e-35 3.5000000000000004 3.5000000000000004 3.5000000000000004 9.5000000000000018 3.5000000000000004 1.0000000180025095e-35 1.0000000180025095e-35 2.5000000000000004 1.0000000180025095e-35 1.5000000000000002 1.0000000180025095e-35 37.500000000000007 48.500000000000007 1.5000000000000002 7.5000000000000009 3.5000000000000004 2.5000000000000004 -1.0000000180025095e-35 62.500000000000007 2.5000000000000004 12.500000000000002 13.500000000000002 1.5000000000000002 5.5000000000000009 41.500000000000007 10.500000000000002 1.0000000180025095e-35
decision_type=2 2 2 2 2 2 2 2 2 2 2 2 2 2 2 2 2 2 2 2 2 2 2 2 2 2 2 2 2 2
left_child=2 3 4 9 8 10 7 -3 14 -2 13 20 -10 -4 -1 16 -16 18 19 24 -6 22 23 -11 -8 -7 27 28 -27 -29
right_child=1 6 5 -5 11 25 17 -9 12 21 -12 -13 -14 -15 15 -17 -18 -19 -20 -21 -22 -23 -24 -25 -26 26 -28 29 -30 -31
leaf_value=-0.092142915824969918 -0.030751510624239017 0.05405151293324776 0.088150178265084186 0.080915502474053214 0.053064713435511703 0.089685843598307585 0.089820559553581369 0.11464848169866204 -0.092434013704666584 0.033930159521059072 0.073267784508573006 -0.004232167910491782 -0.06761330209144728 -0.034238615361932637 0.056312166665424358 -0.07375305894483844 -0.06821709461181362 0.15323338794546368 0.14910556839791425 0.062684049187885241 -0.048877625860528996 -0.070991904898059718 -0.0077890890249617184 0.16386659154320049 0.13253172383039308 0.013145136177573591 -0.019814904145464045 0.24499434496766806 0.10936869591911627 0.076147949150554908
leaf_weight=146.76440596580505 177.94678008556366 405.13660246133804 21.161632522940636 444.3700514882803 24.842131242156029 57.218468606472015 211.26110577583313 272.01256762444973 1276.6944118589163 405.9784806445241 37.743938148021698 325.57427864521742 913.22339684516191 767.29652144759893 130.05032536387444 284.42523727566004 113.08543360978365 248.92657977342606 232.84751461446285 165.66433995962143 612.95506965368986 26.806676536798477 142.39865692704916 17.078418284654617 284.24554246664047 190.3363232165575 103.07483670115471 8.4524146765470487 26.77225536108017 53.748231589794159
leaf_count=1618 1788 2208 135 2155 179 316 952 1155 14931 2708 250 2690 10073 6721 896 3104 1219 999 934 726 5808 182 960 87 1169 1092 631 46 156 297
internal_value=0 0.781053 -0.494019 0.362641 -0.639215 -0.0549645 1.06027 0.783935 -0.749404 0.105025 -0.261926 -0.311608 -0.820835 -0.309538 -0.517428 -0.405037 -0.0160793 1.22398 1.13813 1.01383 -0.44907 0.228974 0.273485 0.391756 1.14322 0.334005 0.249781 0.415083 0.250107 0.990924
internal_weight=0 3034.67 5093.42 1214.58 3827.61 1265.8 1820.09 677.149 2864.24 770.209 826.202 963.371 2189.92 788.458 674.325 527.561 243.136 1142.95 894.019 661.171 637.797 592.262 565.456 423.057 495.507 439.603 382.384 279.309 217.109 62.2006
internal_count=66185 16023 50162 7880 40518 9644 8143 3363 31841 5725 7106 8677 25004 6856 6837 5219 2115 4780 3781 2847 5987 3937 3755 2795 2121 2538 2222 1591 1248 343
shrinkage=0.1


Tree=7
num_leaves=31
num_cat=0
split_feature=6 5 5 0 0 0 7 0 19 7 0 5 5 5 1 1 0 3 2 5 0 0 0 1 0 7 1 0 1 0
split_gain=2528.8 290.186 281.987 130.057 108.027 82.6429 75.3127 50.5118 45.5285 41.9 32.9015 31.9206 31.3936 29.8558 28.8335 60.6318 77.3287 27.6226 24.6562 24.155 26.4513 31.4727 23.4015 22.658 22.1157 21.0976 21.0937 42.3211 20.7767 21.7947
threshold=3.5000000000000004 1.0000000180025095e-35 2.5000000000000004 3.5000000000000004 3.5000000000000004 3.5000000000000004 16.500000000000004 3.5000000000000004 1.0000000180025095e-35 1.5000000000000002 1.5000000000000002 1.0000000180025095e-35 2.5000000000000004 4.5000000000000009 37.500000000000007 48.500000000000007 1.5000000000000002 -1.0000000180025095e-35 1.0000000180025095e-35 7.5000000000000009 3.5000000000000004 2.5000000000000004 5.5000000000000009 53.500000000000007 2.5000000000000004 1.0000000180025095e-35 23.500000000000004 2.5000000000000004 52.500000000000007 2.5000000000000004
decision_type=2 2 2 2 2 2 2 2 2 2 2 2 2 2 2 2 2 2 2 2 2 2 2 2 2 2 2 2 2 2
left_child=1 3 4 8 11 12 7 13 14 17 -10 -2 18 -4 -1 16 25 -5 -3 20 21 23 -11 -8 -17 -16 27 -12 29 -13
right_child=2 5 6 9 -6 -7 19 -9 10 22 26 28 -14 -15 15 24 -18 -19 -20 -21 -22 -23 -24 -25 -26 -27 -28 -29 -30 -31
leaf_value=-0.089683645680157908 -0.028382586411500699 0.075068275377670135 0.035224370422312308 0.059606396712484702 0.070673455273991562 0.029464029321034271 0.11769492952735937 0.10303561782045789 -0.090095857670252133 0.025676115716948403 0.22268007408378232 0.043474358872750071 0.062861435852202469 0.087492704006885441 0.0035895850499568839 -0.093367991328188751 -0.065027840318711005 -0.046590592936324116 -0.031642578895813372 0.14038768546723404 0.13480632723921546 0.051235600334298095 -0.0343697410262064 0.064917208549859592 -0.034336153226599629 0.083431913905179761 -0.06689580255046465 -0.072916781584607918 -0.013910563794525778 -0.0056248853643561907
leaf_weight=136.25480437278748 173.74713998287916 22.297802940011024 346.2276164740324 25.474270269274712 457.15206842124462 447.0432293266058 355.6565665602684 309.009431168437 1183.6620049923658 177.15569489449263 7.6190848201513299 339.87475059181452 39.491320922970772 159.68520951271057 58.430909842252731 164.91663748025894 107.08524911105633 635.78398536890745 748.25537051260471 230.29730649292469 203.43468694388866 138.30656632781029 102.4339160323143 105.46377137303352 103.16455993801355 76.32687321305275 844.04168827831745 13.29541090875864 137.05267851799726 123.17022232711315
leaf_count=1618 1788 135 1863 178 2155 2538 1504 1277 14931 1398 64 2183 250 710 428 1941 1219 6210 6721 927 818 599 891 445 1163 468 9854 155 919 835
internal_value=0 -0.464665 0.692111 -0.607869 0.321314 -0.0505032 0.939097 0.711797 -0.719625 -0.287773 -0.792626 0.0936253 -0.240979 0.517222 -0.488189 -0.378995 -0.0159476 -0.424995 -0.285546 1.11838 1.03649 0.930749 0.0367697 1.05624 -0.70651 0.488123 -0.644376 0.347682 0.202909 0.304139
internal_weight=0 4892.73 3079.08 3635.65 1231 1257.09 1848.08 814.922 2694.8 940.848 2048.62 773.845 810.044 505.913 646.179 509.924 241.843 661.258 770.553 1033.16 802.862 599.427 279.59 461.12 268.081 134.758 864.956 20.9145 600.098 463.045
internal_count=66185 50162 16023 40518 7880 9644 8143 3850 31841 8677 25004 5725 7106 2573 6837 5219 2115 6388 6856 4293 3366 2548 2289 1949 3104 896 10073 219 3937 3018
shrinkage=0.1


Tree=8
num_leaves=31
num_cat=0
split_feature=5 6 7 0 0 0 19 7 5 0 0 1 1 0 0 5 0 0 2 6 7 10 2 1 6 1 7 5 2 10
split_gain=2082.43 302.698 171.058 123.859 116.221 69.9384 52.7741 46.4312 43.3808 36.0041 30.0053 29.1919 74.0409 28.801 27.8103 27.3149 29.6498 29.4368 24.9845 24.9545 23.416 21.1117 20.9991 19.9608 19.8916 18.9076 18.0735 18.0162 17.9559 17.5949
threshold=1.5000000000000002 1.5000000000000002 16.500000000000004 3.5000000000000004 3.5000000000000004 3.5000000000000004 1.0000000180025095e-35 7.5000000000000009 4.5000000000000009 1.5000000000000002 4.5000000000000009 48.500000000000007 38.500000000000007 1.5000000000000002 2.5000000000000004 7.5000000000000009 3.5000000000000004 2.5000000000000004 2.5000000000000004 5.5000000000000009 9.5000000000000018 11.500000000000002 6.5000000000000009 53.500000000000007 13.500000000000002 52.500000000000007 1.0000000180025095e-35 1.0000000180025095e-35 21.500000000000004 21.500000000000004
decision_type=2 2 2 2 2 2 2 2 2 2 2 2 2 2 2 2 2 2 2 2 2 2 2 2 2 2 2 2 2 2
left_child=1 4 5 7 6 8 11 -3 -2 -8 -6 12 -1 21 -13 16 17 24 -19 -7 -5 -14 29 -16 25 -4 -23 -9 -20 -11
right_child=2 3 15 20 10 19 9 27 -10 22 -12 14 13 -15 23 -17 -18 18 28 -21 -22 26 -24 -25 -26 -27 -28 -29 -30 -31
leaf_value=-0.066153609021065804 0.020319370026904066 -0.039844387481182075 0.08404107149836193 0.025758820229592819 -0.0015175021403860817 0.050599305923029282 -0.086995025668183734 -0.023122918929985962 0.076792446322477392 -0.052944326860488444 -0.039404766494304994 -0.094345288307752462 0.10612988811477991 -0.057839384101892634 -0.10317790036646485 0.12830150190539769 0.12007742789577208 0.082237163851455145 -0.0080796031417232125 0.089672586606650881 0.080087261132270549 -0.036336690652367047 -0.0714593748664515 -0.0014415074308054519 0.1082179301933564 0.016443644019987585 0.0568939287363084 0.020388323986910935 0.21056251455363939 0.0034231002669329932
leaf_weight=186.25877818465233 808.94558940827847 660.81593678891659 189.51623329520226 425.85684940218925 315.08631566166878 298.48714789748192 1170.0652590841055 156.44370662420988 163.51937840878963 188.61011987924576 621.02450364083052 155.26944760978222 41.766501545906067 32.353339955210686 25.808012254536152 226.95550927519798 236.91155360639095 76.200905203819275 77.349499359726906 361.29995484650135 97.496646657586098 34.673309326171875 473.94092070311308 76.304411262273788 285.97354508936405 52.9366255402565 51.943962708115578 242.92987197637558 3.9478202462196341 78.393838033080101
leaf_count=2262 4882 6995 851 2552 2497 1366 15433 1675 710 2244 6128 1928 277 383 294 927 959 327 349 1478 485 250 5785 856 1159 243 311 1654 17 908
internal_value=0 -0.401243 0.676771 -0.0392569 -0.567322 0.468655 -0.679265 -0.235753 0.298153 -0.760723 -0.266523 -0.421701 -0.232422 0.264827 -0.676883 0.972214 0.895778 0.790436 0.41098 0.719959 0.358798 0.477323 -0.588235 -0.271545 0.903533 0.69282 0.195733 0.0334398 0.0253772 -0.363945
internal_weight=0 5035.04 2782.04 1583.54 3451.5 1632.25 2515.39 1060.19 972.465 1911.01 936.111 604.378 346.996 160.737 257.382 1149.79 922.836 685.925 157.498 659.787 523.353 128.384 740.945 102.112 528.426 242.453 86.6173 399.374 81.2973 267.004
internal_count=66185 52917 13268 13361 39556 8436 30931 10324 5592 24370 8625 6561 3483 1221 3078 4832 3905 2946 693 2844 3037 838 8937 1150 2253 1094 561 3329 366 3152
shrinkage=0.1


Tree=9
num_leaves=31
num_cat=0
split_feature=6 5 0 0 5 7 6 0 19 6 0 0 0 1 1 0 5 0 0 3 7 20 0 12 7 19 4 3 4 17
split_gain=1730.66 291.878 158.578 102.685 72.8694 62.6523 53.7878 50.3457 44.2668 35.2958 30.3687 26.2679 31.825 25.6194 48.6285 55.3639 24.4317 23.7168 28.792 28.3709 23.4259 22.4457 20.9631 19.5144 19.3328 18.3329 16.5645 16.2793 16.096 15.5142
threshold=2.5000000000000004 2.5000000000000004 3.5000000000000004 3.5000000000000004 1.0000000180025095e-35 23.500000000000004 1.0000000180025095e-35 3.5000000000000004 1.0000000180025095e-35 5.5000000000000009 1.5000000000000002 5.5000000000000009 6.5000000000000009 37.500000000000007 48.500000000000007 1.5000000000000002 6.5000000000000009 5.5000000000000009 6.5000000000000009 97.500000000000014 3.5000000000000004 1.0000000180025095e-35 2.5000000000000004 2.5000000000000004 11.500000000000002 1.5000000000000002 6.5000000000000009 -1.0000000180025095e-35 738.50000000000011 22.500000000000004
decision_type=2 2 2 2 2 2 2 2 2 2 2 2 2 2 2 2 2 2 2 2 2 2 2 2 2 2 2 2 2 2
left_child=2 3 4 9 8 7 27 16 13 -2 -10 25 -13 -1 15 -15 -3 19 -19 20 -8 29 -16 -22 28 -9 -11 -4 -5 -6
right_child=1 5 6 24 21 -7 17 11 10 26 -12 12 -14 14 22 -17 -18 18 -20 -21 23 -23 -24 -25 -26 -27 -28 -29 -30 -31
leaf_value=-0.085553720298828656 -0.015114964783628785 0.042143140414175322 0.038941505196489243 0.038479351451647881 -0.013514981366096643 0.10180314997094059 -0.00040907875229484464 0.13714964625532314 -0.086809496843194889 0.047984159066867302 -0.059832449946399392 0.011021542934438465 0.11178167593962351 0.039134522614073679 -0.090364528096153113 -0.061154013840595038 0.094557920691899847 -0.055337659436218281 0.029652759046276539 0.12156555110380339 0.099715539785279958 0.070231287093869638 -0.029249670909176476 -0.0045511967363313843 0.08011996171699709 0.087606155959127116 0.006453352463461225 -0.041039703013071895 0.27780397486242564 -0.047638787951812533
leaf_weight=116.24981386959553 659.78143353760242 751.73302680253983 26.663460120558739 491.79959823936224 255.40433863550425 599.75420580804348 309.820526227355 110.65151910483837 1001.4924186989665 155.55163481086493 715.35252297669649 78.989764466881752 51.971184402704239 139.33499301970005 137.07750353962183 90.993915423750877 100.86135721206665 113.22400902211666 61.515618830919266 25.104026481509209 48.596871599555016 22.692050293087959 95.039288118481636 28.463274955749512 157.04190245270729 229.8103311508894 251.0061207190156 558.44696342200041 2.8263911306858054 278.53254634141922
leaf_count=1567 5874 3648 179 2426 2483 2466 2196 450 14664 1029 9273 333 212 883 1880 1148 413 892 474 158 297 134 1127 177 684 936 1648 5808 14 2712
internal_value=0 0.482363 -0.469115 0.182786 -0.596359 0.749897 -0.15941 0.628438 -0.675068 -0.00833438 -0.755691 0.890679 0.510077 -0.435881 -0.330388 -0.00485544 0.483438 0.0545388 -0.254175 0.185477 0.11863 -0.271762 -0.653413 0.612031 0.495521 1.03708 0.223433 -0.37395 0.398469 -0.313159
internal_weight=0 3641.78 4024 1718.01 2852.17 1923.77 1171.83 1324.02 2295.54 1066.34 1716.84 471.423 130.961 578.696 462.446 230.329 852.594 586.724 174.74 411.985 386.881 556.629 232.117 77.0601 651.668 340.462 406.558 585.11 494.626 533.937
internal_count=66185 20133 46052 11675 35871 8458 10181 5992 30542 8551 23937 1931 545 6605 5038 2031 4061 4194 1366 2828 2670 5329 3007 474 3124 1386 2677 5987 2440 5195
shrinkage=0.1


Tree=10
num_leaves=31
num_cat=0
split_feature=5 5 7 0 0 7 7 19 5 0 0 0 4 7 1 1 0 5 0 0 1 1 0 3 7 19 5 2 2 7
split_gain=1420.04 238.777 124.451 116.27 55.4347 42.3296 42.0766 39.9657 33.0718 40.4909 29.4929 26.0739 25.4434 24.5714 24.4909 44.1487 27.2573 24.473 24.1969 20.426 19.9128 19.3332 19.3055 19.2297 17.5573 17.053 16.9736 16.1128 16.0889 14.6322
threshold=1.5000000000000002 1.0000000180025095e-35 13.500000000000002 3.5000000000000004 1.5000000000000002 1.5000000000000002 2.5000000000000004 1.0000000180025095e-35 7.5000000000000009 3.5000000000000004 3.5000000000000004 1.5000000000000002 1.0000000180025095e-35 24.500000000000004 37.500000000000007 48.500000000000007 1.5000000000000002 4.5000000000000009 1.5000000000000002 3.5000000000000004 23.500000000000004 51.500000000000007 2.5000000000000004 -1.0000000180025095e-35 17.500000000000004 2.5000000000000004 3.5000000000000004 3.5000000000000004 9.5000000000000018 12.500000000000002
decision_type=2 2 2 2 2 2 2 2 2 2 2 2 2 2 2 2 2 2 2 2 2 2 2 2 2 2 2 2 2 2
left_child=1 3 10 6 12 23 7 14 9 13 17 -9 21 -4 -1 16 -16 -2 -17 22 25 -3 -6 -5 -14 -8 28 -24 -12 -27
right_child=2 4 8 5 19 -7 20 11 -10 -11 26 -13 24 -15 15 18 -18 -19 -20 -21 -22 -23 27 -25 -26 29 -28 -29 -30 -31
leaf_value=-0.088184490185693853 0.014092107596687487 0.072265139415881863 0.043540929384759147 0.046928962424930221 0.016901641732948024 0.0082668886367498178 -0.050476762855949125 -0.087998937024217933 0.11039653568534735 0.097989803822904217 0.038148708183185401 -0.058929631955093743 -0.049743969687723599 0.078223665489073169 0.02953791999497506 -0.099576131249304076 -0.058961899010094902 0.063009441909577385 -0.027954638398630455 0.027830530792499055 -0.0417423250541306 -0.041964084587894163 0.015722070023464256 -0.039301275083460471 0.10153720101081841 0.0956934111048795 0.089723598652666381 -0.042064167175279471 0.11189232173900759 0.40814384634695466
leaf_weight=95.706361159682274 700.40274603664875 36.094401314854622 518.5234789699316 27.060964897274971 265.991663582623 346.8546406775713 6.7135945707559612 847.68446919322014 227.59973903000355 340.19653949141502 433.92594534158707 485.1560430303216 280.3989093080163 337.04615281522274 125.74790371954441 97.124541148543358 48.11873934417963 119.76075676083565 91.71370629966259 483.60156013071537 634.16663074493408 25.134174190461636 71.68549932539463 583.46096524596214 7.8874531835317603 7.4547486230730993 94.186512127518654 147.61430502682924 31.750218749046326 1.8759904056787489
leaf_count=1390 4276 332 2329 178 2199 2642 82 13487 969 1404 1877 6793 2791 1382 790 1445 645 512 1142 2632 7779 250 640 6210 48 64 383 1366 136 12
internal_value=0 -0.351538 0.547113 -0.491662 0.00969886 -0.196301 -0.607483 -0.686577 0.754578 0.688076 0.333133 -0.774177 -0.331707 0.57204 -0.431878 -0.313146 0.0504501 0.21235 -0.647915 0.132856 -0.389588 0.253743 -0.0120862 -0.354792 -0.456049 0.710633 0.510073 -0.231748 0.431766 1.58513
internal_weight=0 4717.25 2803.39 3398.84 1318.41 957.377 2441.46 1791.25 1423.37 1195.77 1380.03 1332.84 349.515 855.57 458.411 362.705 173.867 820.164 188.838 968.893 650.211 61.2286 485.291 610.522 288.286 16.0443 559.863 219.3 465.676 9.33074
internal_count=66185 52917 13268 42659 10258 9030 33629 25692 6084 5115 7184 20280 3421 3711 5412 4022 1435 4788 2587 6837 7937 582 4205 6388 2839 158 2396 2006 2013 76
shrinkage=0.1


Tree=11
num_leaves=31
num_cat=0
split_feature=6 6 0 5 0 6 0 19 6 2 5 0 5 10 0 0 0 13 7 8 0 2 17 2 0 0 7 0 7 11
split_gain=1211.16 198.775 126.94 61.296 52.9693 46.8962 52.7373 40.2556 37.1468 36.6971 29.7274 29.5231 22.2384 20.1377 36.6121 19.1172 24.1665 22.894 20.3425 16.9632 16.2988 15.9009 15.6184 23.0331 15.2324 32.0668 18.5564 14.6409 14.5126 13.3257
threshold=2.5000000000000004 6.5000000000000009 3.5000000000000004 1.0000000180025095e-35 3.5000000000000004 17.500000000000004 3.5000000000000004 1.0000000180025095e-35 1.0000000180025095e-35 1.5000000000000002 1.5000000000000002 1.5000000000000002 4.5000000000000009 3.5000000000000004 1.5000000000000002 5.5000000000000009 6.5000000000000009 2.5000000000000004 4.5000000000000009 79.500000000000014 2.5000000000000004 1.5000000000000002 23.500000000000004 25.500000000000004 5.5000000000000009 6.5000000000000009 20.500000000000004 4.5000000000000009 15.500000000000002 25.500000000000004
decision_type=2 2 2 2 2 2 2 2 2 2 2 2 2 2 2 2 2 2 2 2 2 2 2 2 2 2 2 2 2 2
left_child=2 4 3 7 10 6 12 29 27 -5 -2 -9 13 14 -3 17 -17 18 -10 -13 -16 -18 23 -6 28 26 -26 -4 -8 -1
right_child=1 5 8 9 22 -7 24 11 15 -11 -12 19 -14 -15 20 16 21 -19 -20 -21 -22 -23 -24 -25 25 -27 -28 -29 -30 -31
leaf_value=-0.038844015195520908 -0.017472108630368726 0.14441609815776685 -0.0079402534256287609 0.034636726613875443 0.047942802229440806 0.0937321341749357 0.073080231889231448 -0.082203735658071472 0.028458635389679202 -0.03549790370823417 0.016939314075822935 -0.054556934661720374 0.060474416704430295 0.020900066736340026 0.061425792455301054 -0.052755153170037462 0.16769946091799265 -0.0075361648942045729 0.13224831423908534 0.41810627554926888 -0.0070200074040642629 0.0072573439347057124 0.020961658830814554 0.23246142415374346 -0.0068231654935565393 0.12069287655944301 0.073287354129891485 -0.043255807473509433 0.11365918445466144 0.35700521599491064
leaf_weight=535.71468995511532 512.33677521348 39.566103868186474 168.82864202558994 89.483323909342289 308.61116709560156 353.11210500448942 195.16108237206936 864.22935799509287 181.22646573185921 448.69463767111301 492.24560484290123 650.16018910706043 389.55117304623127 533.80273251235485 94.574258700013161 109.84088455140591 6.9419891834259024 216.0791896879673 21.080686300992966 0.76017051935195823 55.036751873791218 56.062990203499794 334.00019392371178 6.9166896417736998 69.537999510765076 51.882075816392899 49.494816973805428 385.30728965252638 160.71079367399216 0.85176388919353374
leaf_count=6594 5074 193 1486 769 1447 1515 803 14664 1213 4560 2954 9262 1603 2774 460 892 37 1498 117 11 319 437 1560 32 295 214 207 4501 683 11
internal_value=0 0.394028 -0.416151 -0.538745 0.137787 0.60676 0.535556 -0.617537 -0.138942 -0.238366 -0.00610503 -0.700893 0.412135 0.308355 0.588703 0.0354057 -0.244359 0.150983 0.392737 -0.540049 0.362469 0.249351 0.360335 0.519876 0.796211 0.55084 0.264874 -0.324962 0.914056 -0.382156
internal_weight=0 3646.54 3735.26 2589.89 1654.11 1992.43 1639.32 2051.72 1145.37 538.178 1004.58 1515.15 1112.53 722.98 189.177 591.232 172.846 418.386 202.307 650.92 149.611 63.005 649.528 315.528 526.787 170.915 119.033 554.136 355.872 536.566
internal_count=66185 20133 46052 35871 11067 9066 7551 30542 10181 5329 8028 23937 5349 3746 972 4194 1366 2828 1330 9273 779 474 3039 1479 2202 716 502 5987 1486 6605
shrinkage=0.1


Tree=12
num_leaves=31
num_cat=0
split_feature=6 6 0 0 5 19 5 7 5 0 2 0 1 1 0 0 6 17 0 3 0 2 0 0 1 1 1 1 6 19
split_gain=1003.51 167.151 113.249 57.6287 56.4541 38.508 32.3525 31.3363 30.7776 38.6505 30.3344 29.1094 23.1484 39.8535 41.1792 23.0771 26.2945 23.2226 22.0888 28.1282 23.0072 21.0215 20.0634 16.7205 22.8409 32.3771 19.4789 21.078 18.7834 15.904
threshold=2.5000000000000004 8.5000000000000018 3.5000000000000004 3.5000000000000004 1.0000000180025095e-35 1.0000000180025095e-35 1.0000000180025095e-35 1.0000000180025095e-35 7.5000000000000009 3.5000000000000004 1.5000000000000002 1.5000000000000002 37.500000000000007 48.500000000000007 1.5000000000000002 2.5000000000000004 13.500000000000002 30.500000000000004 5.5000000000000009 144.50000000000003 6.5000000000000009 2.5000000000000004 1.5000000000000002 2.5000000000000004 36.500000000000007 48.500000000000007 47.500000000000007 38.500000000000007 5.5000000000000009 1.0000000180025095e-35
decision_type=2 2 2 2 2 2 2 2 2 2 2 2 2 2 2 2 2 2 2 2 2 2 2 2 2 2 2 2 2 2
left_child=2 3 4 6 5 12 -2 -4 9 15 -6 -7 -1 14 -14 16 17 -3 19 -9 -20 -17 -15 24 -8 26 27 -26 -28 -29
right_child=1 8 7 -5 10 11 23 18 -10 -11 -12 -13 13 22 -16 21 -18 -19 20 -21 -22 -23 -24 -25 25 -27 28 29 -30 -31
leaf_value=-0.079440447506053932 -0.027907456621414913 0.051924901040455267 -0.034655364409930924 0.037872489976731427 0.030394035195387078 -0.07983532503691193 -0.0091141571015249442 0.0061716088149341743 0.09533515599681186 0.084965653916715761 -0.03288764076990594 -0.05102196254863111 0.036422349392786442 -0.091039882537919684 -0.053309208017002722 0.051523794040994081 0.07671576509676907 -0.0028835052210764108 -0.052129276249402182 0.11693692410518847 0.01461182625802725 -0.0081890314508022612 -0.027889930611059835 -0.0084527496872277823 0.11067638342339488 0.006325660485182215 0.054271800196045356 -0.039845366104249776 0.19292852962640672 0.041689199891179397
leaf_weight=97.456258311867714 248.84373176842928 289.08009826391935 413.117874532938 860.04712080955505 91.653433196246624 804.0128809697926 201.08976101130247 475.53177943080664 226.1840912848711 324.5787955224514 436.5346794873476 621.78420237451792 141.20298686623573 94.731278505176306 80.18641959130764 105.37872555851936 295.51332211494446 105.52696079015732 135.01357668638229 24.087623722851276 83.652897343039513 133.82938204705715 107.29141985625029 286.39503552764654 39.239756092429161 285.29510034620762 20.777127131819725 27.663675472140312 18.441765524446964 176.94383067637682
leaf_count=1567 2934 1311 4628 3882 769 14664 1280 3458 1014 1394 4560 9273 883 1576 1148 449 1239 473 1235 150 710 653 1431 1878 248 1846 144 172 96 1120
internal_value=0 0.35484 -0.3892 0.177765 -0.509018 -0.58769 0.0452931 -0.127108 0.613824 0.552579 -0.219067 -0.672699 -0.354991 -0.253852 0.0392191 0.448822 0.541597 0.372679 -0.000895322 0.115118 -0.265968 0.181164 -0.575018 0.121741 0.198515 0.300997 0.54061 0.435407 1.19472 0.306654
internal_weight=0 3644.83 3606.26 2164.74 2474.85 1946.67 1304.69 1131.4 1480.09 1253.91 528.188 1425.8 520.868 423.412 221.389 929.328 690.12 394.607 718.286 499.619 218.666 239.208 202.023 1055.85 769.451 568.361 283.066 243.847 39.2189 204.608
internal_count=66185 20133 46052 13600 35871 30542 9718 10181 6533 5519 5329 23937 6605 5038 2031 4125 3023 1784 5553 3608 1945 1102 3007 6784 4906 3626 1780 1540 240 1292
shrinkage=0.1


Tree=13
num_leaves=31
num_cat=0
split_feature=6 5 5 2 7 2 5 2 7 2 6 7 19 3 3 6 3 2 13 3 16 10 2 6 17 10 8 6 2 18
split_gain=831.498 147.82 85.0602 41.8737 40.1527 29.7954 26.256 25.4167 21.5724 19.0156 17.5827 17.5413 22.7606 16.9703 13.6896 12.8229 12.2888 11.1779 11.049 10.9932 10.9443 10.7535 10.4247 10.4242 10.1739 9.98292 10.5552 9.45302 9.1482 9.06274
threshold=2.5000000000000004 2.5000000000000004 1.0000000180025095e-35 18.500000000000004 28.500000000000004 1.5000000000000002 1.0000000180025095e-35 10.500000000000002 3.5000000000000004 11.500000000000002 5.5000000000000009 1.5000000000000002 2.5000000000000004 -1.0000000180025095e-35 213.50000000000003 8.5000000000000018 51.500000000000007 70.500000000000014 7.5000000000000009 472.50000000000006 3.5000000000000004 105.50000000000001 1.5000000000000002 12.500000000000002 42.500000000000007 160.50000000000003 21.500000000000004 1.5000000000000002 12.500000000000002 8.5000000000000018
decision_type=2 2 2 2 2 2 2 2 2 2 2 2 2 2 2 2 2 2 2 2 2 2 2 2 2 2 2 2 2 2
left_child=2 6 3 8 15 25 19 10 13 18 21 12 16 -1 29 -3 -5 -13 -7 28 22 -8 -10 -9 -22 26 -4 -11 -2 -12
right_child=1 4 5 11 -6 9 7 23 20 27 14 17 -14 -15 -16 -17 -18 -19 -20 -21 24 -23 -24 -25 -26 -27 -28 -29 -30 -31
leaf_value=0.038665970970138297 0.0038674829629586904 0.033370848522381147 0.033386390791210328 -0.055794444866838225 0.080557005524897973 -0.016533199943904685 0.0078836480583675695 0.054440399227180636 0.19006816808800639 -0.0051523031185886914 0.021419799527314015 -0.039917839635857669 -0.07727228598294264 -0.037372246708029154 0.088036511239702075 0.051930543790214612 -0.01971239725278149 0.20239253440764482 -0.049416915778433983 0.11214740046996581 0.27080440607998135 -0.026305588411879424 -0.00045493690197418612 0.21167095849169054 -0.11040619096066273 -0.080548814757681331 0.15251544021118602 0.055020259762658612 -0.028116619667101429 0.1928840246905156
leaf_weight=30.339346822351217 152.83615261316299 646.89376953244209 120.77006493508816 491.11227991804481 375.55214309692383 463.08129286020994 594.54507185518742 123.52480406314135 2.9437384307384482 57.156280823051929 497.03316036611795 459.8635507710278 525.76315087452531 901.11298987269402 34.023972518742085 876.84500186145306 116.84862140193582 1.9116854518651953 131.10711099207401 6.9448838084936133 2.8477137535810466 108.8374045714736 117.65770742297173 4.3656881749629965 0.92832008004188515 7.1659076809883109 7.9257072806358329 48.061778001487255 215.54607781022787 3.1018053591251364
leaf_count=206 1474 3048 873 7153 1669 3992 3751 775 32 575 2517 6313 8975 13211 177 3741 1601 26 1174 71 32 679 1358 21 12 57 58 404 2195 15
internal_value=0 0.319771 -0.36354 -0.451209 0.512695 -0.085261 0.109277 0.173666 -0.296723 -0.168503 0.129807 -0.553441 -0.620359 -0.348955 0.266587 0.440511 -0.488596 -0.389147 -0.23789 -0.124971 0.0944436 0.025934 0.0419551 0.598076 1.77086 0.343266 0.407229 0.223335 -0.148469 0.224832
internal_weight=0 3640.05 3486.6 2651.33 1899.29 835.268 1740.76 1365.43 1055.83 699.406 1237.54 1595.5 1133.72 931.452 534.159 1523.74 607.961 461.775 594.188 375.327 124.377 703.382 120.601 127.89 3.77603 135.862 128.696 105.218 368.382 500.135
internal_count=66185 20133 46052 38919 8458 7133 11675 7935 14851 6145 7139 24068 17729 13417 2709 6789 8754 6339 5166 3740 1434 4430 1390 796 44 988 931 979 3669 2532
shrinkage=0.1


Tree=14
num_leaves=31
num_cat=0
split_feature=6 5 0 0 5 19 1 1 0 6 6 5 2 2 0 6 2 0 1 1 1 2 0 1 1 4 2 2 1 0
split_gain=686.997 123.844 103.615 64.1207 51.069 49.6655 48.113 67.5376 26.4408 24.6944 22.8659 20.2866 20.8602 18.9203 18.8882 18.8793 17.6557 17.1193 18.1822 27.4349 22.8722 17.1041 16.8447 16.2765 15.3347 15.1764 14.9657 14.8467 14.3868 19.9926
threshold=2.5000000000000004 3.5000000000000004 1.5000000000000002 3.5000000000000004 1.0000000180025095e-35 1.0000000180025095e-35 49.500000000000007 37.500000000000007 3.5000000000000004 16.500000000000004 6.5000000000000009 1.0000000180025095e-35 10.500000000000002 1.5000000000000002 4.5000000000000009 1.0000000180025095e-35 15.500000000000002 2.5000000000000004 52.500000000000007 36.500000000000007 38.500000000000007 15.500000000000002 3.5000000000000004 56.500000000000007 36.500000000000007 1.0000000180025095e-35 21.500000000000004 18.500000000000004 23.500000000000004 2.5000000000000004
decision_type=2 2 2 2 2 2 2 2 2 2 2 2 2 2 2 2 2 2 2 2 2 2 2 2 2 2 2 2 2 2
left_child=2 3 5 11 8 6 7 -1 23 22 -5 -2 17 -6 27 -7 -15 18 19 -13 -21 -9 24 28 -3 -26 -25 -10 29 -4
right_child=1 9 4 10 13 15 -8 21 14 -11 -12 12 -14 16 -16 -17 -18 -19 -20 20 -22 -23 -24 26 25 -27 -28 -29 -30 -31
leaf_value=-0.065984669955569619 -0.023414368566719725 0.010972646741952641 0.13582721271999845 0.025064666842948748 0.045119640129010048 -0.080821008164301655 -0.08061371940924339 0.10270809260443475 0.024828251206507623 0.075452147670492561 0.058684378165211465 -0.0089180380897260561 0.04989219316512384 -0.0096415658707623558 -0.028671828044468751 -0.052056944586909529 0.05321636254790936 -0.018707442770237764 -0.015452877846845245 0.098718436964246245 0.025840724344284506 0.023279130969597498 0.067558383286384485 0.031380775003022464 0.079642454399888846 0.036329959679050304 -0.057491640243611988 -0.020743006378294064 -0.050518640648620321 -0.072432893439388843
leaf_weight=93.951150987297297 255.26866609603167 172.24604864418507 9.8979185186326504 632.01771795749664 98.871118418872356 526.59007826820016 105.00770798698068 35.647731050848961 153.69051963090897 378.52127647399902 297.54137666523457 223.85004565119743 106.45405751466751 422.16601273417473 489.16997433453798 402.67261117324233 49.975168734788895 262.93378480523825 202.08059870451689 49.144369810819626 348.09466044604778 113.20813108235598 239.81802140176296 52.197967950254679 103.61556734144688 368.99353089928627 29.745778050273657 133.66590810567141 657.77971605211496 8.6273556016385555
leaf_count=1581 3087 728 109 2909 636 10998 1808 235 1256 1731 1266 1343 702 3300 5906 6041 376 1718 1281 273 2057 730 1046 733 436 1556 445 1215 10544 139
internal_value=0 0.287742 -0.338186 0.1533 -0.201895 -0.562919 -0.240579 0.00400984 -0.296883 0.540769 0.35826 0.0217077 0.0764731 0.0534171 -0.167183 -0.683568 -0.0298818 0.0350669 0.106022 0.190797 0.348568 0.423006 0.449312 -0.429711 0.365163 0.458259 -0.00880127 0.0363045 -0.48071 0.38839
internal_weight=0 3640.58 3382.86 2377.39 2105.79 1277.08 347.815 242.807 1534.78 1263.19 929.559 1447.83 1192.56 571.012 776.526 929.263 472.141 1086.1 823.17 621.089 397.239 148.856 884.673 758.249 644.855 472.609 81.9437 287.356 676.305 18.5253
internal_count=66185 20133 46052 14636 24659 21393 4354 2546 20347 5497 4175 10461 7374 4312 8377 17039 3676 6672 4954 3673 2330 965 3766 11970 2720 1992 1178 2471 10792 248
shrinkage=0.1


Tree=15
num_leaves=31
num_cat=0
split_feature=5 6 0 5 0 7 19 0 0 0 1 1 1 1 0 7 0 0 10 1 19 0 5 0 10 6 6 1 7 9
split_gain=576.018 137.452 76.1621 36.3967 34.7851 33.1426 32.2549 31.0057 25.9436 25.2689 31.7309 33.9141 21.3718 31.1671 23.1728 21.0705 19.3888 30.9628 23.5675 18.5981 24.2654 20.5358 17.1428 15.8438 15.586 16.6318 15.5083 15.1669 14.9771 14.9741
threshold=1.0000000180025095e-35 5.5000000000000009 3.5000000000000004 7.5000000000000009 3.5000000000000004 2.5000000000000004 1.0000000180025095e-35 3.5000000000000004 1.5000000000000002 2.5000000000000004 53.500000000000007 36.500000000000007 37.500000000000007 48.500000000000007 1.5000000000000002 1.5000000000000002 5.5000000000000009 6.5000000000000009 18.500000000000004 38.500000000000007 1.0000000180025095e-35 1.5000000000000002 1.5000000000000002 1.5000000000000002 37.500000000000007 13.500000000000002 11.500000000000002 23.500000000000004 15.500000000000002 11.500000000000002
decision_type=2 2 2 2 2 2 2 2 2 2 2 2 2 2 2 2 2 2 2 2 2 2 2 2 2 2 2 2 2 2
left_child=2 7 5 4 9 6 12 22 -8 10 11 26 -1 23 -15 -4 18 -18 -9 -13 21 -21 -2 -14 25 -12 -3 -7 -6 -10
right_child=1 3 15 -5 28 27 8 16 29 -11 24 19 13 14 -16 -17 17 -19 -20 20 -22 -23 -24 -25 -26 -27 -28 -29 -30 -31
leaf_value=-0.079857721843643675 -0.018215094764158456 -0.0031554725009123874 -0.02397749096759709 0.079215377184026978 0.042253521933908321 0.069555165831338819 -0.077921798113432028 0.056377340690784108 -0.058901211018468951 0.003284218180858479 0.0063051100669342074 0.11477044211324131 0.027213403556057659 -0.094226049853499069 -0.016026281130937819 0.0076760327813357402 -0.037279787756692939 0.045512943670216244 0.012977801380331928 0.057882960749838445 0.061583181964090308 -0.065153928715338386 0.0069099041414526262 -0.045571919128114202 -0.023041974194228796 0.090867795598788978 0.044463252866238416 -0.029370488893630916 0.073774265412568027 -0.017495077248017198
leaf_weight=72.969980757683516 655.10862475633621 166.59528125822544 539.58166589587927 209.6384492367506 373.70243598520756 15.950488794595001 603.48074951022863 192.43772864341736 256.48597253859043 348.75773707777262 91.860828049480915 54.586217626929283 127.08568827807903 71.095392465591431 81.14305792376399 344.60033892840147 129.0357995480299 69.499752148985863 357.71448130905628 24.793871715664864 396.81626300513744 29.9553492218256 463.83851075172424 39.110945738852024 119.0453108549118 31.143893241882324 116.02379946410656 546.44582115486264 252.65724255144596 132.4382072687149
leaf_count=1390 6704 832 6388 1024 1558 158 13487 909 4501 1657 445 243 790 1445 1142 2642 733 341 1738 114 1814 140 2927 645 571 133 496 7779 1147 2292
internal_value=0 0.22723 -0.35978 0.395683 0.354248 -0.470347 -0.553539 0.0273951 -0.649419 0.265517 0.344238 0.441429 -0.310435 -0.198577 -0.525456 -0.116409 0.184913 -0.082972 0.281585 0.596373 0.529727 -0.0943513 -0.078 0.100849 0.0275204 0.277158 0.163935 -0.265648 0.549682 -0.448014
internal_weight=0 4083.21 2830.39 2215.58 2005.94 1946.21 1383.81 1867.63 992.405 1379.58 1030.82 788.771 391.405 318.435 152.238 884.182 748.688 198.536 550.152 506.152 451.565 54.7492 1118.95 166.197 242.05 123.005 282.619 562.396 626.36 388.924
internal_count=66185 23526 42659 10174 9150 33629 25692 13352 20280 6445 4788 3639 5412 4022 2587 9030 3721 1074 2647 2311 2068 254 9631 1435 1149 578 1328 7937 2705 6793
shrinkage=0.1


Tree=16
num_leaves=31
num_cat=0
split_feature=5 5 0 0 2 7 0 0 0 7 7 7 4 0 0 13 7 5 13 10 10 10 0 0 0 4 4 1 6 1
split_gain=478.748 115.556 67.7025 32.5847 30.8874 30.3509 22.4749 22.0221 21.2487 18.8813 17.8264 17.479 17.4709 15.5663 29.479 22.7959 17.2908 13.6642 13.2252 14.3344 12.9301 12.7019 25.5087 16.9883 12.663 16.5405 16.427 13.868 12.6919 12.5239
threshold=1.0000000180025095e-35 2.5000000000000004 3.5000000000000004 3.5000000000000004 41.500000000000007 28.500000000000004 3.5000000000000004 5.5000000000000009 6.5000000000000009 10.500000000000002 5.5000000000000009 1.5000000000000002 7.5000000000000009 5.5000000000000009 6.5000000000000009 3.5000000000000004 10.500000000000002 5.5000000000000009 9.5000000000000018 27.500000000000004 1.0000000180025095e-35 24.500000000000004 1.5000000000000002 2.5000000000000004 2.5000000000000004 12.500000000000002 171.50000000000003 36.500000000000007 14.500000000000002 30.500000000000004
decision_type=2 2 2 2 2 2 2 2 2 2 2 2 2 2 2 2 2 2 2 2 2 2 2 2 2 2 2 2 2 2
left_child=2 3 4 9 10 6 17 -8 -9 21 -1 -4 20 15 -15 -5 -17 18 24 -20 -11 23 -23 29 25 27 -27 28 -3 -2
right_child=1 5 11 13 -6 -7 7 8 -10 12 -12 -13 -14 14 -16 16 -18 -19 19 -21 -22 22 -24 -25 -26 26 -28 -29 -30 -31
leaf_value=-0.041865935603821 -0.060176621192011795 0.000375402041062962 -0.022023477127881119 0.044599108032750995 -0.06516662841096188 0.065380172407325438 0.065158512892346421 -0.01047835468520911 0.070465191509922642 0.088732701478743847 -0.012387552783278024 0.0068728438673647842 -0.0036300894743199114 -0.028144722121648078 0.04768655466068368 -0.0048291432368481393 0.056202041979759379 0.045608581198115318 0.24715716353333678 -0.013500280830470541 0.022549892996713037 -0.046845074894649445 -0.00026771543077630262 -0.026185560769004381 0.0015105606141842566 0.0022075549215427102 0.065700945436099972 0.067149469437855339 0.16179439800189535 0.017818630090726744
leaf_weight=1099.8465945459902 22.090539745986462 61.334374219179153 529.27256331592798 360.04671701788902 513.9957246221602 350.0366675555706 327.38007429242134 92.105200350284576 50.057428538799286 41.736321538686752 252.17833628132939 346.2902507558465 205.60491877794266 151.94695222377777 77.366545498371124 237.36549633741379 57.706134557723999 238.09824357926846 2.1424413770437232 138.42223271727562 100.84861201792955 238.82608164101839 231.61040764302015 174.38501221686602 179.51265907287598 203.42794118821621 50.953807607293129 167.15844891965389 5.2911833524703971 302.56039545685053
leaf_count=19848 181 289 6388 1667 10463 1669 1444 401 219 221 3318 2642 1142 839 369 1158 242 1014 10 633 565 2423 1978 1564 860 919 227 751 22 2719
internal_value=0 0.205298 -0.33536 0.0501538 -0.443003 0.388393 0.327107 0.508874 0.18023 -0.0495057 -0.363677 -0.105948 0.150238 0.198631 -0.0256052 0.277121 0.0710651 0.245539 0.183515 -0.0952742 0.419224 -0.121245 -0.239136 -0.0101093 0.242207 0.325719 0.149256 0.51773 0.131948 0.125115
internal_weight=0 4068.01 2741.58 2202.09 1866.02 1865.92 1515.88 469.543 142.163 1317.66 1352.02 875.563 348.19 884.432 229.313 655.118 295.072 1046.34 808.243 140.565 142.585 969.472 470.436 499.036 667.678 488.166 254.382 233.784 66.6256 324.651
internal_count=66185 23526 42659 15068 33629 8458 6789 2064 620 10793 23166 9030 1928 4275 1208 3067 1400 4725 3711 643 786 8865 4401 4464 3068 2208 1146 1062 311 2900
shrinkage=0.1


Tree=17
num_leaves=31
num_cat=0
split_feature=6 5 0 19 1 1 0 2 0 7 7 7 7 0 7 1 11 0 1 1 10 3 0 3 19 0 1 13 2 2
split_gain=399.53 76.2424 76.1915 46.3147 41.5396 51.2197 35.4033 34.587 27.6651 23.7081 22.5155 20.379 18.5045 19.3138 16.6337 16.5023 15.7472 15.411 15.3894 34.513 15.2019 19.5343 13.9384 17.5501 14.0245 13.7117 18.9523 13.5289 13.1837 18.1454
threshold=2.5000000000000004 3.5000000000000004 1.5000000000000002 1.0000000180025095e-35 49.500000000000007 37.500000000000007 3.5000000000000004 6.5000000000000009 3.5000000000000004 15.500000000000002 1.5000000000000002 31.500000000000004 1.5000000000000002 5.5000000000000009 1.0000000180025095e-35 62.500000000000007 16.500000000000004 5.5000000000000009 41.500000000000007 40.500000000000007 28.500000000000004 2.5000000000000004 2.5000000000000004 194.50000000000003 5.5000000000000009 2.5000000000000004 23.500000000000004 3.5000000000000004 115.50000000000001 151.50000000000003
decision_type=2 2 2 2 2 2 2 2 2 2 2 2 2 2 2 2 2 2 2 2 2 2 2 2 2 2 2 2 2 2
left_child=2 6 3 4 5 -1 15 16 25 18 -5 -3 28 27 20 22 -4 -11 19 -8 21 -7 23 -2 -25 26 -9 -14 -10 -30
right_child=1 11 7 10 -6 14 9 8 12 17 -12 -13 13 -15 -16 -17 -18 -19 -20 -21 -22 -23 -24 24 -26 -27 -28 -29 29 -31
leaf_value=-0.058040818492656625 0.0058178376018462796 0.035403659076201938 0.00063302854851804207 -0.073038305899768188 -0.074432997575236984 0.36087944089163598 0.016202115036939798 0.10361438964264887 -0.035063669983302667 0.092792399959533145 -0.037389212963684908 0.067722032412625699 0.048966485198084116 -0.029923747176287388 0.068038938331131865 -0.050801961622053186 0.27939931691942982 0.020476828080736902 0.038880810444929179 -0.093741737663491767 -0.0542218645566847 0.027488287020660543 -0.01340632539632837 0.041217531827425741 0.18082482370510433 -0.057898164135564971 -0.031873222817403429 -0.003561902540708423 0.096555919672894855 -0.017652715506542106
leaf_weight=80.463751595467329 949.20119625329971 980.18160933256149 743.12106493115425 531.71015195548534 88.107536476105452 1.8662360459566105 491.92829698324203 10.719607044011353 322.97625669836998 80.83453868329525 265.70057793334126 243.60232910513878 105.9043783172965 96.636348627507687 89.999070398509502 58.350044213235378 2.0319328866899005 46.375805348157883 279.908746317029 30.311590552330017 27.73044952750206 30.156146168708801 360.90408078581095 64.976977806538343 8.0917803347110731 279.47128668054938 279.98951953649521 91.302203692495823 18.850624114274979 53.092349722981453
leaf_count=1581 6662 4279 8049 12701 1808 13 2192 104 3852 377 4338 1218 718 918 537 445 22 204 1267 135 207 208 2860 435 59 4681 4717 687 243 668
internal_value=0 0.21566 -0.273428 -0.482871 -0.160404 0.0630752 0.111028 -0.156825 -0.257894 0.263218 -0.611599 0.418368 -0.123018 0.0670029 0.408828 0.0129099 0.0139319 0.66429 0.199613 0.0982081 -0.000195749 0.46918 0.0348856 0.0945316 0.566779 -0.42082 -0.268773 0.24647 -0.264404 0.122724
internal_weight=0 3594.67 3119.83 1115.73 318.323 230.216 2370.88 2004.1 1258.94 929.359 797.411 1223.78 688.762 293.843 149.752 1441.52 745.153 127.21 802.149 522.24 59.7528 32.0224 1383.17 1022.27 73.0688 570.18 290.709 197.207 394.919 71.943
internal_count=66185 20133 46052 21393 4354 2546 14636 24659 16588 4175 17039 5497 7086 2323 965 10461 8071 581 3594 2327 428 221 10016 7156 494 9502 4821 1405 4763 911
shrinkage=0.1


Tree=18
num_leaves=31
num_cat=0
split_feature=5 7 2 1 1 2 2 7 5 7 7 1 1 10 3 2 4 12 17 1 13 3 10 1 2 19 10 11 1 5
split_gain=342.663 83.2328 43.2891 24.4538 26.9808 23.4293 33.1181 22.9576 20.7012 18.7054 18.0317 15.479 12.3825 11.9431 11.934 11.6054 11.3374 11.2737 11.1412 11.2939 11.0757 11.0117 10.3272 10.177 9.68788 9.67041 11.4245 9.56865 11.3508 9.53444
threshold=1.0000000180025095e-35 13.500000000000002 18.500000000000004 40.500000000000007 39.500000000000007 2.5000000000000004 10.500000000000002 3.5000000000000004 7.5000000000000009 1.5000000000000002 3.5000000000000004 52.500000000000007 30.500000000000004 383.50000000000006 1.5000000000000002 132.50000000000003 1.0000000180025095e-35 58.500000000000007 45.500000000000007 27.500000000000004 3.5000000000000004 21.500000000000004 285.50000000000006 57.500000000000007 53.500000000000007 1.5000000000000002 37.500000000000007 3.5000000000000004 36.500000000000007 1.5000000000000002
decision_type=2 2 2 2 2 2 2 2 2 2 2 2 2 2 2 2 2 2 2 2 2 2 2 2 2 2 2 2 2 2
left_child=2 5 10 4 12 13 7 20 11 -5 14 -3 15 16 -1 -4 21 -14 19 -17 22 -2 -7 -11 -25 -9 27 -27 -29 -8
right_child=1 8 3 9 -6 6 29 25 -10 23 -12 -13 17 -15 -16 18 -18 -19 -20 -21 -22 -23 -24 24 -26 26 -28 28 -30 -31
leaf_value=0.001448430867584536 0.072608376069406205 0.037218583680295451 -0.023472772660357275 -0.064567072029915087 0.019909463583263023 -0.014630941360062946 0.018995432877578988 0.01471092415761523 0.068188299214086687 -0.041191118959507375 0.0022837655557904749 0.0090605688955630714 -0.046634202709044364 -0.1281051300169157 -0.029526817218238324 -0.0340959174697942 0.015111174333832425 0.38512589411637954 0.33236629634923504 0.11429796372825883 -0.046200403521262742 0.021775268597952202 0.23619899138161632 0.00069025272486991727 0.22296124325889277 0.0037581264974295824 -0.020629857389520195 -0.048445752584895092 0.20358759160724427 0.059897150787142799
leaf_weight=152.00531605258584 75.292375229299068 1027.7432473674417 134.50975131615996 509.9488441310823 102.38454961776733 284.49582708626986 159.4618773162365 389.90316423028708 179.09592869877815 185.82077265158296 383.7319109775126 241.00689329206944 376.67812833189964 5.4004486873745909 684.45309379696846 10.754506479948764 660.44536213576794 0.60572929307818313 1.3584249131381501 9.8044675067067129 157.54075232893229 98.189273506402969 1.6509597674012173 47.265227571129799 2.04581070318818 374.10598221421242 276.77577432245016 2.7503385245800009 5.1013704314827919 88.689467914402485
leaf_count=2144 432 4699 1903 11205 973 2491 1374 2270 969 3030 4097 1107 6615 36 11596 151 3778 11 18 121 1470 581 13 766 29 2178 1636 14 28 450
internal_value=0 0.171733 -0.293887 -0.415136 -0.271127 0.0640392 -0.00213951 -0.0583899 0.363623 -0.53808 -0.156641 0.318698 -0.361332 0.201271 -0.238978 -0.124779 0.21087 -0.45941 0.549993 0.366724 -0.24907 0.438372 -0.131837 -0.30474 0.0991181 0.0222886 -0.0515925 0.0605112 1.15304 0.336137
internal_weight=0 4027.65 2601.37 1381.18 636.096 2579.8 1740.48 1492.32 1447.85 745.081 1220.19 1268.75 533.711 839.327 836.458 156.427 833.927 377.284 21.9174 20.559 443.688 173.482 286.147 235.132 49.311 1048.64 658.733 381.958 7.85171 248.151
internal_count=66185 23526 42659 24822 9792 16751 11924 10100 6775 15030 17837 5806 8819 4827 13740 2193 4791 6626 290 272 3974 1013 2504 3825 795 6126 3856 2220 42 1824
shrinkage=0.1


Tree=19
num_leaves=31
num_cat=0
split_feature=5 7 2 1 1 5 2 2 7 7 7 5 13 6 1 1 3 17 19 2 17 15 2 9 4 3 3 19 2 1
split_gain=283.267 68.4865 38.1254 22.143 22.7477 21.7777 18.1069 24.8742 17.4378 17.1 15.1078 14.626 14.4736 11.844 11.6875 10.8913 10.7155 10.5525 10.0736 13.9178 10.9376 9.91546 9.3807 18.467 17.894 10.6607 19.6409 10.3806 11.0169 11.3962
threshold=1.0000000180025095e-35 16.500000000000004 18.500000000000004 40.500000000000007 39.500000000000007 2.5000000000000004 10.500000000000002 3.5000000000000004 1.5000000000000002 3.5000000000000004 3.5000000000000004 7.5000000000000009 7.5000000000000009 15.500000000000002 52.500000000000007 30.500000000000004 -1.0000000180025095e-35 23.500000000000004 1.5000000000000002 11.500000000000002 29.500000000000004 -1.0000000180025095e-35 47.500000000000007 7.5000000000000009 60.500000000000007 56.500000000000007 107.50000000000001 1.5000000000000002 19.500000000000004 28.500000000000004
decision_type=2 2 2 2 2 2 2 2 2 2 2 2 2 2 2 2 2 2 2 2 2 2 2 2 2 2 2 2 2 2
left_child=2 5 10 4 15 6 7 12 -5 -9 16 14 17 -13 -3 22 -1 -2 -7 20 -20 -11 27 24 25 -24 -27 -4 29 -29
right_child=1 11 3 8 -6 18 -8 9 -10 21 -12 13 -14 -15 -16 -17 -18 -19 19 -21 -22 -23 23 -25 -26 26 -28 28 -30 -31
leaf_value=0.035954410334703195 0.031766372802181413 0.037218658474601859 -0.072441440381701375 -0.061716868672124239 0.017674384159040709 0.0350970203631304 0.028272002102874949 -0.029807521418256728 -0.028208268207098326 0.19023074568320619 0.0020518645310117112 -0.034879705203908568 -0.015732813179079489 0.071569793336915932 0.0086410928777412403 -0.043113865126797157 -0.02423282894853962 0.0050066786088044336 0.018569994427265892 0.079954984473484217 -0.011121568082481069 -0.0033807659636393376 0.11735741501848712 -0.019917402509055396 -0.0037738233594009404 0.66388813110120715 0.15794854470081615 0.046183158928683694 -0.015742471178020585 0.43480859292323698
leaf_weight=30.732430152595043 314.04100905358791 765.47816065698862 37.062492366880178 481.64232516288757 103.72342712804675 303.87494993209839 225.75851960480213 349.37387002259493 229.21037005260587 2.6554217487573615 384.35629551485181 11.22198076546192 148.24352430552244 152.39165978133678 176.0183162689209 362.71876541525126 789.03532930836082 277.65450152754784 403.20626327395439 29.397960603237152 179.21068412065506 683.91630099713802 7.5000672377645987 40.554775454103947 9.478790767490862 1.164520360529423 2.2494646795094013 2.4319131821393962 53.388900585472584 1.0940126925706861
leaf_count=206 2057 3497 532 11205 973 1390 1715 3253 3825 15 4097 54 1027 873 799 6626 13534 1803 1826 132 815 4270 102 587 131 17 32 24 755 13
internal_value=0 0.154711 -0.272026 -0.388587 -0.250693 0.0744018 0.0159641 -0.0179471 -0.509122 -0.117969 -0.143066 0.366717 0.122088 0.642686 0.318759 -0.336341 -0.219765 0.192093 0.202143 0.128224 0.0943385 -0.0263194 -0.114394 0.191161 0.967412 1.84038 3.30526 -0.312558 -0.0443599 1.66765
internal_weight=0 4022.44 2536.34 1332.22 621.367 2917.33 2001.64 1775.88 710.853 1035.95 1204.12 1105.11 739.939 163.614 941.496 517.644 819.768 591.696 915.69 611.815 582.417 686.572 154.925 60.9476 20.3928 10.9141 3.41399 93.9773 56.9148 3.52593
internal_count=66185 23526 42659 24822 9792 18303 14140 12425 15030 7538 17837 5223 4887 927 4296 8819 13740 3860 4163 2773 2641 4285 2193 869 282 151 49 1324 792 37
shrinkage=0.1


Tree=20
num_leaves=31
num_cat=0
split_feature=5 7 0 19 7 0 0 5 0 0 13 0 1 1 0 0 13 1 7 8 5 1 11 9 0 11 1 7 7 8
split_gain=234.094 57.261 52.2854 25.7635 28.7645 22.1721 21.1085 26.922 20.4941 30.7216 20.667 19.9169 17.9945 27.6534 18.141 16.9586 21.5169 16.267 15.3193 14.1736 13.7154 12.6638 12.3238 14.329 12.1654 14.4929 12.0367 13.7778 11.7345 11.5117
threshold=1.0000000180025095e-35 13.500000000000002 3.5000000000000004 1.0000000180025095e-35 3.5000000000000004 3.5000000000000004 3.5000000000000004 6.5000000000000009 5.5000000000000009 6.5000000000000009 2.5000000000000004 1.5000000000000002 37.500000000000007 48.500000000000007 2.5000000000000004 2.5000000000000004 3.5000000000000004 53.500000000000007 24.500000000000004 6.5000000000000009 1.5000000000000002 43.500000000000007 1.0000000180025095e-35 46.500000000000007 1.5000000000000002 8.5000000000000018 40.500000000000007 10.500000000000002 1.0000000180025095e-35 11.500000000000002
decision_type=2 2 2 2 2 2 2 2 2 2 2 2 2 2 2 2 2 2 2 2 2 2 2 2 2 2 2 2 2 2
left_child=2 5 3 12 11 20 7 15 10 -10 -7 -5 -1 24 -15 16 18 -16 -3 -13 -2 26 -17 -24 -14 -26 27 -12 -4 -18
right_child=1 6 28 4 -6 8 -8 -9 9 -11 21 19 13 14 17 22 29 -19 -20 -21 -22 -23 23 -25 25 -27 -28 -29 -30 -31
leaf_value=-0.060084391210306509 -0.013109879647238072 0.024659410807418316 -0.01864684205823092 -0.065952737261776209 -0.01723760370189947 0.040936564015625919 0.052070271751256295 0.052231177131279422 -0.034824179539163481 0.035568716474007486 -0.004513767797504062 -0.046954173323806928 0.033138810542483417 -0.068613609136120551 -0.078233767353936931 -0.025816785062647143 -0.026712850675759743 0.024637956811709816 0.068139237463266208 -0.0032409623610708351 0.0058633059121209197 0.043593043032296094 0.087572505892507257 -0.03333485661277772 -0.021761893196518313 0.41579579254589866 -0.071694451396943457 0.056518352409038533 0.0054508489698828037 0.016628474146248646
leaf_weight=75.37734691426158 683.94884833693504 297.48712702095509 348.34670563787222 489.15794884040952 313.01357781514525 385.55906745791435 332.56887467205524 248.95242790877819 161.70377846062183 100.55227847397327 246.37353990972042 283.84377620741725 147.33742897212505 87.827602136880159 20.899563919752836 143.25309032201767 101.07296948134899 58.113838352262974 111.3696468770504 100.41535443067551 860.1743763461709 80.96516714990139 23.348431311547756 16.894340813159943 70.908358439803123 0.76515012606978305 22.236245945096016 43.522197365760803 481.24176159501076 155.66471137851477
leaf_count=1684 7046 1319 4628 14114 4511 1730 1619 1319 885 461 1197 5856 914 2068 349 660 460 870 512 1965 4788 362 106 78 1285 13 98 184 4402 702
internal_value=0 0.139467 -0.251421 -0.354508 -0.432474 0.0506329 0.299985 0.233135 0.163432 -0.0783466 0.244864 -0.525687 -0.153953 -0.066652 -0.373374 0.148349 0.222553 -0.0257229 0.36503 -0.35531 -0.0254061 0.0835171 -0.120811 0.368143 0.167007 -0.170907 -0.00789684 0.0464902 -0.0466784 -0.0043422
internal_weight=0 4015.65 2477.25 1647.66 1186.43 2585.04 1430.61 1098.04 1040.91 262.256 778.656 873.417 461.229 385.852 166.841 849.09 665.594 79.0134 408.857 384.259 1544.12 393.097 183.496 40.2428 219.011 71.6735 312.132 289.896 829.588 256.738
internal_count=66185 23526 42659 33629 26446 16751 6775 5156 4917 1346 3571 21935 7183 5499 3287 3837 2993 1219 1831 7821 11834 1841 844 184 2212 1298 1479 1381 9030 1162
shrinkage=0.1


Tree=21
num_leaves=31
num_cat=0
split_feature=6 5 0 19 1 1 0 2 1 0 7 3 7 0 0 0 1 2 1 1 19 19 5 3 19 2 7 13 2 10
split_gain=199.06 52.7514 49.2802 37.1348 34.2666 33.0391 29.0133 22.6138 20.5805 18.8717 17.0905 14.4474 14.2663 14.1696 22.0704 13.8283 16.7574 15.7855 14.3822 22.3598 39.3648 23.1471 39.8936 13.4765 13.3472 19.299 13.1769 11.9588 11.6416 11.411
threshold=1.5000000000000002 3.5000000000000004 1.5000000000000002 1.0000000180025095e-35 49.500000000000007 37.500000000000007 3.5000000000000004 4.5000000000000009 62.500000000000007 3.5000000000000004 11.500000000000002 14.500000000000002 31.500000000000004 5.5000000000000009 6.5000000000000009 2.5000000000000004 55.500000000000007 23.500000000000004 32.500000000000007 31.500000000000004 5.5000000000000009 3.5000000000000004 1.5000000000000002 194.50000000000003 1.0000000180025095e-35 3.5000000000000004 1.0000000180025095e-35 11.500000000000002 28.500000000000004 28.500000000000004
decision_type=2 2 2 2 2 2 2 2 2 2 2 2 2 2 2 2 2 2 2 2 2 2 2 2 2 2 2 2 2 2
left_child=2 6 3 4 5 -1 8 11 15 -9 28 -4 27 -12 -15 23 17 18 19 -17 21 -21 -23 -2 25 -18 29 -3 -8 -7
right_child=1 12 7 -5 -6 26 10 9 -10 -11 13 -13 -14 14 -16 16 24 -19 -20 20 -22 22 -24 -25 -26 -27 -28 -29 -30 -31
leaf_value=-0.057459355455763909 0.001853249161928244 0.02917753542138974 0.01802068477303535 -0.058775850556368171 -0.077527069998037448 0.036191401816286495 0.0092025231721095026 -0.038813027972519766 -0.053105517922428402 -0.010336881696301904 0.055175027667913372 -0.019618495311113184 0.052840746515728433 -0.027031598092629412 0.086402360226678354 -0.014687717153186492 0.43963714240593188 0.066579381257782747 -0.030922435560397549 -0.021169712292594699 -0.024015650173679671 0.64793076460760102 0.15222854793933019 0.042001407162468578 -0.0023494821704238677 0.080407100798450787 0.059047914114911865 -0.0026307176093432142 0.09827736993431091 -0.051203800422607339
leaf_weight=56.655340272933245 1182.2920127846301 822.39561435580254 292.43157781660557 566.1542681157589 62.964721508324146 33.737943410873413 901.27704368531704 401.72316907718778 78.415550488978624 553.22451820597053 181.54700614511967 156.58397226035595 219.93327477574348 59.84502986073494 24.043568149209023 55.356010809540749 2.1339683532714826 20.72441178560257 363.77642535418272 2.1384836547076702 10.055782310664654 2.763497281819582 3.93578090518713 89.96985986456275 7.6375786811113358 4.9985885620117188 81.685215249657631 138.03655058145523 14.915202558040617 26.813616670668125
leaf_count=1366 9666 3660 3598 15433 1667 221 4451 7816 711 6541 838 2252 1218 268 105 513 16 254 3276 25 92 34 24 678 69 43 455 619 69 207
internal_value=0 0.119533 -0.250247 -0.443734 -0.132341 0.0711957 0.049188 -0.136135 -0.0298836 -0.223161 0.171259 0.0489488 0.298668 0.394694 0.0548006 -0.00737246 -0.153257 -0.187012 -0.227361 0.173721 1.11304 2.65273 3.56709 0.0469238 0.89515 1.87884 0.328425 0.246059 0.106526 -0.0250919
internal_weight=0 4186.19 2231.97 828.011 261.857 198.892 3005.83 1403.96 1824.2 954.948 1181.63 449.016 1180.37 265.436 83.8886 1745.78 473.521 458.75 438.026 74.2496 18.8935 8.83776 6.69928 1272.26 14.7701 7.13256 142.237 960.432 916.192 60.5516
internal_count=66185 26629 39556 19349 3916 2249 21132 20207 15401 14357 5731 5850 5497 1211 373 14690 4346 4218 3964 688 175 83 58 10344 128 59 883 4279 4520 428
shrinkage=0.1


Tree=22
num_leaves=31
num_cat=0
split_feature=5 7 2 1 2 2 7 7 1 9 8 3 7 1 4 2 2 19 19 1 1 2 15 6 6 8 12 3 19 9
split_gain=167.55 42.1047 29.6203 16.6991 15.5731 25.7336 16.7316 14.975 13.9857 10.6912 11.0284 10.1488 9.99183 9.94991 9.47733 9.42345 16.2193 13.1125 14.295 9.38385 9.35601 12.8198 9.24378 9.13703 8.80247 8.74123 8.64579 8.49755 8.08486 8.91068
threshold=1.0000000180025095e-35 17.500000000000004 18.500000000000004 40.500000000000007 10.500000000000002 3.5000000000000004 3.5000000000000004 1.5000000000000002 39.500000000000007 120.50000000000001 52.500000000000007 530.50000000000011 3.5000000000000004 52.500000000000007 1.0000000180025095e-35 119.50000000000001 223.50000000000003 2.5000000000000004 1.0000000180025095e-35 57.500000000000007 23.500000000000004 146.50000000000003 -1.0000000180025095e-35 18.500000000000004 3.5000000000000004 75.500000000000014 58.500000000000007 1.5000000000000002 1.5000000000000002 102.50000000000001
decision_type=2 2 2 2 2 2 2 2 2 2 2 2 2 2 2 2 2 2 2 2 2 2 2 2 2 2 2 2 2 2
left_child=2 4 12 8 5 9 -7 -5 15 10 14 22 27 -3 -2 26 17 18 -17 -9 21 -19 -8 -15 -10 -14 -4 -1 29 -21
right_child=1 13 3 7 -6 6 11 19 24 -11 -12 -13 25 23 -16 16 -18 20 -20 28 -22 -23 -24 -25 -26 -27 -28 -29 -30 -31
leaf_value=0.0047239117698941839 0.030525415325572243 0.034576000250613061 -0.03359127274937352 -0.054906165879450325 0.028242409097888884 -0.025279052764292584 0.15138698744927157 -0.033417694448452356 0.0096153862754576169 -0.040849690086740775 0.22006630148874914 0.0912713556382517 0.002003894574337891 -0.0048563790972763936 0.0097777587535816946 0.0039892747119838114 -0.060163540829897992 -0.10983675176407225 0.15640969547433811 -0.047078339191429112 -0.068599168339753783 0.44012763136733285 -0.0015339602995714306 0.044849760018280581 0.31982024021206135 0.25927086801615246 0.32108316846056545 -0.021966139089167398 0.051857627137804979 0.31158698217865138
leaf_weight=147.2958250567317 276.62419358640909 793.56523358821869 422.33293617703021 420.76889836974442 280.67375671118498 348.90186777710915 3.9692739099264136 167.8930993527174 105.13815620914102 35.94159809499979 2.6024664491415015 12.095384396612642 379.01177040860057 134.22719856351614 1078.7027183398604 10.799793731421234 21.252386061474681 0.79458414018154033 14.301204416900871 18.006234560161833 10.842284750193356 0.90842170268297195 958.19826406985521 51.045263916254044 0.92278964817523845 1.3253194205462921 0.68841792456805606 627.33151154965162 27.581474464386702 0.72039174661040206
leaf_count=2144 1555 3889 7719 11205 1955 3314 20 3030 963 218 16 66 4084 617 6044 196 394 10 210 350 268 11 5549 283 10 13 11 11596 428 17
internal_value=0 0.11697 -0.218582 -0.327044 0.0581707 0.035005 -0.0648815 -0.439491 -0.20561 0.129825 0.144073 0.00241229 -0.103736 0.297044 0.140124 -0.277963 0.0967911 0.491072 0.908303 -0.224253 -0.343734 1.83527 -0.00903108 0.0883839 0.123143 0.0290036 -0.330141 -0.16891 0.174283 -0.332809
internal_weight=0 3976.55 2377.92 1222.95 2997.71 2717.04 1323.16 634.97 587.981 1393.87 1357.93 974.263 1154.96 978.838 1355.33 481.92 58.8987 37.6463 25.101 214.201 12.5453 1.70301 962.168 185.272 106.061 380.337 423.021 774.627 46.3081 18.7266
internal_count=66185 23526 42659 24822 18737 16782 8949 15030 9792 7833 7615 5635 17837 4789 7599 8819 1089 695 406 3825 289 21 5569 900 973 4097 7730 13740 795 367
shrinkage=0.1


Tree=23
num_leaves=31
num_cat=0
split_feature=5 0 5 19 2 5 0 19 1 6 1 2 1 0 2 2 0 13 0 1 1 1 7 9 2 7 2 2 6 8
split_gain=138.06 39.0627 35.0378 20.3744 25.0431 15.325 18.843 18.2657 14.5646 21.8797 18.9229 15.9917 14.4926 26.778 14.1704 16.5975 13.8576 16.7014 15.8174 12.653 12.1296 17.4818 20.1323 13.3539 11.956 11.6819 11.362 14.0167 12.6212 11.2567
threshold=1.0000000180025095e-35 3.5000000000000004 2.5000000000000004 1.0000000180025095e-35 33.500000000000007 7.5000000000000009 3.5000000000000004 1.5000000000000002 37.500000000000007 9.5000000000000018 48.500000000000007 10.500000000000002 23.500000000000004 2.5000000000000004 10.500000000000002 3.5000000000000004 2.5000000000000004 3.5000000000000004 1.5000000000000002 53.500000000000007 28.500000000000004 29.500000000000004 1.0000000180025095e-35 7.5000000000000009 12.500000000000002 3.5000000000000004 23.500000000000004 2.5000000000000004 14.500000000000002 1.0000000180025095e-35
decision_type=2 2 2 2 2 2 2 2 2 2 2 2 2 2 2 2 2 2 2 2 2 2 2 2 2 2 2 2 2 2
left_child=1 3 14 8 12 6 16 -8 -1 10 -10 19 13 -5 15 -2 17 -4 -19 -12 23 22 -22 -3 -23 -17 27 -18 -29 -21
right_child=2 20 5 4 -6 -7 7 -9 9 -11 11 -13 -14 -15 -16 25 26 18 -20 29 21 24 -24 -25 -26 -27 -28 28 -30 -31
leaf_value=-0.054175979263373322 0.010046141493158833 0.023094368721291784 0.029242880363169022 0.21510163993592007 -0.060965712986900678 0.049661353197324995 0.0676351393031773 0.022815481806348365 0.013902571626187868 0.44925953403371222 -0.095135895016015881 -0.056536987572940872 -0.029373133493463023 -0.039210862671985446 0.024479178821819641 -0.024473126910073823 0.012325947568969348 -0.023977702212867838 0.020020506228292254 -0.019657783102281473 0.019917852065717168 0.018501758894523251 0.21142394326341263 -0.044146451641766386 -0.010076886214791114 -0.00212136266510382 0.11232120690519441 -0.015327216846758583 -0.083368413872757188 0.079841498840714911
leaf_weight=67.338634893298149 811.62715294584632 39.389741837978363 512.34020952880383 6.94374904036522 309.62345721386373 168.05560657382011 125.64297124743462 329.09977023303509 218.58602010458708 1.063691459596156 9.3220340907573682 96.738171014934778 755.48821686394513 10.255617201328278 249.3146483823657 331.78399283066392 152.35970132052898 147.36827221512794 183.38590826094151 21.598974145948887 15.624595973640682 231.05933513492346 8.4626247361302358 118.05712920427322 399.46763368323445 791.94971938431263 7.8564124852418891 126.80796228349209 34.727893650531769 24.009403098374605
leaf_count=1684 5198 449 2319 44 9928 1024 602 1549 2206 11 188 2344 16296 178 1805 3253 686 678 826 348 232 2227 79 1420 4623 4812 35 594 145 402
internal_value=0 -0.201126 0.105357 -0.295674 -0.369358 0.209181 0.179356 0.351989 -0.113874 -0.0362763 -0.0492871 -0.320685 -0.273067 0.634605 0.0204009 -0.0085053 0.111962 0.179342 0.00417005 0.11023 -0.0240388 0.0358994 0.872002 -0.273243 0.00395882 -0.0872075 -0.0645964 -0.0943258 -0.299551 0.327212
internal_weight=0 2333.03 3972.32 1520.97 1082.31 1787.64 1619.59 454.743 438.657 371.318 370.255 151.669 772.688 17.1994 2184.68 1935.36 1164.85 843.094 330.754 54.9304 812.061 654.614 24.0872 157.447 630.527 1123.73 321.752 313.896 161.536 45.6084
internal_count=66185 42659 23526 33629 26446 8458 7434 2151 7183 5499 5488 3282 16518 222 15068 13263 5283 3823 1504 938 9030 7161 311 1869 6850 8065 1460 1425 739 750
shrinkage=0.1


Tree=24
num_leaves=31
num_cat=0
split_feature=6 7 2 7 19 2 13 19 1 7 1 1 3 10 2 7 3 1 5 19 6 13 19 1 19 2 16 2 9 19
split_gain=117.104 33.0045 18.3059 21.6351 14.2235 12.5621 11.9566 10.2133 11.4292 9.75768 9.75117 14.4154 9.11192 27.1593 18.6641 33.3052 9.09783 10.3899 8.81617 10.252 8.71299 8.25154 8.24363 17.4614 12.0603 8.0652 7.69289 7.68005 14.1766 7.67032
threshold=1.5000000000000002 18.500000000000004 8.5000000000000018 1.5000000000000002 2.5000000000000004 116.50000000000001 7.5000000000000009 1.0000000180025095e-35 35.500000000000007 11.500000000000002 48.500000000000007 37.500000000000007 12.500000000000002 2.5000000000000004 1.0000000180025095e-35 1.0000000180025095e-35 40.500000000000007 21.500000000000004 3.5000000000000004 1.0000000180025095e-35 23.500000000000004 19.500000000000004 5.5000000000000009 58.500000000000007 4.5000000000000009 4.5000000000000009 1.0000000180025095e-35 69.500000000000014 22.500000000000004 1.0000000180025095e-35
decision_type=2 2 2 2 2 2 2 2 2 2 2 2 2 2 2 2 2 2 2 2 2 2 2 2 2 2 2 2 2 2
left_child=2 6 12 4 5 10 18 -7 -9 -8 11 -4 13 14 -1 26 -14 -18 22 -20 21 -3 24 -24 -2 -25 -16 -5 -29 -13
right_child=1 20 3 27 -6 7 9 8 -10 -11 -12 29 16 -15 15 -17 17 -19 19 -21 -22 -23 23 25 -26 -27 -28 28 -30 -31
leaf_value=0.024677897813041246 0.0046921719823403004 0.026055190472219075 -0.044612859287306288 -0.0092040539107852929 -0.049316820592486994 -0.026701149491283174 -0.014685931142231915 0.10161852205305962 0.0021122070890571623 0.011480952948031784 -0.055292360364749188 0.01317318371109317 -0.037855058757225057 -0.0040188715931686672 0.3741900452089767 0.11746087282804439 0.25462454230368936 -0.0046575701393482471 0.058173791598603475 0.01422090341585284 0.060514163880029719 -0.012213860143917569 0.01140337926910711 0.15757237823366549 -0.025415401995758775 0.054225011415952477 0.75894181996901255 -0.0422952913490173 0.44495618043955371 -0.032284709033959656
leaf_weight=11.811852643266322 1677.5582213439047 760.66410399228334 150.89563648402691 426.89651696011424 408.65288923308253 42.11038738116622 501.26392227783799 18.808852281421423 29.880084056407213 199.11833851411939 123.76549255289137 111.40387887507677 152.87775862030685 434.40873398073018 1.0394833423197263 8.0351875703781825 1.5653060227632511 122.11026442609727 62.007461503148079 368.11677841842175 67.818443313241005 60.850177578628063 272.32651218399405 10.904237642884253 144.50782795622945 24.556972127407789 1.0392003580927847 1.3767569251358502 1.0544683635234831 55.666528638452291
leaf_count=212 12039 3803 2833 7406 10780 652 3770 240 802 1021 3657 972 2648 6109 21 82 12 1858 265 1595 436 299 2068 51 1156 126 19 18 10 1225
internal_value=0 0.0898877 -0.199756 -0.267976 -0.352835 -0.245146 0.04331 0.093618 0.405521 -0.072467 -0.31478 -0.222084 -0.0721834 0.0146194 1.10052 2.09759 -0.215415 -0.0137595 0.0749853 0.205572 0.260645 0.232206 0.0486133 0.199984 0.0230434 0.860041 5.6654 -0.0819471 1.69035 -0.0197302
internal_weight=0 4149.69 2103.4 1370.51 941.184 532.531 3260.36 90.7993 48.6889 700.382 441.732 317.966 732.888 456.334 21.9257 10.1139 276.553 123.676 2559.98 430.124 889.333 821.514 2129.85 307.788 1822.07 35.4612 2.07868 429.328 2.43123 167.07
internal_count=66185 26629 39556 28595 21161 10381 22091 1694 1042 4791 8687 5030 10961 6443 334 122 4518 1870 17300 1860 4538 4102 15440 2245 13195 177 40 7434 28 2197
shrinkage=0.1


Tree=25
num_leaves=31
num_cat=0
split_feature=6 0 19 7 1 1 0 0 0 1 1 0 1 3 19 1 2 0 1 3 0 1 6 0 13 1 6 7 3 2
split_gain=96.6212 39.7038 29.7712 27.0804 26.7821 21.9755 20.2042 35.7018 34.8627 20.9003 28.7973 15.5225 14.9226 14.7662 13.5642 15.2986 13.1748 15.4437 12.507 12.2948 11.3043 13.7012 10.7761 19.2784 12.7651 10.4237 13.1492 10.3267 14.185 12.0962
threshold=1.5000000000000002 1.5000000000000002 1.0000000180025095e-35 18.500000000000004 49.500000000000007 37.500000000000007 6.5000000000000009 5.5000000000000009 3.5000000000000004 41.500000000000007 40.500000000000007 3.5000000000000004 61.500000000000007 255.50000000000003 1.5000000000000002 22.500000000000004 4.5000000000000009 3.5000000000000004 62.500000000000007 97.500000000000014 2.5000000000000004 23.500000000000004 23.500000000000004 2.5000000000000004 4.5000000000000009 52.500000000000007 11.500000000000002 19.500000000000004 66.500000000000014 2.5000000000000004
decision_type=2 2 2 2 2 2 2 2 2 2 2 2 2 2 2 2 2 2 2 2 2 2 2 2 2 2 2 2 2 2
left_child=1 2 4 6 5 -1 7 8 18 10 13 22 -11 14 15 -10 -3 20 -2 -12 21 -18 23 24 25 -5 -27 28 -25 -29
right_child=3 16 -4 11 -6 -7 -8 -9 9 12 19 -13 -14 -15 -16 -17 17 -19 -20 -21 -22 -23 -24 27 -26 26 -28 29 -30 -31
leaf_value=-0.049390154417238402 -0.00057985114211475978 0.0060204115710662002 -0.051240633698860505 0.045601266995418013 -0.071750649274870418 0.028103653866970557 0.040812693607613672 -0.037835279365465796 -0.044904043129363719 0.057416383351043189 -0.11043464212162031 0.05263723178517922 -0.010947748760740389 0.093911212874737041 0.002802166653001547 0.043046961983818653 0.11816255537895817 -0.0041143660398068804 -0.038625354191229894 0.10093801635102105 -0.049275692503959412 -0.01945226712213248 0.057998611733980368 0.1135985152303448 0.0024877669906928409 -0.079449186644275194 0.024671467987509466 0.0084607700146606055 -0.15705286966743423 -0.047221109002804428
leaf_weight=48.948022842407227 1911.1483246609569 443.6101212054491 490.30850663036108 247.44313262403011 52.863955467939377 144.9815613552928 141.79978747665882 207.72913204878569 22.054761178791523 202.21951045840979 24.891079306602482 152.6587969660759 37.915748193860054 23.767787322402 403.58165849745274 191.53628632426262 7.5375869795680037 524.05496342480183 90.497773345559835 3.0939021259546271 174.63966214284301 180.11150272935629 60.488001838326454 11.478279508650301 178.88195995613933 15.42926426976919 56.706127464771271 70.739869020879269 2.3294619992375365 86.991027496755123
leaf_count=1366 15232 5850 15433 1198 1667 883 685 1123 104 952 111 846 171 106 1910 919 77 6541 764 14 3843 3896 401 60 873 77 278 344 12 449
internal_value=0 -0.18366 -0.369824 0.0810334 -0.0865526 0.0854414 0.0389567 0.02217 0.0507542 0.213151 0.122303 0.236365 0.466221 0.165658 0.135871 0.339654 -0.0804828 -0.150896 -0.0229995 -0.870662 -0.309654 -0.139245 0.175758 0.139264 0.238774 0.3585 0.0240078 -0.149892 0.679377 -0.222486
internal_weight=0 2067.06 737.102 4143.38 246.794 193.93 3260.24 3118.44 2910.71 909.061 668.925 883.146 240.135 640.94 617.173 213.591 1329.95 886.344 2001.65 27.985 362.289 187.649 730.487 669.999 498.46 319.579 72.1354 171.539 13.8077 157.731
internal_count=66185 39556 19349 26629 3916 2249 22091 21406 20283 4287 3164 4538 1123 3039 2933 1023 20207 14357 15996 125 7816 3973 3692 3291 2426 1553 355 865 72 793
shrinkage=0.1


Tree=26
num_leaves=31
num_cat=0
split_feature=5 0 5 0 1 1 0 1 19 6 17 19 7 0 19 9 0 1 1 0 3 10 19 0 1 19 1 7 19 8
split_gain=85.0172 28.4166 22.9331 22.8454 16.6892 18.5065 21.6257 22.9516 17.1219 16.6304 15.5035 14.9866 17.0889 14.6903 14.4301 13.4972 12.5177 23.0587 27.5636 16.6633 13.4925 12.2537 18.7143 12.3633 28.2616 14.5677 17.5498 12.3899 12.9486 12.1946
threshold=1.0000000180025095e-35 3.5000000000000004 4.5000000000000009 3.5000000000000004 52.500000000000007 36.500000000000007 2.5000000000000004 38.500000000000007 3.5000000000000004 9.5000000000000018 63.500000000000007 1.0000000180025095e-35 3.5000000000000004 1.5000000000000002 1.5000000000000002 10.500000000000002 5.5000000000000009 41.500000000000007 40.500000000000007 6.5000000000000009 75.500000000000014 24.500000000000004 5.5000000000000009 1.5000000000000002 47.500000000000007 1.0000000180025095e-35 43.500000000000007 24.500000000000004 1.0000000180025095e-35 2.5000000000000004
decision_type=2 2 2 2 2 2 2 2 2 2 2 2 2 2 2 2 2 2 2 2 2 2 2 2 2 2 2 2 2 2
left_child=1 11 3 4 5 -2 7 -7 -8 16 21 -1 13 -13 -6 -15 17 18 20 -18 -5 22 29 27 25 -25 -27 28 -23 -9
right_child=2 -3 -4 9 14 6 8 10 -10 -11 -12 12 -14 15 -16 -17 19 -19 -20 -21 -22 23 -24 24 -26 26 -28 -29 -30 -31
leaf_value=-0.0089804001387945778 -0.012390751733251472 -0.0011856584271774033 0.024383578635581972 0.0076011376348151406 0.0027592589928432491 0.06745199520159631 0.005708039455596046 0.0071894958889733799 -0.046732338778913793 0.048717627859552318 0.3361616563654492 -0.053415732552071049 -0.011112870227234688 -0.040490509739032052 -0.033238097629121076 0.00074097801145591423 -0.025957420960326213 0.045936727891457231 -0.091351850583960836 0.024594875862544805 0.062627448895272178 0.047914978770545603 0.089815649319550758 -0.093114950100121247 0.079618148795174426 0.028087773456222515 -0.073235959941042914 -0.14356435317069505 -0.026371666427686596 0.063673221405186137
leaf_weight=425.01730179786682 516.2931088283658 801.02743524685502 715.02773575484753 538.11807277798653 186.80357763543725 88.833947580307722 171.43324045091867 213.86993613839149 97.769554898142815 132.58800488710403 1.4833100140094746 373.96409623511136 293.92134341225028 205.79786173626781 275.73141858354211 129.25986666604877 174.6788489446044 211.07237289845943 26.905881285667419 104.04193402826786 48.583944350481033 28.353914901614189 41.201263591647148 17.370365373790264 52.56595279276371 78.641622938215733 21.84196163713932 7.6729097068309775 136.05094484984875 46.540215574204922
leaf_count=7183 3488 9030 3596 2518 1414 537 1257 1432 713 725 11 14114 4511 4984 2123 2837 956 939 120 474 214 224 254 101 289 471 125 34 1199 312
internal_value=0 -0.16261 0.0818394 0.0458494 -0.0206751 0.0299396 0.109083 0.197955 -0.133374 0.152551 0.132379 -0.247176 -0.313866 -0.397909 -0.186999 -0.245841 0.112341 0.174262 0.0761903 -0.0708707 0.121578 0.124942 0.271923 -0.00449215 0.186423 -0.0855457 0.0606319 -0.193568 -0.135599 0.172842
internal_weight=0 2228.99 3933.47 3218.45 1982.46 1519.92 1003.63 734.426 269.203 1235.99 645.592 1427.96 1002.94 709.022 462.535 335.058 1103.4 824.68 613.608 278.721 586.702 644.109 301.611 342.498 170.42 117.854 100.484 172.078 164.405 260.41
internal_count=66185 42659 23526 19930 13984 10447 6959 4989 1970 5946 4452 33629 26446 21935 3537 7821 5221 3791 2852 1430 2732 4441 1998 2443 986 697 596 1457 1423 1744
shrinkage=0.1


Tree=27
num_leaves=31
num_cat=0
split_feature=5 0 7 0 0 0 7 13 2 11 1 1 0 22 0 1 3 19 19 19 19 1 5 19 1 5 19 1 2 11
split_gain=69.7551 24.0171 19.6576 16.5401 19.4037 27.6646 19.5534 15.6776 14.9556 14.9116 12.3875 17.8573 14.7656 16.281 15.1667 24.5666 15.5539 13.0168 12.9544 12.3637 12.4433 11.7975 17.3412 12.9961 31.1476 11.2285 10.8009 10.8555 10.413 12.6613
threshold=1.0000000180025095e-35 3.5000000000000004 26.500000000000004 3.5000000000000004 5.5000000000000009 6.5000000000000009 15.500000000000002 2.5000000000000004 41.500000000000007 33.500000000000007 52.500000000000007 36.500000000000007 2.5000000000000004 1.0000000180025095e-35 1.5000000000000002 46.500000000000007 50.500000000000007 5.5000000000000009 1.0000000180025095e-35 1.0000000180025095e-35 3.5000000000000004 43.500000000000007 4.5000000000000009 1.0000000180025095e-35 39.500000000000007 6.5000000000000009 1.5000000000000002 43.500000000000007 2.5000000000000004 15.500000000000002
decision_type=2 2 2 2 2 2 2 2 2 2 2 2 2 2 2 2 2 2 2 2 2 2 2 2 2 2 2 2 2 2
left_child=1 8 3 10 6 -6 7 -5 9 -1 11 28 13 14 16 21 18 -15 -13 -17 -21 23 -23 24 -16 -12 -9 -28 -2 -30
right_child=2 -3 -4 4 5 -7 -8 26 -10 -11 25 12 -14 17 15 19 -18 -19 -20 20 -22 22 -24 -25 -26 -27 27 -29 29 -31
leaf_value=-0.017411379351575305 0.007873524055897441 -0.0010680813117121028 0.029529753684273592 0.029998095667999537 -0.026931029703035743 0.031699891554871365 0.059313547470683695 0.023643651846819436 -0.041408599928882843 0.36110370266447034 -0.016531358930623973 0.035570337445986651 -0.0066500217377106962 0.036002866472183766 0.035782070025154648 -0.077933802635137217 0.079020564778201421 0.12015626965817945 -0.024681623947401726 0.087527715410001469 -0.051548595961752652 -0.064558052320591822 0.13049252298465155 0.032413881124859455 -0.098415708047075889 0.055647003110857622 -0.018171594172951524 0.037594900189817961 -0.02112131406839822 0.24719371657457875
leaf_weight=1065.7194031924009 209.27176701650023 800.32481478154659 363.50765031576157 409.75478041172028 225.611521884799 125.10088811814785 119.56678293645382 153.99098719656467 329.74731627479196 1.0417928565293539 506.26780702918768 43.45740182697773 324.27598675712943 139.90403760969639 43.182107016444206 5.4748692139983168 19.454834561794996 21.160710714757442 199.49911615625024 83.551302693784237 6.9698768332600585 36.040811032056808 5.2180463075637809 177.03258655965328 28.851148344576359 22.511416032910347 226.78523731231689 41.25632007420063 380.11963874846697 1.7668673172593106
leaf_count=23153 1157 9030 2057 1844 1211 587 684 725 10463 13 3732 319 2217 887 261 31 136 121 1638 444 42 210 23 1004 165 105 1072 184 2658 12
internal_value=0 -0.148799 0.0737975 0.0511554 0.140887 -0.0601708 0.215006 0.160651 -0.227953 -0.170417 -0.000679542 0.0403623 0.113816 0.186022 0.115371 0.241388 -0.0701508 0.47059 -0.139044 0.679933 0.768192 0.0963832 -0.398898 0.178429 -0.179675 -0.134586 0.0253745 -0.0958815 -0.100551 -0.198799
internal_weight=0 2196.83 3919.58 3556.08 1302.07 350.712 951.354 831.787 1396.51 1066.76 2254.01 1725.23 1134.07 809.797 648.732 386.321 262.411 161.065 242.957 95.996 90.5212 290.325 41.2589 249.066 72.0333 528.779 422.033 268.042 591.158 381.887
internal_count=66185 42659 23526 21469 6307 1798 4509 3825 33629 23166 15162 11325 7498 5281 4273 2180 2093 1008 1957 517 486 1663 233 1430 426 3837 1981 1256 3827 2670
shrinkage=0.1


Tree=28
num_leaves=31
num_cat=0
split_feature=7 0 19 1 1 1 5 0 0 0 7 0 19 0 7 3 1 1 3 3 2 13 8 1 18 3 1 1 1 19
split_gain=60.3127 32.2496 24.3478 19.8766 17.2278 16.452 15.7949 19.1609 14.3596 29.1066 15.5476 13.8394 16.9182 32.5623 16.9797 21.8473 19.2181 16.7443 16.1017 15.6286 15.4399 15.4929 15.4492 13.8301 18.3446 14.578 11.1743 22.3929 13.0826 11.0127
threshold=3.5000000000000004 1.5000000000000002 1.0000000180025095e-35 49.500000000000007 55.500000000000007 37.500000000000007 4.5000000000000009 3.5000000000000004 5.5000000000000009 6.5000000000000009 6.5000000000000009 2.5000000000000004 5.5000000000000009 1.5000000000000002 5.5000000000000009 174.50000000000003 35.500000000000007 42.500000000000007 122.50000000000001 40.500000000000007 2.5000000000000004 10.500000000000002 5.5000000000000009 57.500000000000007 2.5000000000000004 16.500000000000004 41.500000000000007 40.500000000000007 61.500000000000007 1.5000000000000002
decision_type=2 2 2 2 2 2 2 2 2 2 2 2 2 2 2 2 2 2 2 2 2 2 2 2 2 2 2 2 2 2
left_child=1 2 3 5 -3 -1 7 11 26 -10 -11 12 -2 19 18 16 -16 -18 20 -14 -15 22 -22 24 -6 -26 27 29 -28 -9
right_child=6 4 -4 -5 23 -7 -8 8 9 10 -12 -13 13 14 15 -17 17 -19 -20 -21 21 -23 -24 -25 25 -27 28 -29 -30 -31
leaf_value=-0.035873763857443855 -0.0012363355019450943 -0.008665147251739223 -0.042175830552441909 -0.057509172511402133 0.062034699418742949 0.027344095102295237 0.02085550700575408 0.037994486443919423 -0.026505991967288464 -0.012660522529997043 0.061877412981765391 -0.017155656626104302 -0.029085284439345622 -0.06466848772701124 0.11173980035627443 0.21198945386308765 -0.10078479588961647 0.035248250757238198 -0.11616596966003503 0.087226659785044611 0.23330562834288882 -0.11534231773903483 0.5413260646665935 0.01059448668404743 0.61802492739855486 0.091653307660123459 0.053028582979146636 -0.075926384884204667 -0.015803913091833221 0.0085889061836302537
leaf_weight=57.09402927197516 1268.6586255244911 1389.7526940368116 520.93361527845263 56.039402747526765 32.968523059040308 147.56134241074324 703.56728491187096 198.45388671755791 200.72002801299095 43.400411173701286 78.77962613850832 451.67557373642921 77.115919943898916 1.6499782055616368 23.806038323789835 8.0013590566813928 11.935598801821468 37.408066481351852 1.6391450949013222 13.587940532714127 6.8562800474464858 0.9641647562384611 2.1355326361954212 150.42769613675773 1.1001163646578782 1.008477985858917 172.53222032636404 25.947248443961143 32.873850055038929 355.52427680790424
leaf_count=1539 9746 19248 16351 1731 512 914 3596 962 1105 216 363 3793 613 11 144 47 74 237 18 102 74 11 24 1952 16 18 808 121 147 1692
internal_value=0 -0.130842 -0.296904 -0.0474128 -0.0484441 0.097078 0.0736453 0.0421494 0.146704 -0.0308168 0.354003 -0.0186611 0.0288427 0.311265 0.722406 0.551062 0.379458 0.023436 1.77221 -0.116611 2.18656 2.65611 3.0646 0.237796 0.803236 3.66277 0.219694 0.148703 0.420124 0.19123
internal_weight=0 2356.89 781.628 260.695 1575.26 204.655 3717.23 3013.67 1108.23 322.9 122.18 1905.43 1453.76 185.1 94.3962 81.1511 73.1497 49.3437 13.2451 90.7039 11.606 9.95598 8.99181 185.505 35.0771 2.10859 785.331 579.925 205.406 553.978
internal_count=66185 42281 20535 4184 21746 2453 23904 20308 5414 1684 579 14894 11101 1355 640 502 455 311 138 715 120 109 98 2498 546 34 3730 2775 955 2654
shrinkage=0.1


Tree=29
num_leaves=31
num_cat=0
split_feature=5 0 2 2 6 2 10 0 10 19 1 3 1 1 11 2 19 8 0 1 4 10 2 2 3 19 1 1 3 1
split_gain=51.5273 18.5782 16.9501 25.7075 14.648 12.6462 12.3933 18.3261 11.7396 10.9213 13.0592 14.8616 9.73689 14.0542 11.6142 9.67854 12.5384 10.7399 9.19105 10.9363 9.0673 9.05928 13.5541 17.5383 8.81754 9.24255 10.6761 8.7497 9.29981 11.0666
