tree
version=v3
num_class=1
num_tree_per_iteration=1
label_index=0
max_feature_idx=27
objective=binary sigmoid:1
feature_names=country_code subject_line_length last_open_day last_login_day last_checkout_day open_count_last_10_days open_count_last_30_days open_count_last_60_days login_count_last_10_days login_count_last_30_days login_count_last_60_days checkout_count_last_10_days checkout_count_last_30_days checkout_count_last_60_days attr_1 attr_2 attr_3 age domain day last_open_day_nan last_login_day_nan last_checkout_day_nan attr_1_nan attr_2_nan attr_3_nan age_nan domain_nan
feature_infos=[1:7] [10:75] [-9999:804] [-9999:18141] [-9999:1445] [0:31] [0:92] [0:135] [0:254] [0:735] [0:1260] [0:157] [0:531] [0:783] [-9999:1] [-9999:1] [-9999:4] [-9999:98] [0:10] [0:6] [0:1] [0:1] [0:1] [0:1] [0:1] [0:1] [0:1] [0:1]
tree_sizes=3297 3334 3349 3352 3354 3371 3366 3385 3381 3395 3372 3391 3377 3388 3386 3382 3356 3372 3364 3365 3395 3400 3359 3380 3338 3394 3376 3389 3388 3404 3353 3384 3382 3353 3385 3384 3402 3367 3377 3368 3368 3350 3323 3399 3344 3343 3361 3335 3346 3325 3341 3356 3361 3297 3336 3348 3319 3341 3296 3351 3347 3333 3336 3329 3347 3330 3308 3300 3346 3320 3305 3320 3318 3312 3336 3307 3353 3328 3306 3338 3365 3340 3315 3302 3338 3366 3354 3295 3332 3304 3334 3322 3321 3315 3333 3305 3323 3299 3335 3316 3324 3308 3313 3334 3310 3294 3329 3353 3361 3305 3324 3305 3295 3316 3328 3312

Tree=0
num_leaves=31
num_cat=0
split_feature=5 6 0 5 0 5 0 6 0 5 7 7 0 7 6 7 5 0 1 7 19 5 0 0 0 0 0 5 6 3
split_gain=14494.6 2649.33 1123.72 722.055 524.72 296.109 423.576 241.35 236.858 224.145 181.763 178.399 167.705 132.693 109.205 89.3488 73.2877 65.075 59.9577 55.655 54.8859 54.0457 49.6194 46.7578 68.3905 41.8101 41.7135 38.5057 38.2652 35.2032
threshold=1.5000000000000002 9.5000000000000018 3.5000000000000004 1.0000000180025095e-35 3.5000000000000004 3.5000000000000004 3.5000000000000004 5.5000000000000009 3.5000000000000004 3.5000000000000004 26.500000000000004 4.5000000000000009 3.5000000000000004 9.5000000000000018 2.5000000000000004 12.500000000000002 6.5000000000000009 5.5000000000000009 62.500000000000007 3.5000000000000004 1.0000000180025095e-35 5.5000000000000009 4.5000000000000009 5.5000000000000009 6.5000000000000009 2.5000000000000004 6.5000000000000009 7.5000000000000009 7.5000000000000009 30.500000000000004
decision_type=2 2 2 2 2 2 2 2 2 2 2 2 2 2 2 2 2 2 2 2 2 2 2 2 2 2 2 2 2 2
left_child=3 2 9 8 13 6 25 17 19 15 12 22 16 -5 -6 -2 -7 -4 -13 20 -1 -11 -10 -9 -25 29 -19 -12 -16 -3
right_child=1 5 7 4 14 10 -8 23 11 21 27 18 -14 -15 28 -17 -18 26 -20 -21 -22 -23 -24 24 -26 -27 -28 -29 -30 -31
leaf_value=-1.762655105299997 -1.6518054272241689 -1.5081687342769001 -1.4340320609106894 -1.7415212519034724 -1.6304046374996375 -1.3765106421506252 -1.1592346305414054 -1.2804375822803733 -1.7103582370109018 -1.5171263933169425 -1.2102342548989793 -1.6363082140567959 -1.1679778826536054 -1.6415217806989035 -1.5313338923298825 -1.5492268889517922 -1.2426583254554198 -1.6334416213733898 -1.4094321170463497 -1.7565433860199342 -1.7926368524677674 -1.3437648870502397 -1.7570303156322262 -1.4949242019098219 -1.2424415556367694 -1.6148339144811041 -1.4401352068673814 -1.1278743650955438 -1.3355220531467353 -1.3450850284175977
leaf_weight=775.1168919801712 459.62564259767532 61.940966427326202 129.79985958337784 841.13465237617493 203.31366050243378 155.57571822404861 50.368131935596466 140.71514666080475 324.17087525129318 115.33381646871567 140.58363717794418 94.686827659606934 75.880971610546112 157.54836046695709 133.87665355205536 104.15551042556763 55.497001767158508 33.140389680862427 13.282457768917082 760.91386783123016 2876.5069186091423 21.30453622341156 766.17424714565277 27.748500883579254 17.49076122045517 28.40604829788208 16.833213806152344 95.212865591049194 10.783777594566343 16.833213806152344
leaf_count=5894 3495 471 987 6396 1546 1183 383 1070 2465 877 1069 720 577 1198 1018 792 422 252 101 5786 21873 162 5826 211 133 216 128 724 82 128
internal_value=0 2.57569 1.59183 -0.646539 0.0110341 4.11756 2.91581 3.01259 -0.804363 0.849976 4.47975 -0.410098 3.94523 -0.35743 1.06852 0.571482 3.48686 2.18639 0.81605 -0.911433 -0.9627 1.99907 -0.531515 3.81133 2.92695 1.79178 1.21675 5.13025 1.73266 2.16683
internal_weight=0 1746.45 1066.15 6957.51 1346.66 680.299 157.548 365.728 5610.85 700.42 522.75 1198.31 286.954 998.683 347.974 563.781 211.073 179.773 107.969 4412.54 3651.62 136.638 1090.35 185.954 45.2393 107.18 49.9736 235.797 144.66 78.7742
internal_count=66185 13280 8107 52905 10240 5173 1198 2781 42665 5326 3975 9112 2182 7594 2646 4287 1605 1367 821 33553 27767 1039 8291 1414 344 815 380 1793 1100 599
shrinkage=1


Tree=1
num_leaves=31
num_cat=0
split_feature=5 6 5 0 0 0 5 0 6 5 7 6 6 6 7 3 7 0 13 7 7 0 2 0 0 0 4 5 7 1
split_gain=10168.2 1245.83 647.881 513.536 402.388 223.964 156.783 296.422 152.641 120.302 110.56 83.5474 74.5183 72.9482 54.4233 51.9543 49.7306 40.4268 39.7247 38.7193 37.0719 49.6346 28.2062 25.277 34.608 25.0935 25.986 24.6525 24.5677 24.055
threshold=1.5000000000000002 8.5000000000000018 1.0000000180025095e-35 3.5000000000000004 3.5000000000000004 3.5000000000000004 4.5000000000000009 3.5000000000000004 1.5000000000000002 3.5000000000000004 9.5000000000000018 4.5000000000000009 11.500000000000002 3.5000000000000004 3.5000000000000004 -1.0000000180025095e-35 26.500000000000004 2.5000000000000004 1.5000000000000002 12.500000000000002 8.5000000000000018 6.5000000000000009 1.0000000180025095e-35 5.5000000000000009 6.5000000000000009 4.5000000000000009 1.0000000180025095e-35 2.5000000000000004 4.5000000000000009 62.500000000000007
decision_type=2 2 2 2 2 2 2 2 2 2 2 2 2 2 2 2 2 2 2 2 2 2 2 2 2 2 2 2 2 2
left_child=2 3 5 9 10 14 7 12 15 19 22 -5 29 25 -1 -7 -8 18 -14 27 -10 -22 -4 -13 -25 26 -6 -2 -24 -3
right_child=1 6 4 11 13 8 16 -9 20 -11 -12 23 17 -15 -16 -17 -18 -19 -20 -21 21 -23 28 24 -26 -27 -28 -29 -30 -31
leaf_value=-0.093031762468007914 0.016726864280951704 0.12775094207994439 0.094101360299839343 0.14855790201771787 0.22360341168030407 0.086113282645113129 0.27628021946034931 0.33340287126658052 0.02686072057777535 0.15354014832361562 0.042135131158929071 0.2613216440916703 0.31466981715894798 0.16003791313168847 -0.062888263649644768 -0.057272008921809427 0.33610448898111595 0.12653038413925707 0.18603328579121747 0.10619026046817009 0.069714004450862149 0.36170491867462534 -0.061655906714467391 0.1198220567727446 0.27666242173648598 0.035625702077229364 0.079212312420197828 0.067507687756349535 -0.022756162835447843 -0.07396264164063801
leaf_weight=3413.446281477809 324.50999373197556 149.86397549510002 13.703373670578001 150.19167041778564 14.263099789619444 25.95308792591095 265.08828072249889 169.10845595598221 149.19590413570404 120.25231476128101 162.84462407231331 185.98950740695 51.783858999609947 104.15567749738693 726.42618927359581 960.66385005414486 292.02730460464954 32.798701956868172 44.75465190410614 82.222570106387138 21.143464222550392 8.0336247086524981 570.97390294075012 33.546378955245018 24.231137558817863 156.83101336658001 98.816913768649101 135.52746826410294 226.86696410179138 6.1548112183809272
leaf_count=27767 2404 1006 108 989 103 200 1580 952 1134 803 1198 1117 321 702 5786 7571 1619 217 285 569 155 52 4500 230 143 1132 709 1004 1788 41
internal_value=0 1.92763 -0.611097 1.16814 0.00784095 -0.768426 2.72082 2.28493 -0.381093 0.630509 -0.330623 2.07227 1.66321 0.88949 -0.877425 -0.535002 3.07639 2.22447 2.55035 0.429838 0.470212 1.50111 -0.481514 2.43374 1.85599 0.615166 0.974248 0.316869 -0.505947 1.19794
internal_weight=0 2068.05 6653.32 1056.47 1348.46 5304.86 1011.58 454.464 1164.99 662.512 974.389 393.959 285.356 374.067 4139.87 986.617 557.116 129.337 96.5385 542.26 178.373 29.1771 811.544 243.767 57.7775 269.911 113.08 460.037 797.841 156.019
internal_count=66185 13280 52905 7259 10240 42665 6021 2822 9112 4780 7594 2479 1870 2646 33553 7771 3199 823 606 3977 1341 207 6396 1490 373 1944 812 3408 6288 1047
shrinkage=0.1


Tree=2
num_leaves=31
num_cat=0
split_feature=5 6 5 0 0 0 7 5 7 0 6 5 0 19 7 6 5 1 1 0 7 3 5 0 7 7 1 0 5 13
split_gain=7645.23 750.192 580.009 313.251 286.866 211.2 130.166 122.285 93.6759 81.7662 142.284 66.5298 58.4931 53.2855 57.561 50.8225 46.63 44.6845 183.43 139.12 50.0925 37.5359 33.4775 60.457 27.4866 27.0087 26.483 26.501 25.002 24.5465
threshold=1.5000000000000002 7.5000000000000009 1.0000000180025095e-35 3.5000000000000004 3.5000000000000004 3.5000000000000004 3.5000000000000004 2.5000000000000004 7.5000000000000009 3.5000000000000004 13.500000000000002 3.5000000000000004 3.5000000000000004 1.0000000180025095e-35 3.5000000000000004 2.5000000000000004 2.5000000000000004 48.500000000000007 39.500000000000007 1.5000000000000002 1.0000000180025095e-35 -1.0000000180025095e-35 7.5000000000000009 2.5000000000000004 6.5000000000000009 1.5000000000000002 62.500000000000007 5.5000000000000009 5.5000000000000009 1.0000000180025095e-35
decision_type=2 2 2 2 2 2 2 2 2 2 2 2 2 2 2 2 2 2 2 2 2 2 2 2 2 2 2 2 2 2
left_child=2 4 5 8 11 13 21 12 -4 10 28 -2 -3 17 -15 -5 24 18 -1 20 -20 -7 23 -12 -6 -23 27 -8 29 -9
right_child=1 7 3 15 16 6 26 9 -10 -11 22 -13 -14 14 -16 -17 -18 -19 19 -21 -22 25 -24 -25 -26 -27 -28 -29 -30 -31
leaf_value=-0.084448778765009502 0.032176211766694433 0.076604235279747246 -0.048355324667694294 0.043321596270100626 0.099613804236401107 0.066039783007813116 0.064091939553192576 0.17270820382949129 0.024733024169329983 0.26066273950512225 0.24292711871519646 0.12098074896278027 0.20123824045428004 -0.096986728625222618 -0.060971910194073768 0.11544227626393087 0.20333554865370079 -0.087368843922550787 0.039670866502673971 -0.095747199493546445 0.18021211803184284 -0.060874564361293342 0.27133214201644135 0.14418311416990665 0.16805377943098665 -0.018176732221129459 0.15493195732820808 -0.026561186393712383 0.20368043448524764 0.11285681119722522
leaf_weight=312.95265003293753 507.18827894330025 100.47271996736526 720.1110357567668 220.48274281620979 129.04242332279682 27.463002115488052 92.209599226713181 119.76273201406002 231.81058961898088 306.55086205899715 229.28898917138577 101.19362330436707 60.228684619069099 2501.9195046275854 539.46538281440735 175.47143857181072 141.28955222666264 384.33674340695143 47.004152968525887 44.882070377469063 55.078071773052216 760.5137689858675 169.79662229120731 84.987204253673553 107.62213376164436 183.98732131719589 20.140386432409286 49.590226009488106 74.409239113330841 160.16226607561111
leaf_count=2661 3633 644 5881 1546 768 200 685 703 1713 1496 1155 618 301 21873 4494 1100 779 3273 402 381 469 6259 803 438 594 1478 122 368 389 959
internal_value=0 1.55278 -0.577082 0.00534664 0.894541 -0.733479 -0.353764 2.05003 -0.30557 2.16468 2.00309 0.469473 1.23315 -0.844288 -0.905986 0.752827 1.57876 -0.622022 -0.411713 0.509858 1.15499 -0.492061 2.35554 2.16225 1.30737 -0.525571 0.476293 0.323887 1.52159 1.38464
internal_weight=0 2292 6367.42 1347.88 986.336 5019.54 1133.9 1305.66 951.922 1144.96 838.407 608.382 160.701 3885.64 3041.38 395.954 377.954 844.254 459.917 146.964 102.082 971.964 484.073 314.276 236.665 944.501 161.94 141.8 354.334 279.925
internal_count=66185 13280 52905 10240 6392 42665 9112 6888 7594 5943 4447 4251 945 33553 26367 2646 2141 7186 3913 1252 871 7937 2396 1593 1362 7737 1175 1053 2051 1662
shrinkage=0.1


Tree=3
num_leaves=31
num_cat=0
split_feature=5 6 5 0 0 0 6 6 7 0 5 5 7 19 0 7 5 1 1 0 5 7 2 19 7 0 0 1 6 0
split_gain=5944.84 520.767 518.862 246.536 225.769 198.842 110.969 82.7691 68.5311 127.033 57.7507 55.3349 52.7932 56.6562 39.0554 37.5821 37.1783 36.213 106.759 134.65 32.4154 31.6982 25.7811 25.0204 24.6138 23.3355 23.9576 23.1503 22.9424 24.3647
threshold=1.5000000000000002 8.5000000000000018 1.0000000180025095e-35 3.5000000000000004 3.5000000000000004 3.5000000000000004 1.5000000000000002 3.5000000000000004 24.500000000000004 3.5000000000000004 3.5000000000000004 5.5000000000000009 3.5000000000000004 1.0000000180025095e-35 4.5000000000000009 7.5000000000000009 2.5000000000000004 37.500000000000007 48.500000000000007 1.5000000000000002 2.5000000000000004 1.0000000180025095e-35 1.0000000180025095e-35 1.5000000000000002 12.500000000000002 5.5000000000000009 6.5000000000000009 41.500000000000007 4.5000000000000009 6.5000000000000009
decision_type=2 2 2 2 2 2 2 2 2 2 2 2 2 2 2 2 2 2 2 2 2 2 2 2 2 2 2 2 2 2
left_child=2 4 5 7 10 12 14 22 9 11 24 20 13 17 -7 -5 25 -1 19 21 -3 -19 -4 -18 -2 27 -27 -6 -8 -30
right_child=1 8 3 15 16 6 28 -9 -10 -11 -12 -13 -14 -15 -16 -17 23 18 -20 -21 -22 -23 -24 -25 -26 26 -28 -29 29 -31
leaf_value=-0.10162371289319945 0.023690050214590141 0.036746647791786477 0.086650119172379234 0.048915503152963551 0.10856212250501236 -0.015388184311918615 0.021070029736093673 0.019284370305646576 0.2028242645205095 0.21067390332465996 0.1039721766794566 0.17577675847219976 -0.055697841869308241 -0.094217137315932717 -0.0605128910982346 0.12259658876912222 0.22287628114488844 0.030938340270420306 -0.084767946011875414 -0.080459432252598162 0.11698301145073041 0.14070059421838779 -0.049800014143598227 0.14562847813103585 0.080395531493299643 0.011840780001887759 0.13712358556992973 0.18517847086011452 0.049431739241829094 0.22789989506132288
leaf_weight=164.77397829294205 481.22122617065907 61.792677462100983 14.146630167961119 326.56080175936222 157.65766659379005 272.96813136339188 153.38197068870068 263.42249402403831 512.88131898641586 266.93670426309109 141.92517763376236 146.9219164699316 663.41036165505648 2326.9882771074772 645.03943695873022 87.848465070128441 58.820051819086075 51.67098131775856 301.09676319360733 88.614133283495903 271.93086993694305 53.606354385614395 653.60125882178545 146.01913307607174 91.026637747883797 40.421247467398643 24.524569347500801 52.594398140907288 21.673625603318214 11.822248101234434
leaf_count=1500 3408 374 108 2138 824 2223 1128 1988 2316 1179 803 690 5786 21873 5548 508 289 432 2747 809 1462 406 5498 721 569 244 128 273 150 63
internal_value=0 1.2984 -0.544511 0.00371736 0.825192 -0.699648 -0.327964 -0.281835 1.74673 1.5536 0.468718 1.2464 -0.812155 -0.868835 -0.470951 0.645348 1.35553 -0.610176 -0.475004 0.103729 1.02126 0.868284 -0.469092 1.6781 0.327101 1.11543 0.591496 1.27728 0.374438 1.12421
internal_weight=0 2454.67 6100.63 1345.58 1194.21 4755.05 1104.89 931.17 1260.46 747.582 714.173 480.645 3650.16 2986.75 918.008 414.409 480.037 659.762 494.988 193.891 333.724 105.277 667.748 204.839 572.248 275.198 64.9458 210.252 186.878 33.4959
internal_count=66185 13280 52905 10240 7259 42665 9112 7594 6021 3705 4780 2526 33553 27767 7771 2646 2479 5894 4394 1647 1836 838 5606 1010 3977 1469 372 1097 1341 213
shrinkage=0.1


Tree=4
num_leaves=31
num_cat=0
split_feature=5 5 6 0 0 0 7 7 0 7 7 19 5 5 5 0 0 1 1 0 0 0 5 3 0 1 0 0 9 2
split_gain=4715.25 463.015 393.23 195.465 186.691 103.876 95.2352 93.0616 97.2198 72.423 51.64 55.3419 45.8545 39.0234 37.0795 41.9108 42.9168 34.4585 94.7255 108.164 32.3054 30.8723 30.5107 30.4841 30.4064 26.8517 26.21 25.3946 25.1456 24.8684
threshold=1.5000000000000002 1.0000000180025095e-35 6.5000000000000009 3.5000000000000004 3.5000000000000004 3.5000000000000004 3.5000000000000004 16.500000000000004 3.5000000000000004 9.5000000000000018 3.5000000000000004 1.0000000180025095e-35 4.5000000000000009 2.5000000000000004 7.5000000000000009 3.5000000000000004 2.5000000000000004 37.500000000000007 48.500000000000007 1.5000000000000002 4.5000000000000009 6.5000000000000009 3.5000000000000004 -1.0000000180025095e-35 5.5000000000000009 33.500000000000007 5.5000000000000009 6.5000000000000009 8.5000000000000018 2.5000000000000004
decision_type=2 2 2 2 2 2 2 2 2 2 2 2 2 2 2 2 2 2 2 2 2 2 2 2 2 2 2 2 2 2
left_child=1 4 5 9 10 13 23 8 12 -3 11 17 -4 -2 15 16 22 -1 19 -19 25 24 -9 -6 28 -5 -7 -28 -22 -18
right_child=2 3 7 20 6 26 -8 14 -10 -11 -12 -13 -14 -15 -16 -17 29 18 -20 -21 21 -23 -24 -25 -26 -27 27 -29 -30 -31
leaf_value=-0.099212485256515756 0.0090312819420272639 -0.039512311088629494 0.051300028106904899 0.024954522525661091 0.058785273295667045 0.11547984047770582 0.038648799345315753 0.10713081776439977 0.15647226372618953 0.032638923728181689 -0.05236072203981984 -0.091512263983749953 0.12604018530408864 0.064240735066980817 0.19469445512048478 0.18522108366341139 0.12781278999973419 0.073295988206222934 -0.081640699473699091 -0.077223262718548888 0.13601686494506457 0.1137347474993981 0.16454577894437034 -0.046449651386584523 -0.028159381255952871 0.10826787387539683 0.008342858558319094 0.11882412072983202 0.023236152129343754 0.043693372414540688
leaf_weight=152.53277868032455 335.24102765321732 740.90763205289841 245.85239036381245 53.0189119130373 28.414751797914505 265.25478959083557 168.70006041228771 126.43161702156067 255.79003505408764 171.28117117285728 636.55655991286039 2164.6157407835126 123.23288829624653 207.12564447522163 216.45318922400475 224.50603599846363 71.073016107082367 111.71498253941536 282.34721912443638 83.369844675064087 26.170468494296074 37.606761947274208 345.43394859135151 880.72158196568489 89.532006561756134 143.09042184054852 52.406093910336494 34.501698732376099 80.825612008571625 69.521306708455086
leaf_count=1500 2342 6396 1447 316 200 1299 1175 674 1120 1198 5786 21873 581 1295 895 945 330 838 2747 809 170 236 1536 7737 552 861 304 168 511 344
internal_value=0 -0.513121 1.11124 0.00241612 -0.666609 0.575744 -0.30356 1.39666 1.09091 -0.259645 -0.780655 -0.839206 0.762548 0.301153 1.57802 1.48261 1.34713 -0.57835 -0.446155 0.0897132 0.558029 0.307247 1.49162 -0.431606 0.148403 0.857438 0.998642 0.52203 0.508215 0.862173
internal_weight=0 5851.41 2572.82 1342.43 4508.97 894.529 1077.84 1678.29 624.875 912.189 3431.14 2794.58 369.085 542.367 1053.42 836.966 612.46 629.965 477.432 195.085 430.244 234.135 471.866 909.136 196.528 196.109 352.163 86.9078 106.996 140.594
internal_count=66185 52905 13280 10240 42665 5408 9112 7872 3148 7594 33553 27767 2028 3637 4724 3829 2884 5894 4394 1647 2646 1469 2210 7937 1233 1177 1771 472 681 674
shrinkage=0.1


Tree=5
num_leaves=31
num_cat=0
split_feature=5 5 6 0 0 6 0 6 0 6 19 6 6 1 1 0 0 6 5 2 5 0 2 0 0 2 2 0 0 0
split_gain=3788.1 411.741 300.584 174.865 155.321 83.6293 78.1975 75.9287 104.499 63.7158 48.4902 45.0219 43.3239 37.4966 118.892 75.032 34.3684 29.7678 29.6313 27.2518 25.006 22.9365 21.7325 19.954 21.2325 19.5174 19.4914 18.4204 18.2931 18.3343
threshold=1.5000000000000002 1.0000000180025095e-35 6.5000000000000009 3.5000000000000004 3.5000000000000004 1.5000000000000002 3.5000000000000004 16.500000000000004 3.5000000000000004 3.5000000000000004 1.0000000180025095e-35 11.500000000000002 1.5000000000000002 48.500000000000007 39.500000000000007 1.5000000000000002 4.5000000000000009 2.5000000000000004 2.5000000000000004 41.500000000000007 4.5000000000000009 1.5000000000000002 1.0000000180025095e-35 5.5000000000000009 6.5000000000000009 1.5000000000000002 9.5000000000000018 2.5000000000000004 5.5000000000000009 6.5000000000000009
decision_type=2 2 2 2 2 2 2 2 2 2 2 2 2 2 2 2 2 2 2 2 2 2 2 2 2 2 2 2 2 2
left_child=1 3 6 10 9 16 18 8 11 22 13 20 21 14 -1 19 -5 25 -2 -16 -4 -12 -3 -10 -25 -6 28 -15 -8 -30
right_child=2 4 7 5 17 -7 26 -9 23 -11 12 -13 -14 27 15 -17 -18 -19 -20 -21 -22 -23 -24 24 -26 -27 -28 -29 29 -31
leaf_value=-0.074522534438477075 0.0080778159040958714 0.079263114409024463 0.054525329822758054 -0.01128690290345628 0.1068747557556786 0.031651527011749621 0.093103150730859438 0.15744481386600431 0.15940348870372303 0.017069407430633801 -0.095973033550614165 0.11496429538162362 -0.053827616952771717 -0.096529268001374721 0.11630078360217976 -0.08844125436397221 -0.054616342652730847 0.07684163625546199 0.055585606661121369 0.02121221135798881 0.10732922398690703 -0.073932984562015788 -0.044144405688915825 0.087869957032243456 0.16929835806045657 0.015040807051576842 0.17124206286336888 -0.046733806764734175 0.0023999851296106277 0.098646808668603272
leaf_weight=259.16762827336788 337.21938763558865 14.609991967678068 360.68791487812996 263.94939129054546 25.910396784543991 191.9665685147047 257.60871516168118 431.21307034790516 337.21621365845203 266.68943578004837 1287.1101159453392 346.23339751362801 457.50049936771393 202.19147904217243 66.766657680273056 37.478616081178188 597.34172378480434 201.69195890426636 214.98504143953323 54.940892606973648 119.36243665218353 745.75297130644321 613.31483555585146 96.249946907162666 47.987281084060669 216.65729133784771 25.081057921051979 117.43572077900171 51.627413809299469 32.096985280513763
leaf_count=2661 2342 108 2014 2223 164 1341 1204 1773 1393 1988 13915 1539 4500 2068 458 381 5548 1100 1295 413 545 7952 5498 411 197 1382 120 1205 298 149
internal_value=0 -0.482805 0.966119 -0.634158 0.00121037 -0.280347 0.503401 1.21056 1.09057 -0.238809 -0.74959 0.874786 -0.816306 -0.524453 -0.327427 0.35278 -0.413377 0.484541 0.265736 0.733762 0.676548 -0.878877 -0.412731 1.46089 1.14961 0.248503 0.861574 -0.782337 0.799054 0.392976
internal_weight=0 5620.48 2657.57 4281.6 1338.87 1053.26 918.619 1738.95 1307.74 894.614 3228.34 826.284 2490.36 737.981 418.354 159.186 861.291 444.26 552.204 121.708 480.05 2032.86 627.925 481.453 144.237 242.568 366.414 319.627 341.333 83.7244
internal_count=66185 52905 13280 42665 10240 9112 5408 7872 6099 7594 33553 4098 26367 7186 3913 1252 7771 2646 3637 871 2559 21867 5606 2001 608 1546 1771 3273 1651 447
shrinkage=0.1


Tree=6
num_leaves=31
num_cat=0
split_feature=6 5 5 0 0 0 6 0 19 0 5 5 1 1 0 2 0 5 0 0 1 0 1 0 2 6 6 13 3 2
split_gain=3098.98 341.147 316.581 137.425 135.476 101.821 83.1815 66.9816 47.5282 40.5971 37.418 36.6703 32.243 74.7969 93.9252 29.4793 29.1524 27.2866 37.27 25.316 23.6316 23.8976 23.0221 63.959 30.9735 20.9501 20.8463 22.7842 20.6054 20.1811
threshold=3.5000000000000004 2.5000000000000004 1.0000000180025095e-35 3.5000000000000004 3.5000000000000004 3.5000000000000004 9.5000000000000018 3.5000000000000004 1.0000000180025095e-35 4.5000000000000009 1.0000000180025095e-35 2.5000000000000004 37.500000000000007 48.500000000000007 1.5000000000000002 1.5000000000000002 1.5000000000000002 7.5000000000000009 3.5000000000000004 2.5000000000000004 52.500000000000007 2.5000000000000004 23.500000000000004 2.5000000000000004 20.500000000000004 1.5000000000000002 18.500000000000004 1.5000000000000002 114.50000000000001 13.500000000000002
decision_type=2 2 2 2 2 2 2 2 2 2 2 2 2 2 2 2 2 2 2 2 2 2 2 2 2 2 2 2 2 2
left_child=2 3 4 10 8 11 7 -3 12 28 -2 15 -1 14 -14 -4 -10 18 19 26 21 -12 23 24 -18 -17 27 -8 -6 -27
right_child=1 6 5 -5 9 -7 17 -9 16 -11 20 -13 13 -15 -16 25 22 -19 -20 -21 -22 -23 -24 -25 -26 29 -28 -29 -30 -31
leaf_value=-0.093131797678158754 -0.028111831290937191 0.052164018729450125 0.015689052838694244 0.081486413043730388 -0.0083630265292027554 0.032532185320328554 0.12791502953668218 0.116179213262288 -0.091512508343239152 -0.045799743029485591 0.048943263949523363 0.068653667408717908 0.058771243824957936 -0.07493883659496671 -0.065420842794612244 -0.061490705685493002 0.71780643293150848 0.15228726655529704 0.14880606397196103 0.068355062862199917 -0.012885567276793412 -0.0025026828490055681 -0.070416990680208 -0.081047365921481707 0.18418827836732504 -0.033873900132130055 0.16100520557946396 0.081181672710297914 0.10413500290671869 0.032592198499933597
leaf_weight=145.21740040183067 180.32632979750633 402.7877776324749 112.9592956751585 446.65863420069218 303.89887994527817 444.56845319271088 209.8678523004055 275.07888045907021 1281.348501957953 649.76754725724459 329.73465013504028 38.297188356518745 129.96898663789034 282.80838265269995 114.58573717623949 263.57868409901857 1.4457483813166625 240.91428038477898 232.40894205868244 165.26586571335793 134.36291792988777 124.34131754934788 887.78013533353806 13.226282030344009 4.3927791640162468 353.46695528179407 78.003458246588707 207.43764607608318 17.202997237443924 52.462175585329533
leaf_count=1624 1780 2192 934 2177 2499 2563 898 1170 14868 6106 2210 242 896 3091 1226 2470 15 967 931 726 916 858 9860 146 47 2960 314 905 143 451
internal_value=0 0.783584 -0.493804 0.373722 -0.637022 -0.0601173 1.05854 0.781414 -0.746563 -0.314247 0.117415 -0.268891 -0.514073 -0.399178 0.00581234 -0.315654 -0.818023 1.22421 1.14364 1.02246 0.239545 0.348556 -0.680821 0.406461 3.16324 -0.395381 1.13554 1.04684 -0.0233596 -0.252838
internal_weight=0 3027.19 5096.98 1215.42 3831.64 1265.33 1811.76 677.867 2860.77 970.869 768.765 820.764 672.581 527.363 244.555 782.467 2188.19 1133.9 892.984 660.575 588.439 454.076 906.845 19.0648 5.83853 669.508 495.309 417.305 321.102 405.929
internal_count=66185 16044 50141 7941 40521 9620 8103 3362 31773 8748 5764 7057 6837 5213 2122 6815 24936 4741 3774 2843 3984 3068 10068 208 62 5881 2117 1803 2642 3411
shrinkage=0.1


Tree=7
num_leaves=31
num_cat=0
split_feature=6 5 5 0 0 0 7 19 6 7 7 0 1 1 0 5 0 3 2 2 1 0 22 0 1 0 0 0 10 7
split_gain=2534.32 283.27 279.024 175.651 127.647 82.9289 53.4185 45.5649 44.2127 42.3555 38.5053 36.7172 30.3887 66.4138 76.9746 29.5826 29.0838 28.3519 26.386 22.5882 20.7082 21.5593 27.4889 20.1617 19.5051 40.7771 19.134 24.4149 18.5919 18.1257
threshold=3.5000000000000004 1.0000000180025095e-35 3.5000000000000004 3.5000000000000004 3.5000000000000004 3.5000000000000004 11.500000000000002 1.0000000180025095e-35 6.5000000000000009 1.5000000000000002 22.500000000000004 3.5000000000000004 37.500000000000007 48.500000000000007 1.5000000000000002 2.5000000000000004 1.5000000000000002 -1.0000000180025095e-35 1.0000000180025095e-35 16.500000000000004 61.500000000000007 2.5000000000000004 1.0000000180025095e-35 2.5000000000000004 23.500000000000004 2.5000000000000004 5.5000000000000009 6.5000000000000009 74.500000000000014 1.0000000180025095e-35
decision_type=2 2 2 2 2 2 2 2 2 2 2 2 2 2 2 2 2 2 2 2 2 2 2 2 2 2 2 2 2 2
left_child=1 4 3 8 7 15 -5 12 -2 17 11 -4 -1 14 29 18 -9 -6 28 -11 21 22 -10 -15 25 -18 -8 -28 -3 -14
right_child=2 5 10 6 9 -7 26 16 20 19 -12 -13 13 23 -16 -17 24 -19 -20 -21 -22 -23 -24 -25 -26 -27 27 -29 -30 -31
leaf_value=-0.090748879011140857 0.00017513269805864912 0.059498981098450837 0.073731793714839414 0.060336569560083847 0.059685684948162746 0.028751075727830255 0.13390442844516176 -0.08911196941566589 0.042687617118803603 0.035953194762992351 0.12374610515722689 0.12271667262935193 0.0092747554714391091 -0.093397262815059251 -0.062206221682739954 0.059179807259705633 0.21789310559874689 -0.046966286516647755 -0.032086475284395996 -0.021120233684816782 -0.063961655481172761 0.0075884593930162954 0.11096400883599492 -0.036705829488829354 -0.067278551419960073 -0.078132125664464147 0.038604106182012314 0.15541802056842674 0.43324562832199148 0.083174157792454934
leaf_weight=134.6735602915287 595.1702833250165 17.158436536788944 487.96515087783337 419.95812818408012 25.936946988105774 452.2937255948782 195.34055657684803 1189.0623714029789 275.64940854907036 121.50019814819098 584.11773619055748 222.92502465844154 58.982006296515465 165.13350217789412 108.76445209234953 39.892734989523888 7.451493166387082 639.21042842417955 745.79079053550959 161.54442339390516 18.14506059885025 116.17312063276768 75.015753656625748 101.16368922591209 838.85245580971241 12.391440853476524 55.431298866868019 26.420259714126587 1.442900463938712 75.902537569403648
leaf_count=1624 4551 119 2193 1974 178 2563 818 14868 1603 941 2365 908 432 1944 1226 242 62 6259 6686 1370 109 739 417 1147 9860 146 257 110 10 464
internal_value=0 -0.464434 0.694185 0.436942 -0.605733 -0.0550621 0.828256 -0.716855 0.184382 -0.290203 1.04723 0.890928 -0.48499 -0.373411 0.00387228 -0.24771 -0.789844 -0.428075 -0.291523 0.033792 0.408506 0.449244 0.572936 -0.718607 -0.649605 0.330324 1.16897 0.763096 0.884904 0.508596
internal_weight=0 4897.15 3072.31 1777.3 3640.57 1256.58 697.15 2692.38 1080.15 948.192 1295.01 710.89 644.62 509.946 243.649 804.285 2047.76 665.147 764.392 283.045 484.983 466.838 350.665 266.297 858.695 19.8429 277.192 81.8516 18.6013 134.885
internal_count=66185 50141 16044 10578 40521 9620 3159 31773 7419 8748 5466 3101 6837 5213 2122 7057 24936 6437 6815 2311 2868 2759 2020 3091 10068 208 1185 367 129 896
shrinkage=0.1


Tree=8
num_leaves=31
num_cat=0
split_feature=5 6 7 0 0 0 19 7 5 0 5 7 0 1 1 0 6 0 2 2 7 5 10 3 3 2 1 2 0 0
split_gain=2093.49 292.753 174.215 122.229 117.101 51.5773 50.2769 41.6099 35.3673 47.0497 35.2233 34.7467 32.3544 30.332 77.757 30.001 27.9899 27.5063 23.6142 25.1734 23.1283 21.5782 21.5547 20.5337 20.4993 19.3675 18.9506 18.4171 18.3455 34.2248
threshold=1.5000000000000002 1.5000000000000002 13.500000000000002 3.5000000000000004 3.5000000000000004 3.5000000000000004 1.0000000180025095e-35 7.5000000000000009 7.5000000000000009 3.5000000000000004 4.5000000000000009 24.500000000000004 1.5000000000000002 48.500000000000007 38.500000000000007 1.5000000000000002 1.0000000180025095e-35 2.5000000000000004 11.500000000000002 2.5000000000000004 9.5000000000000018 2.5000000000000004 29.500000000000004 571.50000000000011 -1.0000000180025095e-35 24.500000000000004 53.500000000000007 28.500000000000004 5.5000000000000009 6.5000000000000009
decision_type=2 2 2 2 2 2 2 2 2 2 2 2 2 2 2 2 2 2 2 2 2 2 2 2 2 2 2 2 2 2
left_child=1 4 5 7 6 10 13 -3 9 11 18 -4 -8 14 -1 22 24 -15 19 -2 27 -7 25 -9 -6 -16 -19 28 -5 -30
right_child=2 3 8 20 16 21 12 23 -10 -11 -12 -13 -14 17 15 -17 -18 26 -20 -21 -22 -23 -24 -25 -26 -27 -28 -29 29 -31
leaf_value=-0.067524426901568374 0.036827185380351228 -0.039424945587247358 0.056037642159599638 0.036084026144711644 0.045212327999594459 0.047986036087073691 -0.086158662896507476 -0.00083526594655508775 0.12851735619525437 0.11649728203758217 0.077674070535757311 0.097507781949134453 -0.059353734245867845 -0.095435013357317855 0.20540584569463111 -0.056724932235207963 -0.0033838709474370392 -0.1028669471198847 0.088354715645899293 -0.0033670158458747887 0.079106699994269059 0.087642951955289358 0.011680588771653552 0.23720014040481108 -0.043340980688608755 0.064472528221322004 -0.0027818538945957277 0.19195755186182872 -0.048976667832704941 0.057687360057272465
leaf_weight=185.4860442429781 261.83963356912136 667.50779419392347 500.71330164372921 293.504279717803 27.375591829419136 303.80296988785267 1169.6885108426213 397.14731524884701 228.91642940044403 348.1358812302351 114.31205549836159 338.71780054271221 732.16883911192417 153.89658666402102 12.359930753707884 33.503032326698303 336.19665294140577 25.323224678635597 44.329263508319855 384.81422244012356 96.215714946389198 250.21086819469929 68.824595652520657 3.657345585525035 579.86920066922903 46.194378800690174 74.799043104052544 6.495594695210456 80.67717133462429 47.967235594987869
leaf_count=2268 1592 6963 2314 1749 181 1379 15338 3323 933 1414 499 1389 8936 1921 78 395 2655 291 281 2439 474 1040 446 30 5854 305 853 38 517 290
internal_value=0 -0.401655 0.679854 -0.0471754 -0.565554 0.424116 -0.678751 -0.241321 0.925271 0.855895 0.262549 0.727712 -0.758394 -0.426466 -0.23398 0.274768 -0.265327 -0.68893 0.177484 0.129082 0.347994 0.658964 0.496235 0.0133681 -0.393489 0.942214 -0.280957 0.248539 0.222827 -0.0920519
internal_weight=0 5038.86 2775.79 1593.17 3445.69 1359.31 2502.24 1068.31 1416.48 1187.57 805.295 839.431 1901.86 600.387 346.368 160.882 943.441 254.019 690.983 646.654 524.86 554.014 127.379 400.805 607.245 58.5543 100.122 428.644 422.149 128.644
internal_count=66185 52905 13280 13384 39521 7230 30831 10316 6050 5117 4811 3703 24274 6557 3492 1224 8690 3065 4312 4031 3068 2419 829 3353 6035 383 1144 2594 2556 807
shrinkage=0.1


Tree=9
num_leaves=31
num_cat=0
split_feature=6 5 0 0 5 7 6 19 0 5 0 3 1 1 0 0 5 7 20 7 0 7 19 0 0 0 5 0 13 0
split_gain=1737.59 287.822 153.441 105.791 70.593 60.0739 46.4546 42.9265 38.4503 37.6577 28.4636 39.5228 27.3643 52.414 56.2247 26.4522 24.9767 24.5307 23.6223 23.334 22.5054 19.7289 19.3941 19.2721 18.8721 16.9942 26.7333 21.8708 21.2704 16.3993
threshold=2.5000000000000004 2.5000000000000004 3.5000000000000004 3.5000000000000004 1.0000000180025095e-35 18.500000000000004 1.0000000180025095e-35 1.0000000180025095e-35 3.5000000000000004 1.0000000180025095e-35 5.5000000000000009 97.500000000000014 37.500000000000007 48.500000000000007 1.5000000000000002 1.5000000000000002 4.5000000000000009 15.500000000000002 1.0000000180025095e-35 11.500000000000002 6.5000000000000009 3.5000000000000004 1.5000000000000002 4.5000000000000009 2.5000000000000004 3.5000000000000004 6.5000000000000009 2.5000000000000004 4.5000000000000009 1.5000000000000002
decision_type=2 2 2 2 2 2 2 2 2 2 2 2 2 2 2 2 2 2 2 2 2 2 2 2 2 2 2 2 2 2
left_child=2 3 4 9 7 8 23 12 16 -2 11 21 -1 14 -14 -9 -3 -11 29 -5 -12 -8 -10 -4 -15 26 27 28 -7 -6
right_child=1 5 6 19 18 25 10 15 22 17 20 -13 13 24 -16 -17 -18 -19 -20 -21 -22 -23 -24 -25 -26 -27 -28 -29 -30 -31
leaf_value=-0.08755795504670244 -0.031475434762951282 0.030306653270798095 -0.0081440080086492405 0.039776232955660074 -0.048198876728350146 0.10167380916891466 -0.0015379122155484235 -0.085650306436074838 0.12039974211617875 0.0022564156187960976 -0.057345246998580082 0.13591971784734033 0.040628250892779549 -0.090330477307479409 -0.05988660689553104 -0.060438785122539064 0.072626191733936071 0.047480665091652913 0.082015137896277915 0.083896877028007161 0.015983252896183433 0.055982021165802712 0.069788448614639106 -0.048103262657951201 -0.0320380574274974 0.12179532315642393 0.11109348776597466 0.030150031720865601 0.048267755911978134 -0.012958450609836537
leaf_weight=114.13327340781689 288.52082993090153 441.46983778476715 169.48684854060411 496.3670297935605 275.39400914311409 222.15136127173901 312.42280664294958 1007.5696709305048 104.9039146900177 636.56835752725601 112.96103487163782 26.395366564393044 139.85919090360403 136.91774713248014 92.426955632865429 709.00952410697937 203.86105790734291 147.78645788133144 19.059337869286537 158.03227739036083 66.490683183073997 73.696036145091057 272.09957428276539 419.27129124104977 93.442152142524719 176.5640382617712 282.3418573141098 98.584815606474876 112.26082788407803 253.70201743394136
leaf_count=1569 3091 2311 1506 2466 2753 915 2235 14598 429 4682 887 163 882 1882 1153 9260 857 827 128 685 488 462 1120 4529 1118 726 1164 420 470 2409
internal_value=0 0.483392 -0.470104 0.187429 -0.596007 0.75045 -0.167108 -0.673066 0.584984 -0.00585302 0.0307076 0.175335 -0.437043 -0.328857 0.0063326 -0.75237 0.436755 0.107775 -0.273611 0.50431 -0.301755 0.0944055 0.838714 -0.366001 -0.66685 0.940112 0.871534 0.71543 0.837456 -0.313011
internal_weight=0 3641.51 4022.24 1727.27 2841.51 1914.24 1180.72 2293.36 1022.33 1072.88 591.966 412.514 576.779 462.646 232.286 1716.58 645.331 784.355 548.155 654.399 179.452 386.119 377.003 588.758 230.36 891.903 715.339 432.997 334.412 529.096
internal_count=66185 20163 46022 11751 35752 8412 10270 30462 4717 8600 4235 2860 6604 5035 2035 23858 3168 5509 5290 3151 1375 2697 1549 6035 3000 3695 2969 1805 1385 5162
shrinkage=0.1


Tree=10
num_leaves=31
num_cat=0
split_feature=5 7 0 7 0 0 19 0 5 5 5 5 0 0 1 1 0 0 13 2 0 0 1 13 1 0 0 1 1 1
split_gain=1421.67 229.343 125.884 124.345 72.4158 48.8358 46.8125 30.7602 28.7746 27.2619 26.4137 24.3596 23.2585 24.9943 20.5026 46.8305 29.4409 22.9417 20.156 18.7901 18.7043 30.5372 25.6174 27.5441 20.2758 18.546 38.472 17.2712 19.2961 16.8977
threshold=1.5000000000000002 3.5000000000000004 3.5000000000000004 16.500000000000004 3.5000000000000004 3.5000000000000004 1.0000000180025095e-35 1.5000000000000002 1.0000000180025095e-35 1.0000000180025095e-35 4.5000000000000009 7.5000000000000009 3.5000000000000004 2.5000000000000004 37.500000000000007 48.500000000000007 1.5000000000000002 1.5000000000000002 7.5000000000000009 7.5000000000000009 5.5000000000000009 6.5000000000000009 41.500000000000007 3.5000000000000004 40.500000000000007 5.5000000000000009 6.5000000000000009 53.500000000000007 36.500000000000007 55.500000000000007
decision_type=2 2 2 2 2 2 2 2 2 2 2 2 2 2 2 2 2 2 2 2 2 2 2 2 2 2 2 2 2 2
left_child=1 2 6 5 8 10 14 -8 -3 -4 -2 12 13 27 -1 16 -16 -17 -11 -9 22 -22 23 -7 -25 -6 -27 28 -5 -19
right_child=3 4 9 11 25 20 7 19 -10 18 -12 -13 -14 -15 15 17 -18 29 -20 -21 21 -23 -24 24 -26 26 -28 -29 -30 -31
leaf_value=-0.07488885146643097 0.015982717616218549 -0.032799307967673191 -0.028842948967056928 0.054702075354935015 0.047791916682949576 0.077987434238901684 -0.080791022500368695 -0.033723666914903985 0.0021087820355671348 0.025010161682269369 0.059826611223772447 0.11116370800956306 0.10103478737375922 0.029945428182080482 0.032644025257115315 -0.089561424341667639 -0.045710514286166126 -0.086005725168996905 -0.04891168238160562 -0.067332415672080356 -0.0083304068189476114 0.078034783857569651 0.10609825832974625 0.031857459431760035 -0.12728828423481034 -0.033496671846958842 0.070772283441930026 0.041510394658136773 0.10033048743432933 -0.0014595758472097577
leaf_weight=113.67709262669086 824.18460263311863 504.91927117109299 779.78711319714785 141.58534097671509 284.68720105290413 216.73471288383007 1071.6137772426009 279.53100156039 443.58022239804268 184.95225909352303 164.89946758747101 209.81841740012169 229.0732110440731 162.35246925055981 142.57599452883005 117.43920850008726 72.256269857287407 33.587938502430916 46.074461936950684 410.85218475759029 94.519266694784164 72.223582580685616 129.39091834425926 155.49821706116199 8.4399918764829618 96.880509547889233 55.749035939574242 120.53632625937462 268.33879341185093 79.81208910048008
leaf_count=1636 4918 5786 7937 594 1550 907 15974 3576 3606 1098 689 895 955 701 900 1691 934 420 278 5655 451 301 535 652 35 604 291 510 1137 969
internal_value=0 -0.351403 -0.493588 0.548322 -0.00952168 0.374556 -0.621847 -0.701858 -0.16474 -0.19904 0.232923 0.804109 0.734116 0.642782 -0.369806 -0.273113 0.0629041 -0.585831 0.102677 -0.537245 0.581536 0.290781 0.676586 0.545929 0.236642 0.327133 0.0458831 0.747861 0.845707 -0.265013
internal_weight=0 4717.98 3332.16 2797.6 1385.82 1665.89 2321.35 1762 948.499 1010.81 989.084 1131.7 921.886 692.813 559.349 445.672 214.832 230.839 231.027 690.383 676.807 166.743 510.064 380.673 163.938 437.317 152.63 530.46 409.924 113.4
internal_count=66185 52905 41068 13280 11837 8488 31755 25205 9392 9313 5607 4792 3897 2942 6550 4914 1834 3080 1376 9231 2881 752 2129 1594 687 2445 895 2241 1731 1389
shrinkage=0.1


Tree=11
num_leaves=31
num_cat=0
split_feature=6 6 0 5 0 6 0 2 19 6 5 0 0 2 4 0 5 10 2 0 0 0 6 2 4 0 0 13 7 5
split_gain=1209.72 199.466 123.511 65.0313 55.2617 46.3907 58.0606 38.5036 37.9728 33.6279 29.2012 25.8073 22.0656 22.6703 19.3064 28.6994 20.1932 19.3026 17.3397 17.2177 15.9458 25.2612 17.1462 14.5956 13.8303 13.5313 26.2548 13.157 13.0068 12.7881
threshold=2.5000000000000004 6.5000000000000009 3.5000000000000004 1.0000000180025095e-35 3.5000000000000004 16.500000000000004 3.5000000000000004 1.5000000000000002 1.0000000180025095e-35 1.0000000180025095e-35 1.5000000000000002 1.5000000000000002 5.5000000000000009 1.5000000000000002 1.0000000180025095e-35 2.5000000000000004 4.5000000000000009 1.5000000000000002 84.500000000000014 4.5000000000000009 5.5000000000000009 6.5000000000000009 9.5000000000000018 23.500000000000004 1.0000000180025095e-35 5.5000000000000009 6.5000000000000009 3.5000000000000004 20.500000000000004 6.5000000000000009
decision_type=2 2 2 2 2 2 2 2 2 2 2 2 2 2 2 2 2 2 2 2 2 2 2 2 2 2 2 2 2 2
left_child=2 4 3 8 10 6 14 -5 -1 19 -2 -10 17 -14 15 -3 -16 24 -19 -4 22 28 -8 25 -11 27 -27 -6 -22 -7
right_child=1 5 9 7 23 29 20 -9 11 12 -12 -13 13 -15 16 -17 -18 18 -20 -21 21 -23 -24 -25 -26 26 -28 -29 -30 -31
leaf_value=-0.038929164811321276 -0.017196847510536871 0.087288578760014834 -0.0048553047831049502 0.03854529258110722 0.059637481090340262 0.067197897891390482 0.073172903143718729 -0.034376226627055077 -0.081033527024909902 0.13472290841598067 0.016778184811643327 -0.054673771633891234 0.092806571186853579 -0.038365272936283813 0.020768199462401396 0.0098677309296061142 0.054304752967256648 0.0054394243242074534 0.29367296409164811 -0.043307033863684258 -0.00051751389558097097 0.11099140290617684 0.11732510476343501 0.13285321150892487 0.025623753523121035 -0.020596125910965744 0.058250749826039151 0.025764601505082703 0.069615785461907317 0.10361662829600338
leaf_weight=537.97892062366009 522.75102468580008 163.98781531304121 165.20451033860445 86.912815764546394 237.74468079209328 151.13440805673599 208.62146297097206 433.89020808041096 874.82669868320227 21.293245583772659 490.20112152397633 645.44605799019337 14.354344144463537 160.46906841546297 539.15892907977104 67.625255204737186 269.18208687007427 368.16971220821142 2.0990470945835105 394.6010222658515 67.325347229838371 52.944234162569046 152.06740547716618 15.377467960119246 25.576112754642963 106.34580478072166 70.049678921699524 221.51310017704964 43.548596367239952 266.3162152916193
leaf_count=6604 5088 762 1506 764 1073 629 855 4526 14598 126 2964 9260 84 1291 2861 348 1098 2563 12 4529 288 221 652 71 159 575 320 1021 184 1153
internal_value=0 0.393816 -0.416155 -0.537746 0.138546 0.608137 0.529107 -0.222069 -0.617623 -0.143886 -0.00755203 -0.698422 0.0222793 -0.275951 0.392294 0.646836 0.319361 0.147268 0.0707342 -0.319595 0.80037 0.541648 0.917876 0.365862 0.751887 0.342574 0.107153 0.432996 0.270291 0.904315
internal_weight=0 3645.89 3730.82 2579.05 1663.98 1981.91 1564.46 520.803 2058.25 1151.77 1012.95 1520.27 591.962 174.823 1039.95 231.613 808.341 417.138 370.269 559.806 524.507 163.818 360.689 651.031 46.8694 635.653 176.395 459.258 110.874 417.451
internal_count=66185 20163 46022 35752 11112 9051 7269 5290 30462 10270 8052 23858 4235 1375 5069 1110 3959 2860 2575 6035 2200 693 1507 3060 285 2989 895 2094 472 1782
shrinkage=0.1


Tree=12
num_leaves=31
num_cat=0
split_feature=6 5 0 5 0 7 0 19 2 6 0 1 1 0 5 6 0 0 0 3 2 7 3 2 1 1 0 2 0 4
split_gain=1002.6 170.509 110.247 59.731 53.1887 42.4989 36.3867 36.3684 31.6592 28.2194 25.4189 24.922 42.6304 41.558 24.5502 22.61 18.349 18.2159 18.0576 23.2241 18.1214 16.9127 15.9226 15.7229 15.3911 23.4021 23.8721 17.393 14.9581 14.6203
threshold=2.5000000000000004 2.5000000000000004 3.5000000000000004 1.0000000180025095e-35 3.5000000000000004 28.500000000000004 3.5000000000000004 1.0000000180025095e-35 1.5000000000000002 1.0000000180025095e-35 1.5000000000000002 37.500000000000007 48.500000000000007 1.5000000000000002 5.5000000000000009 5.5000000000000009 5.5000000000000009 2.5000000000000004 5.5000000000000009 97.500000000000014 1.5000000000000002 11.500000000000002 -1.0000000180025095e-35 11.500000000000002 36.500000000000007 52.500000000000007 2.5000000000000004 2.5000000000000004 6.5000000000000009 495.50000000000006
decision_type=2 2 2 2 2 2 2 2 2 2 2 2 2 2 2 2 2 2 2 2 2 2 2 2 2 2 2 2 2 2
left_child=2 4 3 7 15 6 14 11 -5 22 -9 -1 13 -13 23 -2 -8 -14 19 -11 -20 29 -4 24 27 26 -26 -3 -18 -6
right_child=1 5 9 8 21 -7 16 10 -10 18 -12 12 17 -15 -16 -17 28 -19 20 -21 -22 -23 -24 -25 25 -27 -28 -29 -30 -31
leaf_value=-0.082117395493731246 -0.012524423121332243 0.034042698117097009 0.04465625937322272 0.03369965214296522 0.023644398560828627 0.086103042899548315 0.083698554890555499 -0.078598211765159798 -0.031825085222183996 0.0066388042452164052 -0.051681301128027393 0.036847813460796623 -0.085273923613223682 -0.052446221159954579 0.065551024994213405 0.017369742409989935 0.017982701261961758 -0.024445004339173335 0.079313791712840309 0.098425245865962172 -0.035491968312432225 0.06334979945793745 -0.0334985132615577 0.09234135062195141 0.065582861454912433 0.0052089125747431519 0.0077242494156746127 -0.023953996699843074 0.084866673970068279 0.14245281403297225
leaf_weight=96.281437203288078 655.44012200087309 96.725910216569901 27.448672205209732 89.330976046621799 505.43345052748919 380.68042014539242 345.00936643779278 814.86163502931595 422.42536561191082 390.81611643731594 616.09913137555122 142.38974010199308 114.97026915848255 82.214707493782043 246.15552134811878 412.0639261007309 95.17848539352417 86.096201553940773 15.074446290731428 29.658566012978554 156.33780054748058 159.35201343894005 518.1572352424264 37.684886887669563 260.61753308773041 175.71883082389832 98.173111125826836 111.1061370074749 51.546382054686546 10.574355535209177
leaf_count=1569 5906 449 181 764 2417 1658 1454 14598 4526 2697 9260 882 1882 1153 1009 2694 408 1118 84 163 1291 685 5854 177 1205 825 477 532 218 49
internal_value=0 0.35495 -0.389133 -0.507982 0.1291 0.562275 0.48735 -0.587674 -0.203872 -0.131615 -0.670092 -0.36172 -0.257797 0.0416243 0.380173 -0.00985069 0.711013 -0.592271 0.0196081 0.13113 -0.253956 0.348732 -0.295667 0.293284 0.261295 0.351082 0.497515 0.0303791 0.414799 0.260791
internal_weight=0 3641.46 3602.16 2464.67 1742.86 1898.6 1517.92 1952.91 511.756 1137.49 1430.96 521.952 425.671 224.604 1026.18 1067.5 491.734 201.066 591.887 420.475 171.412 675.36 545.606 780.026 742.342 534.509 358.791 207.832 146.725 516.008
internal_count=66185 20163 46022 35752 11751 8412 6754 30462 5290 10270 23858 6604 5035 2035 4674 8600 2080 3000 4235 2860 1375 3151 6035 3665 3488 2507 1682 981 626 2466
shrinkage=0.1


Tree=13
num_leaves=31
num_cat=0
split_feature=5 6 7 7 2 2 2 6 19 2 3 10 2 2 6 9 19 4 7 3 7 7 4 4 5 10 16 4 4 10
split_gain=832.509 197.552 64.1668 43.1664 32.2885 33.1659 31.2295 28.5089 24.6174 21.9752 18.7316 14.5559 13.7718 14.2466 13.4223 13.0947 11.9826 11.6217 11.6105 11.3272 10.6262 10.4886 15.6703 10.3535 10.2285 13.6885 10.1034 9.82997 8.98227 8.76034
threshold=1.0000000180025095e-35 5.5000000000000009 1.5000000000000002 26.500000000000004 10.500000000000002 2.5000000000000004 10.500000000000002 2.5000000000000004 2.5000000000000004 13.500000000000002 -1.0000000180025095e-35 108.50000000000001 3.5000000000000004 9.5000000000000018 1.5000000000000002 58.500000000000007 1.5000000000000002 388.50000000000006 4.5000000000000009 51.500000000000007 12.500000000000002 16.500000000000004 1.5000000000000002 105.50000000000001 4.5000000000000009 243.50000000000003 1.5000000000000002 1.0000000180025095e-35 736.50000000000011 137.50000000000003
decision_type=2 2 2 2 2 2 2 2 2 2 2 2 2 2 2 2 2 2 2 2 2 2 2 2 2 2 2 2 2 2
left_child=2 4 6 12 5 29 10 16 19 18 -1 15 17 -14 -6 28 -7 21 -4 -8 -16 22 -3 -24 25 26 -5 -18 -9 -2
right_child=1 3 9 24 14 7 8 11 -10 -11 -12 -13 13 -15 20 -17 27 -19 -20 -21 -22 -23 23 -25 -26 -27 -28 -29 -30 -31
leaf_value=0.046725758330369446 0.02382073877100405 0.066570812798491127 -0.021853594181636585 0.028532102061502682 -0.00030823065099604076 -0.0076091399249059366 -0.054183297113242782 0.0067832215439636717 -0.075698361326889271 -0.032358058469789758 -0.036916970967532124 -0.033936845584151221 0.024076933094741963 0.061382004286489045 0.051281302957873455 0.12374458642011216 -0.0030718789981351606 0.1133635180798563 0.012580362099061297 -0.021292248515530479 0.18344142047874068 0.058540431011471619 0.021691467694856876 0.063962956351959088 0.083403685805835945 -0.14466552936290022 0.096874973770782344 -0.048659334822899108 0.17734049720489106 -0.022322561677934935
leaf_weight=28.194607239216566 489.50612671673298 143.76490249484777 182.7240098528564 57.745356664061546 56.460814647376537 176.52568494528532 576.22958775237203 526.27071012556553 606.04035480320454 783.73609179630876 531.48072374612093 88.043422423303127 591.03325152397156 123.81642693281174 144.82732420414686 9.9205955043435079 58.084867566823959 26.967104122042656 210.99141503870487 127.95469413325191 6.3506210446357718 436.19862474501133 362.43168374896049 68.967950150370598 361.79317258298397 3.598610430955886 34.58743342757225 254.74783244729042 3.1059993132948867 44.919250875711441
leaf_count=188 3155 657 2306 251 584 1542 8269 3273 10177 9925 8006 545 2861 608 1033 60 522 121 2030 1764 38 1887 1660 322 1620 15 150 2300 17 299
internal_value=0 0.28158 -0.409618 0.483598 0.041291 -0.00544768 -0.524766 -0.103494 -0.609229 -0.226752 -0.327033 0.0376244 0.412201 0.305384 0.412953 0.0991707 -0.284403 0.485741 -0.034005 -0.482068 0.56833 0.468465 0.37978 0.284494 0.757061 0.466756 0.54133 -0.401949 0.0778393 0.199423
internal_weight=0 4069.67 3047.35 2210.9 1858.76 1651.12 1869.9 1116.7 1310.22 1177.45 559.675 627.341 1753.18 714.85 207.639 539.297 489.358 1038.33 393.715 704.184 151.178 1011.36 575.165 431.4 457.725 95.9314 92.3328 312.833 529.377 534.425
internal_count=66185 23520 42665 10152 13368 11713 28404 8259 20210 14261 8194 3895 8116 3469 1655 3350 4364 4647 4336 10033 1071 4526 2639 1982 2036 416 401 2822 3290 3454
shrinkage=0.1


Tree=14
num_leaves=31
num_cat=0
split_feature=5 6 0 5 0 0 19 2 10 0 6 1 1 1 1 0 1 0 2 2 2 6 2 4 2 2 6 0 9 1
split_gain=690.688 160.741 87.1813 39.2507 36.7355 35.598 31.5043 33.3842 30.2363 26.256 33.1745 29.8998 40.076 23.4446 50.5599 27.7686 21.9931 50.4375 21.6659 25.0037 20.8757 19.0498 18.3388 16.1344 15.1499 16.3031 14.5117 14.379 15.2465 14.0437
threshold=1.0000000180025095e-35 5.5000000000000009 3.5000000000000004 7.5000000000000009 3.5000000000000004 1.5000000000000002 1.0000000180025095e-35 33.500000000000007 23.500000000000004 2.5000000000000004 13.500000000000002 53.500000000000007 36.500000000000007 37.500000000000007 48.500000000000007 1.5000000000000002 23.500000000000004 2.5000000000000004 10.500000000000002 3.5000000000000004 16.500000000000004 8.5000000000000018 13.500000000000002 1.0000000180025095e-35 2.5000000000000004 10.500000000000002 3.5000000000000004 1.5000000000000002 1.0000000180025095e-35 32.500000000000007
decision_type=2 2 2 2 2 2 2 2 2 2 2 2 2 2 2 2 2 2 2 2 2 2 2 2 2 2 2 2 2 2
left_child=2 5 6 4 9 8 13 16 -2 10 11 12 -3 -1 15 -15 17 -8 19 -7 29 -6 -16 -14 -11 -26 -17 28 -13 -4
right_child=1 3 20 -5 21 18 7 -9 -10 24 -12 27 23 14 22 26 -18 -19 -20 -21 -22 -23 -24 -25 25 -27 -28 -29 -30 -31
leaf_value=-0.073523588561193218 0.011431244224556339 0.0020054778883673604 -0.021189626254708934 0.084775849515386748 0.042088273411743135 0.022965084996019774 0.31326334008034223 -0.078094212908274063 -0.041278493547903132 0.030599728654512132 0.067175900399723418 0.13758933442701332 0.10116181212512398 0.039310844764334704 -0.017198325096613048 -0.043205761625437586 -0.048457974055514323 -0.054883222871710914 0.048721553388866953 -0.0053148016050690427 -0.026652853932807943 0.0767414729048779 -0.078418813768951656 0.047585627861258029 -0.023622367623686431 0.054657824571546859 0.10835672740871188 -0.035991334286278077 0.0050851691224097452 0.01715372937576078
leaf_weight=96.585938103497028 179.19430673122406 198.66153647005558 145.82238793373108 209.3516478985548 322.36877632141113 568.60671188682318 5.5606928169727334 502.24446233361959 277.15015681833029 149.47024811059237 284.11654801666737 9.9958006963133794 69.688904851675034 146.57922193408012 78.977109383791685 82.029950879514217 990.52469385042787 11.251256927847862 141.17806476354599 694.51661371439695 473.01631508022547 312.33523689210415 128.61096388474107 290.60578874498606 170.38380587846041 31.528369754552841 6.8444517627358428 93.952885702252388 66.159988544881344 276.91767111420631
leaf_count=1693 1644 978 1506 991 1337 3423 46 9869 2605 670 1214 47 321 916 1145 1226 16284 168 942 4754 5226 1396 2128 1398 850 154 78 463 333 2380
internal_value=0 0.253371 -0.382447 0.435793 0.392654 0.0368333 -0.496203 -0.570335 -0.205808 0.300207 0.381896 0.268936 0.380655 -0.28882 -0.191498 0.125699 -0.46533 0.668843 0.115682 0.0741565 -0.122209 0.59141 -0.551274 0.579484 0.0646632 -0.11399 -0.315335 -0.0981572 0.22477 0.0392735
internal_weight=0 4069.27 2944.97 2208.62 1999.27 1860.65 2049.21 1509.58 456.344 1364.56 1013.18 729.065 558.956 539.628 443.042 235.454 1007.34 16.8119 1404.3 1263.12 895.756 634.704 207.588 360.295 351.382 201.912 88.8744 170.109 76.1558 422.74
internal_count=66185 23520 42665 10152 9161 13368 33553 26367 4249 6428 4754 3540 2697 7186 5493 2220 16498 214 9119 8177 9112 2733 3273 1719 1674 1004 1304 843 380 3886
shrinkage=0.1


Tree=15
num_leaves=31
num_cat=0
split_feature=6 5 0 0 19 1 1 5 7 0 6 7 0 0 0 1 1 1 19 1 10 2 3 2 2 7 13 3 19 10
split_gain=584.54 107.233 92.1017 54.7054 43.9413 45.094 56.0671 42.4671 26.7363 23.2522 21.979 21.3306 19.1443 18.1367 17.6627 21.8756 31.4885 27.8948 18.1853 25.4691 25.4236 17.5533 17.5495 17.4165 18.9688 16.591 16.6232 16.0571 16.773 15.1979
threshold=2.5000000000000004 3.5000000000000004 1.5000000000000002 3.5000000000000004 1.0000000180025095e-35 49.500000000000007 37.500000000000007 1.0000000180025095e-35 13.500000000000002 3.5000000000000004 19.500000000000004 1.5000000000000002 3.5000000000000004 4.5000000000000009 2.5000000000000004 53.500000000000007 36.500000000000007 38.500000000000007 2.5000000000000004 29.500000000000004 5.5000000000000009 1.5000000000000002 2.5000000000000004 1.5000000000000002 15.500000000000002 1.0000000180025095e-35 6.5000000000000009 198.50000000000003 4.5000000000000009 19.500000000000004
decision_type=2 2 2 2 2 2 2 2 2 2 2 2 2 2 2 2 2 2 2 2 2 2 2 2 2 2 2 2 2 2
left_child=2 3 4 14 5 6 -1 9 -5 -4 12 -6 -3 -11 15 16 18 21 -2 -20 22 -18 -21 -9 -25 29 -27 -19 -29 -8
right_child=1 10 7 8 11 -7 25 23 -10 13 -12 -13 -14 -15 -16 -17 17 27 19 20 -22 -23 -24 24 -26 26 -28 28 -30 -31
leaf_value=-0.063409781207657764 -0.033880830573711523 0.036344083891771559 -0.040716013846549957 0.024331842266162338 -0.075855716528758763 -0.079626285072093184 0.051778642299520554 0.042625728392926408 0.066310294252441226 0.0046358381066144714 0.079197416426769349 -0.042586353553124859 0.068079019112014472 -0.0273018911282806 -0.016534979093823957 -0.018003552428372132 -0.050724293263749755 0.017650530406402323 0.12865618351632818 0.38570302466365319 -0.025687410319885896 0.11411363230464576 0.060429982084080264 -0.010794426057384938 0.052295723660562815 0.091793057043995971 -0.003667220944465813 0.056441432526722027 0.2442943778264075 -0.046591334248441252
leaf_weight=87.421385642141104 152.72582391276956 771.48444300889969 720.25556418299675 734.52939067780972 602.92365095019341 99.275140609592199 28.635425686836243 97.853679619729519 191.22006650269032 279.07666941732168 217.03769156336784 283.25096439570189 252.24432671070099 489.9983331784606 383.09482185915112 240.94165786728263 7.3405370414257041 437.00392777100205 17.529862403869629 1.7597117200493837 94.59399576485157 53.864565126597881 28.897561445832253 423.15936502069235 53.704153150320053 64.173235788941383 25.48666612803936 24.677067391574386 5.8869783729314795 34.783469915390015
leaf_count=1587 1101 3291 11951 3353 12631 1803 191 635 847 2512 1044 4316 1131 5934 2939 1776 40 3043 119 13 679 370 211 3307 386 375 153 165 41 241
internal_value=0 0.264673 -0.317888 0.140159 -0.534988 -0.22924 0.00481981 -0.188941 0.330028 -0.278045 0.502917 -0.652217 0.441635 -0.157125 0.0187967 0.0850229 0.162501 0.308614 -0.0989493 0.157616 -0.000388781 0.943441 0.791005 0.0419653 -0.0368924 0.369698 0.646576 0.225514 0.92624 -0.0217451
internal_weight=0 3614.83 3290 2374.07 1225.95 339.775 240.5 2064.05 925.749 1489.33 1240.77 886.175 1023.73 769.075 1448.32 1065.22 824.28 528.773 295.507 142.781 125.251 61.2051 30.6573 574.717 476.864 153.079 89.6599 467.568 30.564 63.4189
internal_count=66185 20163 46022 14697 21297 4350 2547 24725 4200 20397 5466 16947 4422 8446 10497 7558 5782 3659 2123 1022 903 410 224 4328 3693 960 528 3249 206 432
shrinkage=0.1


Tree=16
num_leaves=31
num_cat=0
split_feature=5 5 0 7 0 5 0 7 1 1 2 13 0 0 13 1 7 0 0 1 1 4 2 6 7 1 18 2 2 13
split_gain=487.901 111.408 70.0382 35.8362 29.719 28.017 25.0424 22.7698 19.135 20.8294 23.7834 18.8114 17.9679 31.992 24.6298 17.5716 17.4194 15.3074 15.154 35.1112 19.2585 14.7852 13.5762 13.4323 13.1858 15.024 12.7482 12.6199 12.2733 12.0463
threshold=1.0000000180025095e-35 2.5000000000000004 3.5000000000000004 3.5000000000000004 3.5000000000000004 7.5000000000000009 3.5000000000000004 1.5000000000000002 48.500000000000007 47.500000000000007 9.5000000000000018 3.5000000000000004 5.5000000000000009 6.5000000000000009 2.5000000000000004 31.500000000000004 24.500000000000004 2.5000000000000004 2.5000000000000004 46.500000000000007 32.500000000000007 3.5000000000000004 23.500000000000004 8.5000000000000018 10.500000000000002 41.500000000000007 1.5000000000000002 43.500000000000007 37.500000000000007 5.5000000000000009
decision_type=2 2 2 2 2 2 2 2 2 2 2 2 2 2 2 2 2 2 2 2 2 2 2 2 2 2 2 2 2 2
left_child=2 4 3 27 8 6 16 -4 9 11 17 15 14 26 -6 28 22 -11 21 20 -20 -17 -3 -8 25 -16 -14 -1 -2 -12
right_child=1 5 7 -5 12 -7 23 -9 -10 10 29 -13 13 -15 24 18 -18 -19 19 -21 -22 -23 -24 -25 -26 -27 -28 -29 -30 -31
leaf_value=-0.045372657191343556 -0.034932058379837719 0.017789454249303487 -0.023135988048151892 -0.019342615580242528 0.048492684246141844 0.074667196699339813 0.037174283181859911 0.0098672652871942823 -0.019503012442047645 0.068495446416604031 0.12457088762010458 -0.021125194526935832 -0.043594628439099475 0.046630982582509486 -0.012623620310855718 0.061952781902558721 0.047702859784312879 -0.072851213094152531 0.10502198656768683 0.21972816282513194 -0.030586559908253139 0.015611135570149717 0.10225007875190358 0.070441787504737147 0.050070197079973046 0.042543844779979773 0.039471294693773827 -0.065125032932949731 0.27912921111498767 0.34881128475439421
leaf_weight=963.0649159103632 80.512438736855984 851.06175942718983 535.88486252725124 437.12545700371265 313.15712980926037 196.77286659181118 242.26372526586056 342.75707626342773 492.32817152142525 29.656179174780846 7.1835883855819684 249.77405401319265 127.99130049347878 80.342380672693253 212.9635872989893 111.66115359961987 297.62314359843731 10.330774821341036 11.496249608695505 6.4975822642445555 117.59195984899998 179.55449175089598 19.466595649719238 243.21520812809467 65.43910177052021 64.260444983839989 21.592837542295456 487.03198556229472 1.263850726187228 3.5943613722920418
leaf_count=17914 607 3873 6437 5786 1452 991 1007 2675 4370 212 51 2066 714 382 1064 835 1299 80 89 53 975 1423 86 1156 275 302 120 9853 12 26
internal_value=0 0.209367 -0.33583 -0.444409 0.0565804 0.389963 0.347516 -0.102615 -0.0395843 0.0550008 0.675136 0.0134882 0.197877 -0.0426654 0.28221 0.123863 0.268183 0.31978 0.205226 -0.0709273 -0.185096 0.3338 0.196781 0.538406 0.0969484 0.00164181 -0.316039 -0.520067 -0.300782 1.99353
internal_weight=0 4037.59 2765.86 1887.22 2187.19 1850.4 1653.63 878.642 1301.44 809.117 50.7649 758.352 885.747 229.927 655.82 508.578 1168.15 39.987 426.801 135.586 129.088 291.216 870.528 485.479 342.663 277.224 149.584 1450.1 81.7763 10.7779
internal_count=66185 23520 42665 33553 15108 8412 7421 9112 10799 6429 369 6060 4309 1216 3093 3994 5258 292 3375 1117 1064 2258 3959 2163 1641 1366 834 27767 619 77
shrinkage=0.1


Tree=17
num_leaves=31
num_cat=0
split_feature=6 0 5 19 1 1 0 2 0 7 7 6 1 7 7 1 1 3 10 17 4 3 20 13 1 0 1 1 19 19
split_gain=407.395 75.6019 74.6456 42.4912 41.7085 49.0531 36.4743 29.5827 24.0591 21.4816 19.9136 18.4127 18.3027 18.9412 18.0264 17.9613 25.3541 22.0009 25.3436 15.7335 29.8912 15.2716 15.0314 14.9247 14.4699 14.4032 14.6921 27.1346 17.8281 14.5562
threshold=2.5000000000000004 1.5000000000000002 3.5000000000000004 1.0000000180025095e-35 49.500000000000007 37.500000000000007 3.5000000000000004 7.5000000000000009 3.5000000000000004 15.500000000000002 1.5000000000000002 19.500000000000004 23.500000000000004 7.5000000000000009 1.5000000000000002 55.500000000000007 57.500000000000007 10.500000000000002 61.500000000000007 21.500000000000004 95.500000000000014 210.50000000000003 1.0000000180025095e-35 11.500000000000002 61.500000000000007 2.5000000000000004 36.500000000000007 38.500000000000007 5.5000000000000009 2.5000000000000004
decision_type=2 2 2 2 2 2 2 2 2 2 2 2 2 2 2 2 2 2 2 2 2 2 2 2 2 2 2 2 2 2
left_child=1 3 6 4 5 -1 24 15 12 21 -5 23 13 -9 -10 -3 17 18 19 20 -17 -8 -21 -4 25 26 29 -28 -29 -2
right_child=2 7 11 10 -6 -7 9 8 14 -11 -12 -13 -14 -15 -16 16 -18 -19 -20 22 -22 -23 -24 -25 -26 -27 27 28 -30 -31
leaf_value=-0.058670515101239475 -0.031017439012078936 -0.0066640666366246997 0.041398692509433538 -0.071635389291157356 -0.075718577422256073 0.038195391333929622 0.017413094321165997 0.017294994392334655 -0.026849254119647045 0.065834825166654176 -0.038250302203066244 0.069374939112365627 -0.04449102710087191 0.32099417602057423 0.0068572143798933047 0.54514181642426152 0.010073548571085694 0.034312440037361724 -0.039776440088081587 0.517429181156419 -0.11170618894256573 0.073605741994878099 0.067834908795509102 0.0065517345964765331 -0.047495653764728751 -0.013298507652280748 0.079392952967894351 0.0055598687430809951 0.057839221623689298 0.013546995023595056
leaf_weight=79.711174994707108 149.21538016572595 702.73406171426177 867.53095553815365 537.60677843540907 88.892073672264814 151.90755026787519 750.28113044053316 11.70446716994047 385.1264600455761 123.51868276298046 267.60115582123399 204.3345133960247 526.18628714233637 2.4906129054725161 269.83136516809464 3.9529415816068667 75.45541425049305 12.39846285432577 2.7777952328324309 0.95399525016546238 0.8400391489267347 51.69691090285778 3.3723384290933609 143.1941629499197 57.663052171468735 369.01600464433432 64.336273021996021 587.66526056453586 73.373758144676685 144.05352241545916
leaf_count=1587 1101 7533 3794 12631 1803 960 3396 171 4682 572 4316 1044 8991 21 2226 48 789 160 37 11 10 232 46 628 436 2885 410 4131 512 1022
internal_value=0 -0.275572 0.21843 -0.482828 -0.174887 0.0485916 0.115141 -0.158789 -0.258493 0.270144 -0.605403 0.419967 -0.414682 0.705809 -0.129628 -0.0102752 0.386813 1.27529 2.24674 3.05227 4.3002 0.210354 1.66974 0.364618 0.0158869 0.0362835 0.0976031 0.173966 0.113628 -0.0912741
internal_weight=0 3123.54 3585.88 1125.72 320.511 231.619 2370.82 1997.82 1195.34 925.497 805.208 1215.06 540.381 14.1951 654.958 802.485 99.751 24.2956 11.8971 9.11931 4.79298 801.978 4.32633 1010.73 1445.32 1387.66 1018.64 725.375 661.039 293.269
internal_count=66185 46022 20163 21297 4350 2547 14697 24725 16091 4200 16947 5466 9183 192 6908 8634 1101 312 152 115 58 3628 57 4422 10497 10061 7176 5053 4643 2123
shrinkage=0.1


Tree=18
num_leaves=31
num_cat=0
split_feature=5 7 2 1 1 5 7 2 2 7 5 7 1 3 1 3 10 1 6 2 2 17 4 7 17 9 2 2 19 4
split_gain=348.851 82.2323 43.7131 27.9906 29.7385 19.9315 18.8469 17.5633 24.4215 17.4637 16.8955 14.6202 14.0922 12.8273 12.7327 12.4366 12.4219 12.3517 11.9362 11.84 10.9171 14.1789 10.1425 9.42827 9.15817 9.97986 9.75673 8.95322 8.89533 10.2066
threshold=1.0000000180025095e-35 13.500000000000002 18.500000000000004 40.500000000000007 39.500000000000007 2.5000000000000004 1.5000000000000002 10.500000000000002 3.5000000000000004 3.5000000000000004 7.5000000000000009 3.5000000000000004 30.500000000000004 51.500000000000007 57.500000000000007 -1.0000000180025095e-35 148.50000000000003 52.500000000000007 15.500000000000002 132.50000000000003 153.50000000000003 45.500000000000007 461.50000000000006 33.500000000000007 29.500000000000004 102.50000000000001 53.500000000000007 3.5000000000000004 5.5000000000000009 95.500000000000014
decision_type=2 2 2 2 2 2 2 2 2 2 2 2 2 2 2 2 2 2 2 2 2 2 2 2 2 2 2 2 2 2
left_child=2 5 9 4 12 7 -5 8 16 15 17 -10 19 -6 -8 -1 -2 -3 -12 -4 21 -21 27 -19 25 26 -16 -11 -9 -30
right_child=1 10 3 6 13 -7 14 28 11 22 18 -13 -14 -15 24 -17 -18 23 -20 20 -22 -23 -24 -25 -26 -27 -28 -29 29 -31
leaf_value=0.037024324768918787 0.016193336737277554 0.037534090784446895 -0.021479491090950154 -0.065341953349118007 0.0020794730090198479 0.021067463352799878 -0.04339157878146363 0.020892984930981722 -0.028745568253025596 0.070389594654174589 -0.012405442869567017 -0.0031081769984813833 -0.0461855583395262 0.082369534977464451 0.019628382937438904 -0.02632097639979894 -0.03423931100725186 0.0061353819581611352 0.075087470532139197 0.11623685578288334 0.013823983230123469 0.59038082117189106 0.1125340073435379 0.076634701864395652 -0.054515085749733377 0.38604964178284662 0.25606962028265784 -0.0039465474885648742 0.11507182124694848 -0.050741641657970959
leaf_weight=32.23400666192174 631.98691499978304 1016.8419904634356 134.67641487345099 516.34246339648962 78.456583090126514 710.19732205569744 185.96637290716171 191.15297144651413 349.09138160943985 16.944506019353867 17.351643279194832 613.08212745189667 378.00049910321832 26.65937938913703 33.795530129224062 805.39309619367123 52.929064676165581 218.13713721930981 153.81006561219692 5.3394294939935234 15.450888775289057 0.71517606079578389 8.0766667164862138 20.776555195450783 14.371673133224247 0.81358648836612613 1.8402852937579144 369.9482315517962 20.203705653548244 4.5479487404227248
leaf_count=212 4250 4683 1926 11186 789 3267 3000 1506 3250 178 80 3975 6631 183 528 13540 378 1008 853 75 206 10 82 97 240 17 25 3837 144 29
internal_value=0 0.1749 -0.294253 -0.415665 -0.261778 0.0681304 -0.546293 0.0137906 -0.021363 -0.157097 0.367441 -0.124098 -0.357453 0.224425 -0.312693 -0.238833 0.12296 0.327267 0.662178 -0.10477 0.58425 1.72243 0.0162443 0.122662 0.130891 0.397449 0.318386 -0.00690893 0.28197 0.846047
internal_weight=0 4000.11 2625.02 1392.43 639.298 2573.19 753.13 1862.99 1647.09 1232.6 1426.92 962.174 534.182 105.116 236.787 837.627 684.916 1255.76 171.162 156.182 21.5055 6.05461 394.969 238.914 50.8211 36.4494 35.6358 386.893 215.905 24.7517
internal_count=66185 23520 42665 24816 9820 16799 14996 13532 11853 17849 6721 7225 8848 972 3810 13752 4628 5788 933 2217 291 85 4097 1105 810 570 553 4015 1679 173
shrinkage=0.1


Tree=19
num_leaves=31
num_cat=0
split_feature=5 7 7 2 1 1 5 2 5 19 2 4 2 2 9 3 4 19 19 9 2 10 1 1 2 17 6 1 8 10
split_gain=288.575 67.5472 38.7193 23.3472 26.0957 19.354 16.1653 17.732 15.2941 14.1139 12.9094 12.8656 11.0758 14.7772 13.1717 10.9099 10.7967 23.119 16.3661 12.6858 11.4711 10.7048 10.6128 11.0226 11.8748 10.641 10.3832 10.0251 9.81561 19.2161
threshold=1.0000000180025095e-35 13.500000000000002 1.5000000000000002 10.500000000000002 40.500000000000007 39.500000000000007 1.5000000000000002 9.5000000000000018 7.5000000000000009 1.5000000000000002 13.500000000000002 1.0000000180025095e-35 119.50000000000001 151.50000000000003 23.500000000000004 2.5000000000000004 26.500000000000004 2.5000000000000004 1.0000000180025095e-35 4.5000000000000009 133.50000000000003 8.5000000000000018 48.500000000000007 36.500000000000007 85.500000000000014 60.500000000000007 15.500000000000002 52.500000000000007 42.500000000000007 168.50000000000003
decision_type=2 2 2 2 2 2 2 2 2 2 2 2 2 2 2 2 2 2 2 2 2 2 2 2 2 2 2 2 2 2
left_child=2 6 3 15 5 12 22 9 27 -8 -4 -11 -5 14 16 -1 17 18 -14 20 -20 -7 23 24 -2 -25 -10 -3 -17 -30
right_child=1 8 10 4 -6 21 7 -9 26 11 -12 -13 13 -15 -16 28 -18 -19 19 -21 -22 -23 -24 25 -26 -27 -28 -29 29 -31
leaf_value=0.0065147491787672668 -0.010103299936747308 0.033855165023103005 0.0024032469780107977 -0.045823545957966935 -0.060809727351245207 0.058314678532519086 0.024428172953991821 0.052434456932076115 -0.011114553534147817 0.026395230721542852 -0.020730180574333706 -0.0036902563614700894 0.058186192715486751 -0.034427701186561403 -0.047582360357807954 -0.029057775710175943 0.044334011924500677 -0.025178175177701146 0.68345554773146189 0.85978502375357224 0.19525458803850892 -0.014399698886138613 -0.01727290667624299 0.013611729903462627 0.22021167663227081 0.25820591737491955 0.070501408402078053 0.011068903235813691 0.75810555929542445 -0.10914421309934136
leaf_weight=121.32260577753186 379.20347194373608 1014.7183473259211 371.71597958356142 318.70491283759475 554.19590535014868 33.703197315335274 450.16112889349461 106.88965575397015 17.426078990101814 179.56287224590778 687.16909899190068 682.00761327892542 1.2042195908725277 41.251219790428877 6.6494575664401046 358.11216488853097 7.8802370615303516 2.4173874408006668 0.75792597979307252 0.72308769449591614 1.3186497427523134 50.704995937645435 347.57642181590199 426.33415667340159 2.2519189044833174 1.7861036509275425 147.75567696988583 238.45515259355307 0.46309330686926731 0.56992020085453987
leaf_count=1739 2781 4683 4336 5855 12496 230 2345 533 80 912 9925 3440 20 741 119 6434 132 42 11 11 20 533 3407 3355 14 12 853 1105 10 11
internal_value=0 0.157646 -0.272499 -0.375852 -0.461498 -0.286897 0.0611447 0.132693 0.332894 0.100778 -0.126093 0.0257996 -0.382902 0.00308118 0.687009 -0.194117 1.22767 2.1902 3.66457 4.99053 3.73442 0.146343 -0.0265707 0.0361797 -0.0874364 0.146322 0.618912 0.295194 -0.281699 2.79638
internal_weight=0 3994.13 2558.86 1499.98 1019.51 465.315 2575.77 1418.62 1418.36 1311.73 1058.89 861.57 380.907 62.2022 20.951 480.468 14.3015 6.42127 4.00388 2.79966 2.07658 84.4082 1157.15 809.576 381.455 428.12 165.182 1253.17 359.145 1.03301
internal_count=66185 23520 42665 28404 20210 7714 16799 7230 6721 6697 14261 4352 6951 1096 355 8194 236 104 62 42 31 763 9569 6162 2795 3367 933 5788 6455 21
shrinkage=0.1


Tree=20
num_leaves=31
num_cat=0
split_feature=5 7 0 0 7 19 0 0 1 1 10 1 1 0 0 5 19 0 0 8 5 1 4 1 18 12 10 0 7 8
split_gain=238.509 55.9864 55.2611 25.3425 25.0781 29.8675 20.6597 40.8027 29.3219 29.8697 20.3248 19.7337 19.3297 20.4318 18.5965 18.344 16.9292 16.7716 16.3474 15.0868 14.8453 14.2192 13.7743 13.6133 13.3175 12.9843 12.9141 12.5638 12.4482 12.2013
threshold=1.0000000180025095e-35 15.500000000000002 3.5000000000000004 3.5000000000000004 3.5000000000000004 1.0000000180025095e-35 5.5000000000000009 6.5000000000000009 41.500000000000007 40.500000000000007 18.500000000000004 37.500000000000007 48.500000000000007 1.5000000000000002 3.5000000000000004 5.5000000000000009 4.5000000000000009 1.5000000000000002 2.5000000000000004 79.500000000000014 1.5000000000000002 55.500000000000007 1.5000000000000002 57.500000000000007 2.5000000000000004 1.0000000180025095e-35 24.500000000000004 1.5000000000000002 1.5000000000000002 1.0000000180025095e-35
decision_type=2 2 2 2 2 2 2 2 2 2 2 2 2 2 2 2 2 2 2 2 2 2 2 2 2 2 2 2 2 2
left_child=2 3 4 20 5 11 8 -8 9 10 16 -1 27 -14 15 18 -5 -7 23 26 -2 -15 -10 25 -23 -3 -19 -13 -4 -26
right_child=1 14 28 6 -6 17 7 -9 22 -11 -12 12 13 21 -16 -17 -18 19 -20 -21 -22 24 -24 -25 29 -27 -28 -29 -30 -31
leaf_value=-0.070617972977692775 -0.012262714183577125 0.047482408827935606 -0.014304070149985304 0.058042429022161529 -0.014406464214019189 -0.064754221637957854 -0.035122207918779576 0.041919817821051156 0.11597940255748916 -0.081899739405468783 0.0067395564839348408 0.027062800125448191 -0.083069387218912508 -0.075903672608592793 0.056744478379574859 0.044007536196440579 -0.021338103357996713 -0.050252310400252534 -0.016860486665817818 0.52645224800631074 0.0067460502832561156 0.0083846145613553757 0.04703595362789801 -0.020360518244610062 0.049694894054964737 0.010942583639356022 -0.010487454102464419 -0.035171842821843241 0.010589316024302402 0.38932858074261523
leaf_weight=61.921440802514553 706.43658515438437 211.89008998125792 491.10381082445383 172.66822652518749 415.88338903337717 503.05927370861173 175.21675971895456 113.12787359952927 34.668643921613693 30.125222206115723 388.40958371758461 137.9780036881566 56.957623958587646 19.845751527696848 249.440903455019 351.40610283613205 31.816890671849251 255.69731631875038 125.73691730946302 0.47487897053360839 981.89998864382505 50.038318689912558 176.57482548058033 60.214097529649734 2.548224125057458 179.74524852633476 119.99847655370831 42.408253002911806 339.92329510301352 1.8084182702004907
leaf_count=1500 7212 937 6437 789 5786 14048 947 523 153 135 1836 838 1503 368 1264 1777 139 5323 581 10 5362 807 798 270 41 797 2492 809 2675 28
internal_value=0 0.142053 -0.251906 0.0653491 -0.356836 -0.427471 0.181792 -0.0489588 0.261546 0.152381 0.201737 -0.190568 -0.0880997 -0.380153 0.325015 0.259921 0.456912 -0.528111 0.150314 -0.368393 -0.0120763 -0.0344973 0.583507 0.239061 0.229848 0.307121 -0.375513 0.124316 -0.0412168 1.90675
internal_weight=0 3989.38 2499.65 2810.94 1668.62 1252.74 1122.61 288.345 834.263 623.02 592.895 373.506 311.585 131.198 1178.43 928.992 204.485 879.23 577.586 376.171 1688.34 74.2407 211.243 451.849 54.395 391.635 375.696 180.386 831.027 4.35664
internal_count=66185 23520 42665 17894 33553 27767 5320 1470 3850 2899 2764 5894 4394 2747 5626 4362 928 21873 2585 7825 12574 1244 951 2004 876 1734 7815 1647 9112 69
shrinkage=0.1


Tree=21
num_leaves=31
num_cat=0
split_feature=5 5 0 0 7 19 0 0 0 1 1 7 3 1 1 0 10 1 19 1 2 2 19 10 7 1 1 7 0 2
split_gain=197.354 49.9118 47.8517 24.088 22.6033 22.2539 20.2953 19.1847 26.6507 23.9424 31.0853 17.7582 18.4559 17.5739 15.936 20.3492 15.8809 14.966 17.9052 14.1374 14.3029 16.7861 16.7678 15.9985 14.3985 13.8041 22.1115 12.904 14.2354 12.6036
threshold=1.0000000180025095e-35 3.5000000000000004 3.5000000000000004 3.5000000000000004 2.5000000000000004 1.0000000180025095e-35 1.5000000000000002 5.5000000000000009 6.5000000000000009 41.500000000000007 40.500000000000007 10.500000000000002 73.500000000000014 37.500000000000007 48.500000000000007 1.5000000000000002 22.500000000000004 23.500000000000004 2.5000000000000004 61.500000000000007 10.500000000000002 3.5000000000000004 1.5000000000000002 234.50000000000003 4.5000000000000009 36.500000000000007 48.500000000000007 26.500000000000004 3.5000000000000004 6.5000000000000009
decision_type=2 2 2 2 2 2 2 2 2 2 2 2 2 2 2 2 2 2 2 2 2 2 2 2 2 2 2 2 2 2
left_child=2 3 4 19 5 13 -7 9 -9 10 11 12 -5 -1 -15 -16 -8 18 -6 20 21 23 25 -2 -24 -23 -27 28 -3 -18
right_child=1 27 -4 7 17 6 16 8 -10 -11 -12 -13 -14 14 15 -17 29 -19 -20 -21 -22 22 24 -25 -26 26 -28 -29 -30 -31
leaf_value=-0.072506569802205656 0.01119992413578965 0.0158834304873815 -0.0037313934151648395 0.0030738691102968566 -0.055010149439494095 -0.064546999375963435 -0.047091445156302821 -0.02820308622185623 0.035203437589430731 0.053524557868955186 -0.092321917969277481 0.049558548780148481 0.073863971735458125 0.010095481686920652 -0.086013701768538675 -0.0024450838259737944 0.051774257512598412 -0.018939756639899274 0.17331841291029973 -0.043186021714354872 0.026419478014144539 -0.030605797879226022 -0.049976767309809163 -0.087567894746837058 -0.012826140794822813 0.04370668728940532 -0.020788953592772254 0.046652639621700943 0.045912850780641119 -0.023242872677888344
leaf_weight=53.670006204396486 626.0443965010345 623.47007136046886 827.58057740330696 407.38463367521763 5.6282481625676146 447.93747288919985 210.38975079730153 183.8327801451087 103.67228855192661 213.23996348679066 26.010242775082588 146.72502845525742 40.489453554153442 164.29077477753162 50.638318616896868 68.6269646063447 33.01702444255352 502.11940265446901 8.8112751916050893 79.365060590207577 182.31001430749893 79.243416003882885 154.88038813322783 16.841346070170403 319.60101656615734 133.46211629360914 88.342757847160101 337.72288423776627 211.38262110948563 69.623512960970402
leaf_count=1397 4239 2638 9112 1947 83 13423 4615 1003 479 962 119 672 176 1449 1449 1141 648 7738 77 700 1463 599 1802 125 2087 935 746 1800 1028 1533
internal_value=0 0.128366 -0.232835 0.0558615 -0.333042 -0.414186 -0.508949 0.169364 -0.0533914 0.246168 0.146842 0.19365 0.0947355 -0.200347 -0.101031 -0.379271 -0.313592 -0.160533 0.843203 -0.0198941 0.000531513 -0.0333573 -0.132404 0.0861255 -0.249529 0.0521951 0.180187 0.30159 0.234868 0.00888357
internal_weight=0 3974.02 2442.33 2801.44 1614.75 1098.19 760.968 1121.35 287.505 833.849 620.609 594.599 447.874 337.226 283.556 119.265 313.03 516.559 14.4395 1680.09 1600.73 1418.42 775.53 642.886 474.481 301.048 221.805 1172.58 834.853 102.641
internal_count=66185 23520 42665 18054 33553 25655 20219 5358 1482 3876 2914 2795 2123 5436 4039 2590 6796 7898 160 12696 11996 10533 6169 4364 3889 2280 1681 5466 3666 2181
shrinkage=0.1


Tree=22
num_leaves=31
num_cat=0
split_feature=6 6 2 1 1 5 7 1 1 12 5 2 19 9 7 3 2 2 7 12 4 19 16 17 3 4 7 9 12 1
split_gain=167.287 45.5098 23.4276 21.6249 18.6773 16.1163 15.9263 12.7624 29.8555 10.5069 10.1523 10.9998 13.0173 9.28863 10.2519 8.61424 8.33867 12.4091 9.42895 8.85229 8.80607 10.3582 10.205 9.69698 8.15793 10.8406 7.87108 9.77816 7.78781 7.74399
threshold=1.5000000000000002 6.5000000000000009 8.5000000000000018 40.500000000000007 39.500000000000007 7.5000000000000009 1.5000000000000002 22.500000000000004 23.500000000000004 65.500000000000014 1.5000000000000002 9.5000000000000018 5.5000000000000009 3.5000000000000004 47.500000000000007 -1.0000000180025095e-35 116.50000000000001 151.50000000000003 1.5000000000000002 1.5000000000000002 27.500000000000004 2.5000000000000004 1.5000000000000002 23.500000000000004 571.50000000000011 21.500000000000004 18.500000000000004 189.50000000000003 12.500000000000002 24.500000000000004
decision_type=2 2 2 2 2 2 2 2 2 2 2 2 2 2 2 2 2 2 2 2 2 2 2 2 2 2 2 2 2 2
left_child=2 7 9 4 16 13 -5 -2 -9 15 24 29 28 -3 26 -1 18 19 -4 20 21 23 -23 -18 -10 -26 -15 -28 -13 -12
right_child=1 5 3 6 -6 -7 -8 8 10 -11 11 12 -14 14 -16 -17 17 -19 -20 -21 -22 22 -24 -25 25 -27 27 -29 -30 -31
leaf_value=0.03956548498304141 -0.046877344125769133 0.030595720579573805 -0.039958815019720997 -0.051920321274486786 0.019157646179904467 0.052367189660564098 -0.02065688706116442 0.10889985340808923 -0.0053585417536379581 0.33148921759206951 0.096704388297950361 0.034722313928780217 0.15073358781509838 0.0078769531211602926 -0.16182269486256504 -0.011615249811795205 0.38740471951879457 -0.026159608975934952 -0.011681885591381929 -0.040459725882463576 0.034035685445436274 -0.11693377792204783 0.24169202561514452 0.11902199334194835 0.012533185219116389 0.21109494614301913 0.026031913688578424 -0.11380287826600709 -0.16453696832253009 0.0049008725032060173
leaf_weight=34.488090571016073 53.130115315318108 532.83356205374002 316.80557920783758 526.45958209224045 114.24904627352953 165.74436740577221 235.98554485291243 26.168218418955803 1234.2045639231801 0.90613601729273685 9.2837270870804769 70.798586003482342 10.027029640972613 648.93972133845091 3.2836141586303702 707.69163691997528 2.7919840440154129 38.417480051517487 187.84313236176968 5.9858458172529927 9.6738077793270332 1.906554661691189 1.359096899628639 2.5998788550496101 8.7316983789205533 4.0133222974836817 491.11092644184828 5.0520937964320174 2.0173441916704169 896.09971108287573
leaf_count=221 331 2536 6140 13106 1046 991 4216 160 11756 12 46 357 50 3128 16 10734 31 744 2917 114 158 32 16 34 81 32 2354 26 10 4790
internal_value=0 0.1091 -0.232492 -0.306734 -0.177311 0.226165 -0.422439 0.0156814 0.0270637 -0.0882146 0.0146311 0.0903358 0.439117 0.196835 0.146204 -0.0923695 -0.251591 0.092245 -0.294334 0.651261 0.996037 1.72869 0.323189 2.57994 -0.045366 0.75059 0.151264 0.246081 0.292019 0.0584222
internal_weight=0 4161.44 2187.16 1444.08 681.632 1846.96 762.445 2314.47 2261.34 743.086 2235.18 988.226 82.843 1681.22 1148.39 742.18 567.383 62.7346 504.649 24.3172 18.3313 8.65751 3.26565 5.39186 1246.95 12.745 1145.1 496.163 72.8159 905.383
internal_count=66185 26664 39521 28554 11232 9051 17322 17613 17282 10967 17122 5253 417 8060 5524 10955 10186 1129 9057 385 271 113 48 65 11869 113 5508 2380 367 4836
shrinkage=0.1


Tree=23
num_leaves=31
num_cat=0
split_feature=6 0 19 1 1 5 0 2 7 0 1 13 7 5 6 5 8 7 10 1 1 19 9 1 1 19 2 2 19 10
split_gain=138.481 49.815 37.6129 26.024 24.6906 23.166 23.4607 18.1778 17.2118 17.1354 17.4577 16.7384 16.5169 16.3623 15.2163 15.0397 14.4911 13.1957 13.6959 12.992 17.9414 14.6464 13.2312 12.9256 25.2207 11.9891 10.3116 13.9695 12.3768 9.92782
threshold=3.5000000000000004 1.5000000000000002 1.0000000180025095e-35 49.500000000000007 37.500000000000007 4.5000000000000009 3.5000000000000004 16.500000000000004 4.5000000000000009 2.5000000000000004 61.500000000000007 11.500000000000002 1.5000000000000002 1.0000000180025095e-35 9.5000000000000018 1.0000000180025095e-35 83.500000000000014 2.5000000000000004 321.50000000000006 36.500000000000007 38.500000000000007 5.5000000000000009 109.50000000000001 41.500000000000007 40.500000000000007 3.5000000000000004 119.50000000000001 224.50000000000003 2.5000000000000004 1.5000000000000002
decision_type=2 2 2 2 2 2 2 2 2 2 2 2 2 2 2 2 2 2 2 2 2 2 2 2 2 2 2 2 2 2
left_child=1 2 3 4 15 6 9 16 -6 10 11 19 -4 26 23 -1 -3 -5 -19 -2 -21 -22 29 24 -8 -25 -9 28 -28 -23
right_child=5 7 12 17 8 -7 14 13 -10 -11 -12 -13 -14 -15 -16 -17 -18 18 -20 20 21 22 -24 25 -26 -27 27 -29 -30 -31
leaf_value=-0.062138061958733892 -0.002627651896984053 -0.00039994895788756485 -0.059166906673818645 -0.079518664536298619 0.026459577242153476 0.030251525326553997 0.013284233215963517 -0.027703141226000517 0.17353444476314289 -0.017087789178016875 -0.04945628589258122 -0.019657973019496164 -0.028760049607586859 0.025556877546134466 0.053966789624007028 0.042234054202960822 0.24470805493362957 0.00077619821022819105 0.44496449958403145 0.077077028165741024 0.01286492580304629 0.13199207177763206 -0.17461268964604837 0.019796833785537048 -0.084723114760704474 0.066634094671440033 0.07445041571148879 -0.040685331281948726 -0.02801306962153809 0.045694860259827406
leaf_weight=54.846453443169594 255.674082942307 1460.7807472907007 400.95227409899235 56.188293455168605 153.85414335876703 730.6007027477026 426.16535085439682 641.30152780935168 8.3909641876816732 353.4202357083559 49.955369494855404 151.2227735221386 322.19754430651665 75.672312885522842 134.27099113166332 18.450468488037586 2.4160347543656817 17.513212721794847 0.72280121222138305 58.059892848134041 500.01897810399532 19.004988335072994 2.2627926990389815 159.6464685946703 27.980604946613312 83.099101692438126 35.926658436655998 34.645931851118803 17.546491999179125 44.651301026344299
leaf_count=1501 1557 15275 12631 1615 945 3575 1864 10610 56 2287 326 912 5088 495 728 193 19 247 11 301 2923 101 13 707 122 368 559 613 283 260
internal_value=0 -0.149256 -0.331271 -0.0398295 0.123045 0.147674 0.0977375 -0.0663561 0.34066 0.0202695 0.0827715 0.110748 -0.456192 -0.18704 0.231418 -0.358653 4.77409e-05 -0.555303 0.18382 0.16358 0.241371 0.18706 0.630126 0.172027 0.0724586 0.358306 -0.232958 0.0877951 0.408284 0.714594
internal_weight=0 3301.41 1033.12 309.966 235.542 2996.03 2265.43 2268.29 162.245 1434.27 1080.85 1030.89 723.15 805.093 831.163 73.2969 1463.2 74.4243 18.236 879.672 623.998 565.938 65.9191 696.892 454.146 242.746 729.421 88.1191 53.4732 63.6563
internal_count=66185 50141 22287 4568 2695 16044 12469 27854 1001 8680 6393 6067 17719 12560 3789 1694 15294 1873 258 5155 3598 3297 374 3061 1986 1075 12065 1455 842 361
shrinkage=0.1


Tree=24
num_leaves=31
num_cat=0
split_feature=5 7 2 1 10 8 1 7 1 1 12 10 17 12 9 1 4 4 4 7 10 2 4 1 2 3 3 10 2 6
split_gain=116.093 29.8018 26.0652 16.365 13.5843 17.481 13.2936 12.0974 11.6981 11.6127 11.1051 12.4295 16.7638 12.3995 12.9002 10.7839 10.088 9.68778 17.2226 9.52417 9.10057 14.7133 17.0633 13.7422 12.2346 23.866 15.9699 14.2258 8.91404 8.8273
threshold=1.0000000180025095e-35 18.500000000000004 18.500000000000004 40.500000000000007 37.500000000000007 5.5000000000000009 39.500000000000007 1.5000000000000002 57.500000000000007 52.500000000000007 9.5000000000000018 10.500000000000002 24.500000000000004 1.5000000000000002 7.5000000000000009 30.500000000000004 11.500000000000002 97.500000000000014 89.500000000000014 2.5000000000000004 19.500000000000004 45.500000000000007 18.500000000000004 29.500000000000004 89.500000000000014 29.500000000000004 114.50000000000001 13.500000000000002 1.0000000180025095e-35 3.5000000000000004
decision_type=2 2 2 2 2 2 2 2 2 2 2 2 2 2 2 2 2 2 2 2 2 2 2 2 2 2 2 2 2 2
left_child=2 4 -1 6 5 -2 15 -5 -9 19 11 12 13 14 -7 20 -13 18 -18 28 21 -4 23 24 25 27 -27 -23 -6 -8
right_child=1 -3 3 7 9 10 29 8 -10 -11 -12 16 -14 -15 -16 -17 17 -19 -20 -21 -22 22 -24 -25 -26 26 -28 -29 -30 -31
leaf_value=-0.0077413678875931681 0.0070042296977762333 0.02620351916321207 -0.014754169340149345 -0.050931309790572046 0.10951872602749445 0.12552293656464306 0.011989754849960796 -0.033827482011776294 0.022729791005491107 -0.022017701647054688 0.16524441249678234 0.0098270929361858623 -0.0010013886788627637 0.047070677102098141 0.45644718233605908 -0.03443941767056951 0.065532497399126741 -0.012488075057821943 0.39103026732119978 0.0058419749806062019 -0.021103903503933853 -0.10749604933747839 0.019975643858454867 -0.053191415580899098 0.14039142490764983 0.92546122905314387 0.30545138722046211 0.4842535001398342 -0.026676680030156549 0.32317037415937211
leaf_weight=1136.9066108576953 1574.2521973140538 856.58419896662235 30.733016738668084 390.41927999258041 4.9784614145755759 2.001776456832884 107.58208256959915 164.00576741620898 47.066185425966978 251.82372131943703 6.5472891032695761 127.65209009870887 5.7271677255630493 2.5231941863894463 2.8624430298805237 320.96188653632998 57.486522331833839 16.225842200219631 1.6728646755218495 880.88998579233885 89.241675371304154 1.018434364348652 13.99888690561056 1.8285378627479074 4.3351878449320793 0.96749152988195397 0.72806880995631229 0.67586013302206971 138.41944820433855 0.91938737779855617
leaf_count=17849 9740 4308 511 11186 28 14 962 3000 810 1821 42 785 38 15 19 6631 350 108 10 4915 1357 17 209 31 52 15 14 11 1327 10
internal_value=0 0.0970879 -0.185347 -0.289827 0.0511106 0.107139 -0.168885 -0.405038 -0.21216 -0.0277858 0.369375 0.330511 1.27404 2.26952 3.20262 -0.242502 0.269566 0.559625 0.747367 0.0195141 -0.0146463 0.30821 0.902909 1.93324 2.51675 3.93992 6.59231 1.28555 -0.219483 0.146265
internal_weight=0 3929.65 2311.39 1174.48 3073.06 1796.95 572.991 601.491 211.072 1276.11 222.699 216.152 13.1146 7.38741 4.86422 464.489 203.037 75.3852 59.1594 1024.29 143.527 54.2855 23.5525 9.55358 7.72504 3.38985 1.69556 1.69429 143.398 108.501
internal_count=66185 23520 42665 24816 19212 11121 9820 14996 3810 8091 1381 1339 86 48 33 8848 1253 468 360 6270 2217 860 349 140 109 57 29 28 1355 972
shrinkage=0.1


Tree=25
num_leaves=31
num_cat=0
split_feature=6 0 7 19 1 1 0 0 2 0 6 7 1 1 17 0 0 6 0 10 1 0 6 0 9 17 2 0 1 1
split_gain=97.9336 35.1808 27.5134 25.3887 27.7897 22.5883 16.1664 15.8478 13.0601 17.1043 12.7918 12.0086 11.6644 12.2971 16.3004 12.3593 11.6316 12.4815 11.5179 13.672 21.0742 11.2867 14.2497 19.6367 15.7628 11.1246 16.3495 10.8889 11.3582 11.3318
threshold=1.5000000000000002 1.5000000000000002 12.500000000000002 1.0000000180025095e-35 49.500000000000007 37.500000000000007 3.5000000000000004 3.5000000000000004 4.5000000000000009 3.5000000000000004 18.500000000000004 1.0000000180025095e-35 53.500000000000007 36.500000000000007 31.500000000000004 2.5000000000000004 2.5000000000000004 23.500000000000004 2.5000000000000004 24.500000000000004 31.500000000000004 5.5000000000000009 15.500000000000002 6.5000000000000009 1.0000000180025095e-35 36.500000000000007 4.5000000000000009 2.5000000000000004 23.500000000000004 51.500000000000007
decision_type=2 2 2 2 2 2 2 2 2 2 2 2 2 2 2 2 2 2 2 2 2 2 2 2 2 2 2 2 2 2
left_child=1 3 6 4 5 -1 18 10 -3 27 12 -7 13 14 -4 -15 -12 -18 19 20 -2 -9 23 24 -23 26 -13 28 -10 -29
right_child=2 8 7 -5 -6 11 -8 21 9 -11 16 25 -14 15 -16 -17 17 -19 -20 -21 -22 22 -24 -25 -26 -27 -28 29 -30 -31
leaf_value=-0.051978798675183471 -0.054692634448001487 0.0053749139842835456 0.010378914546563259 -0.049119519614319623 -0.074807208166939185 -0.0050658804491409502 0.011511200159318093 0.050934565981668581 0.10902994186546949 -0.0041102228860380062 0.059589059314647808 0.29498103756817218 -0.014047858643240839 0.031645147463844552 -0.045699014850059699 -0.0038664179089428529 -0.021987114382509231 0.051739919886371145 -0.017579450504055221 -0.0097088715625877758 0.019148515399111558 0.050260859665459789 0.077591150686215526 0.064896210653616379 -0.050486236115236782 0.14215347175594048 0.028350777493094739 -0.065082717358221354 -0.020235402148497585 -0.0088566957691361258
leaf_weight=47.77067980915308 42.156500894576311 438.26389012485743 216.04934100806713 491.14958027377725 51.751787753775716 64.23587305098772 1033.0871397331357 222.89939701557159 7.060194380581378 526.82267400249839 102.82990990579128 2.3813182413578025 187.08848438039422 392.06294460594654 68.195029556751251 130.67111907526851 51.659177117049694 41.335730671882629 476.4781855493784 555.08036432787776 464.73516207374632 20.524970635771751 29.316638931632042 33.126002490520477 63.81222428381443 11.889192111790178 67.166126906871796 131.28677557036281 182.62436562031507 49.306706823408604
leaf_count=1373 384 5830 1085 15338 1658 432 5098 1153 78 6592 624 17 937 1898 352 670 270 268 4204 5015 3951 97 185 170 303 65 362 2871 3913 992
internal_value=0 -0.184508 0.081909 -0.359997 -0.0971935 0.0769359 0.0183547 0.186702 -0.087741 -0.156864 0.130514 0.272621 0.0844951 0.136653 -0.0307513 0.227681 0.364122 0.107842 -0.0466189 0.0113387 0.130074 0.367554 0.15223 -0.00342953 -0.259676 0.527618 0.374803 -0.321566 -0.154241 -0.497316
internal_weight=0 2071.71 4131.11 736.345 245.195 193.443 2571.54 1559.57 1335.36 897.101 1189.89 145.673 994.067 806.978 284.244 522.734 195.825 92.9949 1538.45 1061.97 506.892 369.679 146.78 117.463 84.3372 81.4366 69.5474 370.278 189.685 180.593
internal_count=66185 39521 26664 19245 3907 2249 18652 8012 20276 14446 6104 876 4942 4005 1437 2568 1162 538 13554 9350 4335 1908 755 570 400 444 379 7854 3991 3863
shrinkage=0.1


Tree=26
num_leaves=31
num_cat=0
split_feature=7 0 19 5 0 1 1 0 0 1 1 1 1 6 19 1 1 19 7 0 19 0 1 1 7 3 3 1 9 7
split_gain=83.2478 37.4404 22.9246 21.9138 18.6441 17.4067 16.7821 16.7631 23.8447 16.0767 14.6346 14.4833 23.7354 12.0453 12.137 13.1371 11.7898 11.674 11.6147 11.4174 15.3694 20.7059 16.7302 29.8869 20.0928 13.7031 12.4907 11.3152 10.3505 10.3028
threshold=3.5000000000000004 1.5000000000000002 1.0000000180025095e-35 3.5000000000000004 3.5000000000000004 55.500000000000007 49.500000000000007 5.5000000000000009 6.5000000000000009 57.500000000000007 37.500000000000007 41.500000000000007 40.500000000000007 9.5000000000000018 1.5000000000000002 22.500000000000004 61.500000000000007 4.5000000000000009 6.5000000000000009 2.5000000000000004 5.5000000000000009 1.5000000000000002 35.500000000000007 42.500000000000007 5.5000000000000009 65.500000000000014 198.50000000000003 26.500000000000004 2.5000000000000004 2.5000000000000004
decision_type=2 2 2 2 2 2 2 2 2 2 2 2 2 2 2 2 2 2 2 2 2 2 2 2 2 2 2 2 2 2
left_child=1 2 6 4 16 17 10 11 -9 -7 -1 12 13 14 15 -6 19 -3 -10 20 -2 25 -23 -24 -25 -22 -26 -5 -19 -8
right_child=3 5 -4 27 7 9 29 8 18 -11 -12 -13 -14 -15 -16 -17 -18 28 -20 -21 21 22 23 24 26 -27 -28 -29 -30 -31
leaf_value=-0.038784459064620358 -0.00081649315481550932 -0.0061667986101175591 -0.044284528112733729 -0.027268456529144974 -0.043698150275273469 0.080313896556284986 -0.074432256773452929 -0.028569727315055183 -0.0093968073851469196 0.0075867075051032603 0.02074990171808605 0.046449729978473651 -0.090661341483599014 0.071915908480384108 0.0013367283320600588 0.045035100277714082 -0.045981482602620777 -0.062161921078768681 0.058384765251731224 -0.016228187552131856 -0.019992103425539073 0.1335134786540251 -0.096816805643223203 0.24524988110204649 0.029962072347350557 0.11957509611573561 0.22871214215976968 0.02243522351199902 -0.016096972902006245 0.054952970367766543
leaf_weight=56.724381379783154 1030.1598575673997 1187.5941090900451 548.53874925896525 47.830933421850204 18.772893637418747 38.032375626266003 47.591392807662487 176.46650066226721 41.898560225963593 151.36255862563848 151.75132014602423 189.01268920302391 20.763119198381901 38.866298511624336 285.29251612722874 150.02351816743612 61.164172280579805 72.501681163907051 63.738587766885757 383.58739192411304 66.725304387509823 26.168048616498709 12.90421102941036 6.0765809975564471 33.15948311239481 7.8638991490006438 3.4953811913728705 1079.8337128311396 149.06607060879469 7.0684573650360099
leaf_count=1545 8457 16130 16248 235 89 546 1615 997 213 1971 907 874 94 226 1322 714 569 1148 286 3405 579 180 94 62 217 64 21 5231 2042 104
internal_value=0 -0.151537 -0.326447 0.0867387 0.0365089 -0.0627262 -0.083801 0.145158 -0.060756 0.22191 0.0455113 0.22782 0.140739 0.184853 0.139121 0.351665 -0.0290837 -0.100982 0.315008 -0.0123047 0.0361797 0.328278 0.675726 0.365575 0.768344 -0.0527761 0.489147 0.20327 -0.311704 -0.577005
internal_weight=0 2410.23 811.674 3743.8 2616.14 1598.56 263.136 984.835 282.104 189.395 208.476 702.731 513.718 492.955 454.089 168.796 1631.3 1409.16 105.637 1570.14 1186.55 156.393 81.8037 55.6357 42.7314 74.5892 36.6549 1127.66 221.568 54.6599
internal_count=66185 42256 20419 23929 18463 21837 4171 4815 1496 2517 2452 3319 2445 2351 2125 803 13648 19320 499 13079 9674 1217 574 394 300 643 238 5466 3190 1719
shrinkage=0.1


Tree=27
num_leaves=31
num_cat=0
split_feature=5 0 6 0 0 0 13 2 11 7 3 0 1 0 1 19 1 9 8 2 1 1 1 0 17 19 1 13 6 3
split_gain=73.0959 30.3742 19.3262 15.2484 16.5919 23.368 17.9648 14.1987 12.4849 12.4072 9.89619 10.0968 9.21077 13.6725 10.7629 9.51856 8.71508 9.63418 10.1912 8.69359 9.43829 18.9955 25.4515 15.3919 10.9075 11.6904 12.5738 14.1618 10.328 10.2415
threshold=1.0000000180025095e-35 3.5000000000000004 11.500000000000002 3.5000000000000004 5.5000000000000009 6.5000000000000009 2.5000000000000004 41.500000000000007 33.500000000000007 10.500000000000002 114.50000000000001 5.5000000000000009 23.500000000000004 2.5000000000000004 22.500000000000004 1.0000000180025095e-35 42.500000000000007 44.500000000000007 29.500000000000004 1.0000000180025095e-35 36.500000000000007 48.500000000000007 47.500000000000007 2.5000000000000004 29.500000000000004 3.5000000000000004 34.500000000000007 2.5000000000000004 4.5000000000000009 16.500000000000004
decision_type=2 2 2 2 2 2 2 2 2 2 2 2 2 2 2 2 2 2 2 2 2 2 2 2 2 2 2 2 2 2
left_child=1 7 3 19 6 -6 -5 8 12 16 -3 -12 13 14 -1 -14 -8 -18 -19 -2 24 22 -22 29 25 -21 27 -27 -29 -24
right_child=2 10 -4 4 5 -7 9 -9 -10 -11 11 -13 15 -15 -16 -17 17 18 -20 20 21 -23 23 -25 -26 26 -28 28 -30 -31
leaf_value=-0.04027438665738052 0.056272994167928816 -0.0032173516302075574 0.022104737612045171 0.03453253744142587 -0.027351025114436767 0.02855724063210421 -0.012863016427046689 -0.041727822513737772 0.36976379506537965 0.030864995401559021 0.07578399836856628 0.0044217368465676752 -0.0049186955614786525 -0.042553504087161402 0.17922562883407506 -0.02582262686723687 0.056882668144404791 -0.055714832899137715 0.060238672746555991 -0.021481307244113429 0.0062302356477668443 -0.010274467228815129 0.11022329321700962 -0.012569027782567894 -0.037885415428837999 0.055434655727977893 -0.04364909108535156 -0.075356209179375924 0.021512172681787102 0.020979459193106776
leaf_weight=3.045488189905881 25.790958404541016 712.6938323751092 747.01394595950842 432.50180856883526 202.28327768296003 118.58808477222919 259.31217285990715 337.96272652968764 0.82857510074972995 145.17055682837963 33.406207446008921 48.774009119719267 305.1383455619216 9.3024390414357185 8.3825964778661728 761.28932451456785 42.956642761826515 21.501542329788208 11.706728726625441 187.31247305124998 648.6584403552115 665.42043737694621 49.382867872714996 20.237366802990437 139.01208021864295 78.409606393426657 29.061292823404074 17.302066776901484 30.249472871422768 17.386324867606163
leaf_count=61 150 8175 3846 1999 1090 560 1258 10429 13 715 328 609 5041 169 54 17786 191 98 52 1339 4371 5309 281 132 963 517 215 177 156 101
internal_value=0 -0.150923 0.0764717 0.0421013 0.128727 -0.0668837 0.197462 -0.238238 -0.182623 0.0644107 0.00571581 0.334305 -0.18558 0.474599 1.20731 -0.198414 -0.0412787 0.256119 -0.148384 -0.0139182 -0.0218188 0.0196847 0.130424 0.638289 -0.142625 -0.0466997 0.156431 0.293227 -0.137343 0.869847
internal_weight=0 2220.82 3889.26 3142.24 1234.02 320.871 913.149 1425.95 1087.99 480.648 794.874 82.1802 1087.16 20.7305 11.4281 1066.43 335.477 76.1649 33.2083 1908.22 1882.43 1401.09 735.665 87.0066 481.347 342.335 155.022 125.961 47.5515 66.7692
internal_count=66185 42665 23520 19674 5963 1650 4313 33553 23124 2314 9112 937 23111 284 115 22827 1599 341 150 13711 13561 10194 4885 514 3367 2404 1065 850 333 382
shrinkage=0.1


Tree=28
num_leaves=31
num_cat=0
split_feature=5 0 2 2 19 7 2 7 19 12 10 19 7 10 1 1 0 2 0 9 0 3 7 11 10 3 2 0 1 13
split_gain=59.9496 25.5353 17.8271 27.4242 14.1203 17.3592 15.0657 13.0456 12.9071 10.977 10.9611 11.2072 10.7348 12.0954 10.0191 10.7149 10.0031 14.0782 9.77856 11.2391 9.68962 11.7318 10.7895 18.272 17.692 14.5201 23.7315 14.2629 9.35292 8.4514
threshold=1.0000000180025095e-35 3.5000000000000004 2.5000000000000004 10.500000000000002 1.5000000000000002 4.5000000000000009 5.5000000000000009 4.5000000000000009 1.0000000180025095e-35 6.5000000000000009 101.50000000000001 2.5000000000000004 31.500000000000004 351.50000000000006 33.500000000000007 59.500000000000007 4.5000000000000009 3.5000000000000004 1.5000000000000002 6.5000000000000009 4.5000000000000009 519.50000000000011 1.0000000180025095e-35 15.500000000000002 19.500000000000004 2.5000000000000004 85.500000000000014 5.5000000000000009 21.500000000000004 75.500000000000014
decision_type=2 2 2 2 2 2 2 2 2 2 2 2 2 2 2 2 2 2 2 2 2 2 2 2 2 2 2 2 2 2
left_child=1 7 12 4 6 28 9 8 14 -4 11 16 13 29 -1 -16 -7 -18 -10 -20 21 -3 23 24 25 26 -22 -28 -6 -2
right_child=2 20 3 -5 5 10 -8 -9 18 -11 -12 -13 -14 -15 15 -17 17 -19 19 -21 22 -23 -24 -25 -26 -27 27 -29 -30 -31
leaf_value=-0.065252463038324368 0.014072048564117663 0.012973369703073893 0.024868037193061101 0.027982189657697384 0.12114928115365496 -0.037471924769043402 -0.0092743306491460953 -0.0036607916657172054 -0.045944055334589881 -0.022285180903449237 -0.026621269515337512 0.0088015651857094226 0.041364170067449656 -0.092560150975828662 -0.0023857379054226611 -0.096450375440937069 -0.10659513544733056 0.047973906744497252 -0.03913848813765812 -0.0038901691017690396 0.031858333011170123 0.24820447414553365 0.0055697575023669023 0.50390190091743603 -0.0513219419693055 -0.0058830780853340826 0.65866681804374672 0.12336996195293162 -0.030320726511161619 -0.092024407553499665
leaf_weight=31.398115241900086 1350.4864466674626 299.08527228236198 407.03686674311757 334.94178602844477 4.1257345080375663 109.33362413942814 312.15456399321556 304.93384131416678 373.75087570399046 56.184553649276495 152.8397591561079 605.62995472550392 143.79729750752449 10.842160593718289 309.096006648615 12.603495376184581 7.1557171344757071 33.38046258687973 196.58455540239811 167.56600577384233 5.6975582577288142 2.1353288888931266 265.91417041793466 0.65358775109052558 122.85562745854259 96.740532632917166 1.1641202978789809 0.86957227438688256 342.0252708978951 7.5500207133591166
leaf_count=1010 7269 2752 2355 2234 21 605 2141 4422 14391 338 853 3304 914 66 4802 384 37 158 4779 3765 83 15 2818 10 1937 1468 14 15 3185 40
internal_value=0 -0.137988 0.068947 0.0147169 -0.0290272 -0.0945981 0.0770607 -0.219464 -0.270572 0.191488 -0.0219809 0.0274279 0.153726 0.126423 -0.113335 -0.0607099 -0.21741 0.206883 -0.345812 -0.229188 0.00505339 0.146409 -0.0811577 -0.240784 -0.255964 0.0465608 1.36532 4.29783 -0.285154 0.134822
internal_weight=0 2191.05 3877.48 2364.81 2029.87 1254.49 775.376 1395.93 1091 463.221 908.34 755.5 1512.68 1368.88 353.098 321.7 149.87 40.5362 737.901 364.151 795.116 301.221 493.895 227.981 227.327 104.472 7.73125 2.03369 346.151 1358.04
internal_count=66185 42665 23520 15231 12997 8163 4834 33553 29131 2693 4957 4104 8289 7375 6196 5186 800 195 22935 8544 9112 2767 6345 3527 3517 1580 112 29 3206 7309
shrinkage=0.1


Tree=29
num_leaves=31
num_cat=0
split_feature=6 0 19 1 5 1 0 19 5 1 1 0 1 0 0 13 8 0 13 2 0 3 0 1 0 3 0 19 1 1
split_gain=49.3444 20.3333 17.8726 21.8966 16.4081 15.2983 12.1077 16.3711 13.2679 11.0138 16.2213 10.5288 13.4022 12.0617 11.4121 12.762 13.1421 10.3482 16.0204 9.89028 11.872 9.49695 9.33231 10.127 9.04503 10.8295 8.93774 11.5114 11.1175 10.8961
