tree
version=v3
num_class=1
num_tree_per_iteration=1
label_index=0
max_feature_idx=27
objective=binary sigmoid:1
feature_names=country_code subject_line_length last_open_day last_login_day last_checkout_day open_count_last_10_days open_count_last_30_days open_count_last_60_days login_count_last_10_days login_count_last_30_days login_count_last_60_days checkout_count_last_10_days checkout_count_last_30_days checkout_count_last_60_days attr_1 attr_2 attr_3 age domain day last_open_day_nan last_login_day_nan last_checkout_day_nan attr_1_nan attr_2_nan attr_3_nan age_nan domain_nan
feature_infos=[1:7] [10:75] [-9999:808] [-9999:18141] [-9999:1445] [0:31] [0:92] [0:135] [0:254] [0:735] [0:1260] [0:157] [0:531] [0:783] [-9999:1] [-9999:1] [-9999:4] [-9999:95] [0:10] [0:6] [0:1] [0:1] [0:1] [0:1] [0:1] [0:1] [0:1] [0:1]
tree_sizes=3312 3306 3350 3357 3377 3371 3375 3396 3387 3374 3376 3377 3390 3383 3399 3397 3370 3383 3371 3379 3401 3369 3367 3390 3372 3371 3401 3383 3396 3378 3393 3389 3381 3359 3385 3395 3380 3406 3357 3364 3370 3384 3332 3378 3359 3363 3354 3332 3388 3323 3389 3335 3322 3355 3369 3330 3352 3323 3323 3319 3344 3312 3294 3357 3361 3358 3337 3357 3309 3361 3342 3290 3369 3332 3319 3345 3318

Tree=0
num_leaves=31
num_cat=0
split_feature=5 6 0 5 0 7 0 6 0 5 5 6 7 5 6 7 5 0 0 5 3 19 7 7 0 7 1 1 0 7
split_gain=14480.8 2661.93 1077.62 709.089 511.785 293.631 473.98 242.686 235.711 224.858 223.284 155.107 154.495 103.621 90.4391 86.9855 73.7066 71.5586 62.379 53.9633 53.6705 51.5595 54.0428 50.0768 65.935 44.35 38.0635 156.792 122.409 57.0122
threshold=1.5000000000000002 9.5000000000000018 3.5000000000000004 1.0000000180025095e-35 3.5000000000000004 26.500000000000004 3.5000000000000004 4.5000000000000009 3.5000000000000004 3.5000000000000004 3.5000000000000004 1.5000000000000002 9.5000000000000018 4.5000000000000009 3.5000000000000004 12.500000000000002 6.5000000000000009 5.5000000000000009 6.5000000000000009 5.5000000000000009 -1.0000000180025095e-35 1.0000000180025095e-35 3.5000000000000004 8.5000000000000018 6.5000000000000009 14.500000000000002 48.500000000000007 39.500000000000007 1.5000000000000002 1.0000000180025095e-35
decision_type=2 2 2 2 2 2 2 2 2 2 2 2 2 2 2 2 2 2 2 2 2 2 2 2 2 2 2 2 2 2
left_child=3 2 10 8 12 6 9 -4 21 -3 15 20 -5 -7 -6 -2 -11 25 -19 -12 -10 26 -23 -13 -25 -9 27 -1 29 -29
right_child=1 5 7 4 14 13 -8 17 11 16 19 23 -14 -15 -16 -17 -18 18 -20 -21 -22 22 -24 24 -26 -27 -28 28 -30 -31
leaf_value=-1.7797927023520659 -1.6510099019519333 -1.5359677661887847 -1.5013841826332981 -1.7432431962688602 -1.6159183565952777 -1.3271367234443674 -1.1667145900369129 -1.3236018381771519 -1.6038796449962918 -1.3790215948461495 -1.5170536477614098 -1.6679161702238272 -1.6355500913794419 -1.1665452223632267 -1.5006216840626982 -1.5505957484074147 -1.2445205752610982 -1.50992668048838 -1.2970735713205213 -1.3447952412881776 -1.7496757689800959 -1.7923773310956186 -1.7592224495002722 -1.6039022175443844 -1.2381535776615911 -1.1953246434984475 -1.7821703055021358 -1.6814002326096962 -1.792318809047863 -1.5394143127481936
leaf_weight=348.89465802907944 458.5735667347908 85.875692307949066 130.58891648054123 835.74276357889175 256.57500106096268 49.44756555557251 123.8819328546524 141.89873200654984 25.907368123531342 157.41685098409653 115.99136388301849 147.29062080383301 158.46892684698105 214.36045706272125 92.582675933837891 106.25966215133667 54.970963835716248 35.5075603723526 22.488121569156647 21.56755518913269 993.55414301156998 2873.6137099862099 593.10776770114899 22.48812156915665 6.312455177307128 33.271899163722992 433.71827447414398 51.946245729923248 49.579075038433075 62.072475910186768
leaf_count=2653 3487 653 993 6355 1951 376 942 1079 197 1197 882 1120 1205 1630 704 808 418 270 171 164 7555 21851 4510 171 48 253 3298 395 377 472
internal_value=0 2.56926 1.58058 -0.64754 0.0050273 4.10593 3.58872 2.97762 -0.803846 2.90582 0.857076 -0.409982 -0.360751 4.93357 1.04656 0.578833 3.45793 3.5889 2.62611 1.99957 -0.559679 -0.910551 -0.967022 0.456676 1.66265 3.90766 -0.703654 -0.519143 0.288606 0.859005
internal_weight=0 1752.1 1066.15 6951.85 1343.37 685.953 422.145 363.755 5608.48 298.264 702.392 1195.55 994.212 263.808 349.158 564.833 212.388 233.166 57.9957 137.559 1019.46 4412.93 3466.72 176.091 28.8006 175.171 946.211 512.492 163.598 114.019
internal_count=66185 13323 8107 52862 10215 5216 3210 2766 42647 2268 5341 9091 7560 2006 2655 4295 1615 1773 441 1046 7752 33556 26361 1339 219 1332 7195 3897 1244 867
shrinkage=1


Tree=1
num_leaves=31
num_cat=0
split_feature=5 6 5 0 0 0 0 6 7 7 5 6 5 0 5 7 0 7 0 1 0 7 5 2 2 5 2 9 1 1
split_gain=10167.9 1235.88 637.08 497.9 393.796 222.958 155.756 314.685 132.7 128.361 113.577 81.9927 74.9382 87.5443 69.6704 63.7719 52.3954 48.255 45.1914 41.7262 39.2035 38.6714 36.9796 34.2467 30.2104 29.9129 29.0841 26.0091 25.5678 30.8987
threshold=1.5000000000000002 8.5000000000000018 1.0000000180025095e-35 3.5000000000000004 3.5000000000000004 3.5000000000000004 3.5000000000000004 12.500000000000002 4.5000000000000009 9.5000000000000018 3.5000000000000004 3.5000000000000004 7.5000000000000009 2.5000000000000004 2.5000000000000004 7.5000000000000009 4.5000000000000009 3.5000000000000004 5.5000000000000009 61.500000000000007 6.5000000000000009 12.500000000000002 4.5000000000000009 1.0000000180025095e-35 1.5000000000000002 2.5000000000000004 2.5000000000000004 49.500000000000007 53.500000000000007 36.500000000000007
decision_type=2 2 2 2 2 2 2 2 2 2 2 2 2 2 2 2 2 2 2 2 2 2 2 2 2 2 2 2 2 2
left_child=2 3 5 10 9 17 7 14 16 23 21 -5 13 -9 -3 24 -7 -1 25 -10 -20 -2 28 -4 27 -13 -15 -6 29 -16
right_child=1 6 4 11 15 8 -8 12 19 -11 -12 18 -14 26 22 -17 -18 -19 20 -21 -22 -23 -24 -25 -26 -27 -28 -29 -30 -31
leaf_value=-0.092647805339955702 0.032989167132318524 0.055826557405858734 0.10207495827802755 0.12370560764919786 0.19754932589000249 -0.014833444796175186 0.33819157231300262 0.30103733348241973 0.040874967968018379 0.047123987815753145 0.15145802316159074 0.21733525835488812 0.35506657070928088 0.23987657308137292 0.10548279548074926 0.16971968466201137 -0.063677977860117405 -0.064244547576626024 0.1032327181386225 0.21736275967259355 0.2526240390455009 0.10688133895227064 0.24067840163536586 -0.052623704581891445 0.055784684899002318 0.2899277828982994 0.12583264490309551 -0.056731978994949944 0.072942187102888148 0.21556628798750421
leaf_weight=3415.7736431285739 459.34026758372784 50.20317468047142 14.573928862810133 92.687539756298065 26.756718203425411 312.70373262465 258.28180836141109 245.68361067771912 96.333152577280998 164.45739880204201 121.16449531912804 114.48830023407936 150.70886391401291 46.97824302315712 39.02471387386322 75.095211133360863 737.7286029458046 725.12190212309361 43.927444219589233 15.559898123145102 29.271270900964737 83.737592995166779 79.945048436522484 790.79405307769775 268.1739706248045 112.5842972099781 42.676329672336578 4.7342319935560218 29.585494622588158 73.557232275605202
leaf_count=27762 3401 346 115 622 192 2441 1452 1450 721 1205 809 704 840 275 261 510 5824 5794 296 105 177 580 492 6240 1919 680 256 34 195 487
internal_value=0 1.924 -0.612231 1.16698 0.00256833 -0.768108 2.71121 2.48279 -0.381096 -0.333844 0.639143 2.05922 2.96495 2.70172 1.62219 0.873154 -0.491374 -0.87674 2.31301 0.654174 1.62972 0.443827 1.86266 -0.498243 0.666651 2.53327 1.85591 1.59322 1.55668 1.77408
internal_weight=0 2073.85 6647.81 1057.2 1344.59 5303.22 1016.64 758.363 1162.33 969.825 664.242 392.959 486.047 335.338 272.316 374.76 1050.43 4140.9 300.271 111.893 73.1987 543.078 222.112 805.368 299.665 227.073 89.6546 31.491 142.167 112.582
internal_count=66185 13323 52862 7269 10215 42647 6054 4602 9091 7560 4790 2479 2821 1981 1781 2655 8265 33556 1857 826 473 3981 1435 6355 2145 1384 531 226 943 748
shrinkage=0.1


Tree=2
num_leaves=31
num_cat=0
split_feature=5 6 5 0 0 0 6 7 5 0 5 7 19 0 7 6 6 0 1 1 0 7 0 3 6 0 6 5 2 1
split_gain=7644.88 740.333 570.551 319.931 307.034 210.364 117.341 110.111 100.667 145.549 77.4562 56.4928 53.6454 53.3938 53.3141 52.8663 50.7065 44.9238 38.1521 146.665 105.487 40.4526 32.3348 37.0751 32.0722 30.1021 29.6758 29.619 29.3715 28.2568
threshold=1.5000000000000002 8.5000000000000018 1.0000000180025095e-35 3.5000000000000004 3.5000000000000004 3.5000000000000004 1.5000000000000002 7.5000000000000009 3.5000000000000004 3.5000000000000004 3.5000000000000004 25.500000000000004 1.0000000180025095e-35 3.5000000000000004 3.5000000000000004 5.5000000000000009 2.5000000000000004 4.5000000000000009 48.500000000000007 39.500000000000007 1.5000000000000002 1.0000000180025095e-35 2.5000000000000004 30.500000000000004 5.5000000000000009 5.5000000000000009 6.5000000000000009 5.5000000000000009 1.0000000180025095e-35 42.500000000000007
decision_type=2 2 2 2 2 2 2 2 2 2 2 2 2 2 2 2 2 2 2 2 2 2 2 2 2 2 2 2 2 2
left_child=2 3 5 10 7 12 17 28 9 22 24 13 18 27 -14 25 -6 -7 19 -1 21 -21 23 -3 -2 29 -9 -10 -4 -5
right_child=1 8 4 15 16 6 -8 26 11 -11 -12 -13 14 -15 -16 -17 -18 -19 -20 20 -22 -23 -24 -25 -26 -27 -28 -29 -30 -31
leaf_value=-0.082988525538588778 0.02194794069376553 0.10133965376757799 0.085284091446789043 0.1329020712158849 0.04263727515799353 -0.015733882504284449 0.037964221204179138 0.0017754440903466557 0.15530501715181724 0.24894841072058807 0.12363964653119036 0.2556673010864125 -0.096706861415113032 0.25559447360583226 -0.06205360751616365 0.20076293879143572 0.11479854399713772 -0.063531612155314332 -0.085528169249906083 0.017780982636099819 -0.096881776668079234 0.13821760067167174 0.030959368494844371 0.22447289362023565 0.072930943444351762 0.071983092897876397 0.076005137827575064 0.2163828248188282 -0.053296351506860143 0.23499082790239534
leaf_weight=307.83410280197859 375.48981958627701 108.05367150902748 15.6357304751873 137.12987995147705 224.37716481089592 278.3116796463728 182.96038825809956 146.59907361119986 181.76381547749043 115.37139110267162 132.86821377277374 401.72169815003872 2500.5879359543324 141.85271790623665 539.81215320527554 207.2924161106348 172.03949140012264 670.03730067610741 381.51485252380371 48.981241136789322 43.407502293586731 64.763841271400452 44.071012511849403 31.605394512414932 183.78195591270924 62.496761843562126 85.134176962077618 140.97801944613457 699.81990513205528 33.793798968195915
leaf_count=2653 2706 666 115 797 1549 2206 1339 1102 1016 556 809 1944 21851 678 4510 1105 1106 5546 3298 395 377 472 274 193 1275 381 611 727 5732 196
internal_value=0 1.54978 -0.578136 0.974123 0.000619667 -0.733095 -0.353586 -0.308634 2.10936 1.60917 0.550068 2.28205 -0.843554 2.0446 -0.905543 1.6401 0.739543 -0.495044 -0.620908 -0.428607 0.357426 0.863548 1.05639 1.29205 0.387014 1.31371 0.29046 1.81985 -0.502678 1.53086
internal_weight=0 2298.27 6361.82 1132.85 1343.61 5018.21 1131.31 947.189 1165.42 299.101 692.14 866.316 3886.9 464.595 3040.4 440.713 396.417 948.349 846.502 464.987 157.153 113.745 183.73 139.659 559.272 233.42 231.733 322.742 715.456 170.924
internal_count=66185 13323 52862 7269 10215 42647 9091 7560 6054 1689 4790 4365 33556 2421 26361 2479 2655 7752 7195 3897 1244 867 1133 859 3981 1374 1713 1743 5847 993
shrinkage=0.1


Tree=3
num_leaves=31
num_cat=0
split_feature=5 5 6 0 0 0 7 7 7 0 5 19 7 5 3 6 6 1 1 0 2 0 5 0 0 9 7 7 2 13
split_gain=5945.75 510.291 506.422 242.043 221.018 198.435 100.182 92.7411 68.2831 113.391 58.246 51.8309 52.7535 51.3456 39.9484 38.5881 35.6473 35.4812 126.86 84.4653 28.9621 27.557 27.293 27.1931 29.2743 32.3757 26.4774 25.8858 24.1358 22.7411
threshold=1.5000000000000002 1.0000000180025095e-35 8.5000000000000018 3.5000000000000004 3.5000000000000004 3.5000000000000004 2.5000000000000004 7.5000000000000009 24.500000000000004 3.5000000000000004 2.5000000000000004 1.0000000180025095e-35 3.5000000000000004 5.5000000000000009 -1.0000000180025095e-35 3.5000000000000004 5.5000000000000009 48.500000000000007 39.500000000000007 1.5000000000000002 41.500000000000007 4.5000000000000009 2.5000000000000004 6.5000000000000009 5.5000000000000009 8.5000000000000018 9.5000000000000018 13.500000000000002 1.0000000180025095e-35 1.5000000000000002
decision_type=2 2 2 2 2 2 2 2 2 2 2 2 2 2 2 2 2 2 2 2 2 2 2 2 2 2 2 2 2 2
left_child=1 5 4 7 10 11 14 28 9 13 27 17 -13 22 -7 -6 21 18 -1 20 -20 -5 -4 24 25 -23 -8 -2 -3 -24
right_child=2 3 8 16 15 6 26 -9 -10 -11 -12 12 -14 -15 -16 -17 -18 -19 19 -21 -22 23 29 -25 -26 -27 -28 -29 -30 -31
leaf_value=-0.079694659165699122 0.01323153223116379 0.072298756286630766 0.042082288279850312 0.084452352973627298 0.082893136725534236 0.074371517446082697 0.013174632716734705 0.025572097907252428 0.20136738852597583 0.20660743926184355 0.079290174375652112 -0.093922952813999927 -0.058577932678290749 0.17527781184655164 -0.051962388409768169 0.1509059544814661 0.14462087395188372 -0.082305521100897602 0.11685275409893221 -0.094087955286153657 0.018173360179344327 0.14909628229133901 0.14472439147972077 0.10928244085640447 -0.033956929677496236 0.016090117923408344 0.11606214497510599 0.097246532005210592 -0.049952549219575398 0.087420792377742473
leaf_weight=289.46374942362309 353.30168311297894 16.546101719141006 59.040862902998924 157.38239935040474 107.72575774788857 25.792406216263771 201.61897599697113 236.24837784469128 521.99977326393127 265.75667192041874 321.7773119956255 2326.27499011904 515.92773377895355 143.42634774744511 846.71999031305313 369.73235195875168 47.821695417165756 358.03527681529522 66.966576144099236 40.383597306907177 53.507161989808083 24.251543864607811 142.94768871366978 35.18033042550087 75.55598346889019 74.586354613304138 28.554472774267197 40.920696452260017 673.41262695193291 134.33708597719669
leaf_count=2653 2494 115 366 1017 622 189 1535 1713 2349 1166 2041 21851 4510 675 7184 1857 273 3298 454 377 413 160 767 228 488 489 183 255 5732 731
internal_value=0 -0.545531 1.29611 -0.0007372 0.828621 -0.699229 -0.327464 -0.285045 1.7363 1.54208 0.477205 -0.811524 -0.87507 1.25181 -0.482278 1.35561 0.634126 -0.588094 -0.401285 0.310712 0.730253 0.528296 1.03817 0.290821 0.129034 0.487254 0.259385 0.219524 -0.470208 1.16962
internal_weight=0 6094.23 2460.97 1340.99 1193.46 4753.24 1102.69 926.207 1267.51 745.509 716 3650.56 2842.2 479.752 872.512 477.458 414.778 808.356 450.321 160.857 120.474 366.957 336.326 209.574 174.394 98.8379 230.173 394.222 689.959 277.285
internal_count=66185 52862 13323 10215 7269 42647 9091 7560 6054 3705 4790 33556 26361 2539 7373 2479 2655 7195 3897 1244 867 2382 1864 1365 1137 649 1718 2749 5847 1498
shrinkage=0.1


Tree=4
num_leaves=31
num_cat=0
split_feature=5 5 5 0 0 0 7 6 7 6 0 19 7 7 3 1 1 0 7 2 13 5 6 0 2 1 7 2 1 0
split_gain=4715.85 455.104 385.514 217.827 191.727 186.566 89.3075 78.8013 69.199 61.0075 61.8751 49.8877 52.1399 49.8486 34.3822 32.8521 109.894 68.551 31.1949 27.8656 24.3676 24.2271 23.3162 22.858 22.6024 22.4839 21.2855 20.4031 20.0734 40.6065
threshold=1.5000000000000002 1.0000000180025095e-35 3.5000000000000004 3.5000000000000004 3.5000000000000004 3.5000000000000004 1.5000000000000002 3.5000000000000004 11.500000000000002 11.500000000000002 3.5000000000000004 1.0000000180025095e-35 3.5000000000000004 13.500000000000002 -1.0000000180025095e-35 48.500000000000007 39.500000000000007 1.5000000000000002 3.5000000000000004 16.500000000000004 7.5000000000000009 4.5000000000000009 7.5000000000000009 2.5000000000000004 9.5000000000000018 54.500000000000007 1.0000000180025095e-35 1.0000000180025095e-35 23.500000000000004 2.5000000000000004
decision_type=2 2 2 2 2 2 2 2 2 2 2 2 2 2 2 2 2 2 2 2 2 2 2 2 2 2 2 2 2 2
left_child=1 5 3 13 7 11 14 27 24 10 21 15 -13 -2 -7 16 -1 26 20 -8 -6 -4 -9 -17 25 -5 -18 -3 29 -14
right_child=2 4 9 8 18 6 19 22 -10 -11 -12 12 28 -15 -16 23 17 -19 -20 -21 -22 -23 -24 -25 -26 -27 -28 -29 -30 -31
leaf_value=-0.076449021803222106 0.023789784980157463 0.061959017597061253 0.069783318594989374 0.07839144477521115 0.043975069538465986 0.064199514857512532 0.040415654124056455 0.0028631176176636924 0.16645923961230061 0.16918549517056169 0.17250267650115825 -0.091202861583421627 0.32987225575487722 0.077970142740219475 -0.054272947229364793 -0.098954940542306968 0.012382471353359719 -0.09135994086550471 0.081369614682003266 -0.016294821725565456 -0.04210898990007881 0.12745512417764757 0.072003361881379374 -0.044845447896013385 0.18523357065444407 0.1625527371992411 0.096160036773865712 -0.048031386115235136 -0.058216604254947901 -0.070132036573016435
leaf_weight=272.46909490972757 548.64428207278252 17.330899611115456 162.58781245350838 293.81970721483231 172.1428836286068 25.37920056283474 169.89464522898197 197.29497803747654 214.38442625105381 759.62227238714695 162.39587710797787 2164.4856371060014 4.0523757487535459 245.93105241656303 704.08116068691015 213.08533683419228 50.686216875910759 37.57619347423315 217.75503516197205 176.8224485591054 40.647105664014816 131.95990437269211 64.79280087351799 123.21526353806257 25.485083714127541 35.587555930018425 75.501891270279884 627.37450563162565 483.10890345275402 6.7904674708843231
leaf_count=2653 3749 115 867 1477 1110 177 1250 1539 936 3266 712 21851 37 1365 6241 2089 395 377 1279 1423 266 653 433 1209 127 171 472 5473 4411 62
internal_value=0 -0.514175 1.10892 0.743865 -0.00188923 -0.666178 -0.302906 -0.262791 1.21601 1.51817 1.22944 -0.780124 -0.845127 0.405593 -0.501511 -0.556436 -0.375374 0.272033 0.547609 0.114938 0.275313 0.956208 0.199558 -0.791301 0.945033 0.874838 0.625089 -0.450746 -0.551965 0.793645
internal_weight=0 5844.49 2580.42 1363.85 1337.34 4507.15 1076.18 906.793 569.277 1216.57 456.944 3430.97 2658.44 794.575 729.46 772.534 436.233 163.764 430.545 346.717 212.79 294.548 262.088 336.301 354.892 329.407 126.188 644.705 493.952 10.8428
internal_count=66185 52862 13323 7825 10215 42647 9091 7560 2711 5498 2232 33556 26361 5114 6418 7195 3897 1244 2655 2673 1376 1520 1972 3298 1775 1648 867 5588 4510 99
shrinkage=0.1


Tree=5
num_leaves=31
num_cat=0
split_feature=5 5 6 0 0 0 6 6 19 5 0 0 5 6 0 5 6 1 1 0 10 6 1 0 2 0 5 0 5 0
split_gain=3787.84 405.037 298.49 174.87 152.96 137.715 75.2986 66.4219 47.8031 44.1307 56.8186 49.0625 43.5823 41.8255 39.067 37.1001 35.2058 31.8857 83.7723 80.6801 29.842 24.8683 23.1792 23.1029 22.4672 22.2363 21.0794 20.5616 20.4775 20.2083
threshold=1.5000000000000002 1.0000000180025095e-35 9.5000000000000018 3.5000000000000004 3.5000000000000004 3.5000000000000004 1.5000000000000002 3.5000000000000004 1.0000000180025095e-35 7.5000000000000009 3.5000000000000004 2.5000000000000004 2.5000000000000004 1.5000000000000002 4.5000000000000009 2.5000000000000004 13.500000000000002 37.500000000000007 48.500000000000007 1.5000000000000002 4.5000000000000009 2.5000000000000004 51.500000000000007 1.5000000000000002 1.5000000000000002 2.5000000000000004 4.5000000000000009 1.5000000000000002 5.5000000000000009 5.5000000000000009
decision_type=2 2 2 2 2 2 2 2 2 2 2 2 2 2 2 2 2 2 2 2 2 2 2 2 2 2 2 2 2 2
left_child=1 3 5 8 7 12 14 27 17 10 11 16 -2 23 -5 29 20 -1 19 -19 -4 24 -8 -10 -6 -20 -13 -3 -14 -7
right_child=2 4 9 6 21 15 22 -9 13 -11 -12 26 28 -15 -16 -17 -18 18 25 -21 -22 -23 -24 -25 -26 -27 -28 -29 -30 -31
leaf_value=-0.091448828141797611 0.017786377607244847 -0.060152927881652551 0.15772826495762715 -0.008473613820832197 0.1076120597691953 0.09360909019594453 0.010175332640900257 0.01769247572270059 -0.095787075834821239 0.1710256969045614 0.16328128476740802 0.020834524412166953 0.056265005903713528 -0.054183751252577531 -0.054757586145927364 0.1295389334390559 0.14770229763622786 0.054116494929664576 -0.096598421078118418 -0.057736007292480365 0.075270390223520611 0.073815520553784639 0.094024559612499642 -0.073647710065394889 0.01493233694254742 -0.041866216380667134 0.090922827259317163 -0.023832362393439502 0.13571050047635325 0.034736053345320962
leaf_weight=164.26925278455019 431.49086141586304 312.49693956971169 58.2477066218853 262.53422896564007 29.794294893741608 244.84251660108566 149.82856631278992 265.44799316674471 1290.0882314667106 244.33625712990761 261.28566037118435 70.046669006347656 391.94189354777336 455.87840796262026 597.23493889719248 276.76729562878609 287.35055701434612 135.13450822979212 197.27218943089247 123.35229373723269 178.05343332886696 199.97888812422752 42.269675716757774 742.68732831627131 214.22781009972095 119.01105581969023 110.76756936311722 310.97173603624105 35.372272610664368 76.527143567800522
leaf_count=1701 2894 2831 276 2206 178 1154 1065 1972 13935 991 1057 354 2283 4508 5546 1224 1205 910 2089 1286 859 1106 274 7918 1371 1209 474 2757 164 388
internal_value=0 -0.483951 0.96351 -0.633875 -0.00259335 0.658623 -0.279777 -0.242007 -0.749272 1.33059 1.23454 1.08682 0.402043 -0.81559 -0.406246 1.02702 1.24189 -0.525951 -0.414907 0.00739446 0.955961 0.476726 0.286257 -0.876983 0.262482 -0.760038 0.637709 -0.420371 0.628414 0.795898
internal_weight=0 5612.48 2667.03 4279.56 1332.92 1456.94 1051.87 888.917 3227.69 1210.09 965.752 704.466 858.805 2488.65 859.769 598.137 523.652 739.039 574.77 258.487 236.301 444.001 192.098 2032.78 244.022 316.283 180.814 623.469 427.314 321.37
internal_count=66185 52862 13323 42647 10215 8107 9091 7560 33556 5216 4225 3168 5341 26361 7752 2766 2340 7195 5494 2196 1135 2655 1339 21853 1549 3298 828 5588 2447 1542
shrinkage=0.1


Tree=6
num_leaves=31
num_cat=0
split_feature=5 5 6 0 0 6 0 6 6 19 0 6 0 1 1 0 5 5 0 0 2 0 0 1 1 6 0 0 10 2
split_gain=3069.06 359.448 247.033 163.097 122.521 80.5183 103.641 62.928 58.5425 45.6491 44.015 41.0934 34.4197 29.9476 74.5497 65.919 25.9996 24.0936 23.6618 23.289 22.4078 21.5912 20.2761 28.0619 41.891 19.161 20.0523 35.7146 20.3695 19.1368
threshold=1.5000000000000002 1.0000000180025095e-35 5.5000000000000009 3.5000000000000004 3.5000000000000004 11.500000000000002 3.5000000000000004 1.5000000000000002 5.5000000000000009 1.0000000180025095e-35 3.5000000000000004 1.5000000000000002 4.5000000000000009 37.500000000000007 48.500000000000007 1.5000000000000002 7.5000000000000009 4.5000000000000009 1.5000000000000002 1.5000000000000002 1.0000000180025095e-35 2.5000000000000004 2.5000000000000004 53.500000000000007 36.500000000000007 5.5000000000000009 5.5000000000000009 6.5000000000000009 25.500000000000004 12.500000000000002
decision_type=2 2 2 2 2 2 2 2 2 2 2 2 2 2 2 2 2 2 2 2 2 2 2 2 2 2 2 2 2 2
left_child=1 3 10 9 8 6 17 12 18 13 20 19 -5 -1 15 -15 -7 22 -3 -11 -2 -16 23 24 -4 26 28 -28 -6 -22
right_child=2 4 5 7 25 16 -8 -9 -10 11 -12 -13 -14 14 21 -17 -18 -19 -20 -21 29 -23 -24 -25 -26 -27 27 -29 -30 -31
leaf_value=-0.088832617954309967 0.22215966783733962 -0.05302915632438833 0.021522102848314458 -0.0076756413081136496 0.081442414587558881 0.11475337428200079 0.11989300790571183 0.025258687121994507 0.037486206439330733 -0.093478258521243307 0.065837968574545644 -0.050976193562173082 -0.051492302913593482 0.047024125271689685 -0.094293193133743791 -0.054524007770397155 0.15306273617609883 0.094749106177877351 -0.017003567741340909 -0.070511731504016933 0.0076937478817599271 -0.039004715293709857 0.0086812774550893198 0.007028979810704882 0.10177751804089769 0.09685474993719051 -0.039453118242954582 0.076884464138983782 0.026585344626989461 0.089076889123662351
leaf_weight=152.79220021516085 5.2000149935483924 335.82533569633961 101.43063680827618 260.93346013873816 113.14897130429745 673.5396491587162 466.96862705051899 195.47338695824146 138.13374276459217 1194.6897525414824 287.70412515103817 437.10934317857027 572.89639852195978 139.70189443230629 182.64177596569061 117.84993728250265 240.38220332562923 133.72945602238178 398.84484291821718 700.37144789844751 414.51837515830994 115.17451919615269 108.30289714038372 83.584169670939445 181.27481670677662 55.412010505795479 78.661219745874405 39.708836644887924 168.473084166646 31.058484956622124
leaf_count=1701 34 3134 571 2206 658 2829 1944 1339 934 13935 1374 4508 5546 910 2089 1286 963 605 3492 7918 2718 1209 619 468 993 273 488 228 1008 205
internal_value=0 -0.454727 0.846704 -0.602149 -0.0030243 1.03007 0.844585 -0.258089 -0.222412 -0.718631 0.35279 -0.786152 -0.377806 -0.496264 -0.3884 0.00557979 1.2483 0.572578 -0.334712 -0.849904 0.15775 -0.729115 0.466936 0.579329 0.72983 0.417443 0.341097 -0.00426102 0.486256 0.133665
internal_weight=0 5397.84 2727.69 4069.63 1328.21 1989.21 1075.29 1029.3 872.804 3040.33 738.481 2332.17 833.83 708.16 555.368 257.552 913.922 608.322 734.67 1895.06 450.777 297.816 474.593 366.29 282.705 455.404 399.992 118.37 281.622 445.577
internal_count=66185 52862 13323 42647 10215 8992 5200 9091 7560 33556 4331 26361 7752 7195 5494 2196 3792 3256 6626 21853 2957 3298 2651 2032 1564 2655 2382 716 1666 2923
shrinkage=0.1


Tree=7
num_leaves=31
num_cat=0
split_feature=6 5 5 0 0 0 7 0 19 0 0 5 0 0 1 1 0 2 5 7 6 1 0 1 3 7 0 22 2 7
split_gain=2545.64 279.364 275.295 128.52 98.8613 88.6884 67.8771 72.3932 44.8697 38.2295 29.8694 29.3325 28.2427 30.2348 27.8891 57.4303 62.2278 27.4542 26.9355 26.6644 23.0196 22.3808 27.0072 21.6942 25.5393 20.9543 20.7673 22.5288 20.3779 19.8672
threshold=3.5000000000000004 2.5000000000000004 1.0000000180025095e-35 3.5000000000000004 3.5000000000000004 3.5000000000000004 23.500000000000004 3.5000000000000004 1.0000000180025095e-35 4.5000000000000009 1.5000000000000002 1.0000000180025095e-35 5.5000000000000009 6.5000000000000009 37.500000000000007 48.500000000000007 1.5000000000000002 2.5000000000000004 4.5000000000000009 11.500000000000002 1.5000000000000002 52.500000000000007 2.5000000000000004 31.500000000000004 298.50000000000006 3.5000000000000004 2.5000000000000004 1.0000000180025095e-35 5.5000000000000009 1.5000000000000002
decision_type=2 2 2 2 2 2 2 2 2 2 2 2 2 2 2 2 2 2 2 2 2 2 2 2 2 2 2 2 2 2
left_child=2 4 3 8 11 17 7 18 14 25 -10 -2 -9 -14 -1 16 -16 -4 26 -6 -19 22 23 -13 -25 -5 27 -3 -17 -11
right_child=1 6 5 9 19 -7 -8 12 10 29 -12 21 13 -15 15 28 -18 20 -20 -21 -22 -23 -24 24 -26 -27 -28 -29 -30 -31
leaf_value=-0.088831227900359869 -0.026176411905191904 0.046422377926166936 0.0055436935212533622 -0.011319462455071504 0.052455942999251139 0.029409498581580679 0.12157324475814404 0.12802698165510717 -0.089008554262058878 -0.053814447953008805 -0.064533112115165561 -0.012373060928679451 0.03282616480213791 0.13243198641994147 0.040402521671221187 -0.025452206150715369 -0.060941569377982598 -0.061821790042977567 0.085758959939998769 0.10383566236090253 -0.021487175279234858 -0.014851253058495762 -0.008345293615413401 0.051505544793145563 0.21129577285858586 0.06029576143597154 0.011252942332955304 0.10709252181444395 -0.087319443509335834 -0.013743656643922986
leaf_weight=136.14896032214165 169.60372021794319 283.69409258663654 205.99621573835611 271.27518537640572 309.48861822485924 450.67300999164581 609.03889361023903 327.68714055418968 1191.6134439781308 459.3154079914093 857.37183979898691 52.938753619790077 76.505590587854385 50.650158539414406 140.76987978816032 73.639862284064293 106.37076039612293 227.68035580962896 301.33197990059853 149.94231018424034 373.79759433120489 134.59117048233747 123.81223713606596 270.26574192941189 10.386911436915396 48.101042784750462 118.3461384922266 78.042430549860001 192.18771146982908 169.35170151293278
leaf_count=1630 1773 1484 1693 2277 1522 2573 2473 1333 14879 4686 10043 345 326 207 894 828 1213 2214 1285 665 3151 907 846 1777 68 344 644 397 2296 1412
internal_value=0 0.696951 -0.464624 -0.603798 0.325889 -0.0612918 0.942482 0.807866 -0.715087 -0.287072 -0.787671 0.104887 1.12505 0.725023 -0.485971 -0.379185 -0.0321656 -0.259643 0.623244 0.692245 -0.367552 0.209931 0.315403 0.463438 0.574194 -0.00533541 0.476153 0.595116 -0.701809 -0.430201
internal_weight=0 3066.33 4904.29 3646.15 1221.03 1258.15 1845.3 1236.26 2698.1 948.043 2048.99 761.599 454.843 127.156 649.117 512.968 247.141 807.474 781.415 459.431 601.478 591.995 457.404 333.591 280.653 319.376 480.083 361.737 265.828 628.667
internal_count=66185 16052 50133 40502 7903 9631 8149 5676 31783 8719 24922 5716 1866 533 6861 5231 2107 7058 3810 2187 5365 3943 3036 2190 1845 2621 2525 1881 3124 6098
shrinkage=0.1


Tree=8
num_leaves=31
num_cat=0
split_feature=6 5 5 0 0 0 7 19 7 0 5 0 0 7 5 1 1 0 2 0 1 1 0 2 0 1 2 10 2 7
split_gain=2088.03 245.673 227.107 128.05 120.161 72.2674 44.0843 42.748 38.7619 34.3681 33.4379 32.8442 29.7895 26.4775 26.1707 26.1484 51.0182 51.708 25.375 20.6836 19.0554 18.833 48.9478 18.5453 21.7042 29.1807 21.1876 18.5581 18.2434 17.6678
threshold=3.5000000000000004 1.0000000180025095e-35 3.5000000000000004 3.5000000000000004 3.5000000000000004 3.5000000000000004 13.500000000000002 1.0000000180025095e-35 26.500000000000004 3.5000000000000004 1.0000000180025095e-35 4.5000000000000009 1.5000000000000002 16.500000000000004 2.5000000000000004 37.500000000000007 48.500000000000007 1.5000000000000002 1.0000000180025095e-35 2.5000000000000004 52.500000000000007 23.500000000000004 2.5000000000000004 1.5000000000000002 5.5000000000000009 41.500000000000007 10.500000000000002 18.500000000000004 16.500000000000004 1.5000000000000002
decision_type=2 2 2 2 2 2 2 2 2 2 2 2 2 2 2 2 2 2 2 2 2 2 2 2 2 2 2 2 2 2
left_child=1 4 3 10 7 14 -5 15 9 -4 -2 28 -9 -12 18 -1 17 -17 -3 -18 -15 22 -14 -7 25 26 27 -25 -6 -13
right_child=2 5 8 6 11 23 -8 12 -10 -11 13 29 21 20 -16 16 19 -19 -20 -21 -22 -23 -24 24 -26 -27 -28 -29 -30 -31
leaf_value=-0.08635398712392009 -0.02407507502864116 0.080143323677380737 0.068355972184498751 0.056253700803596575 0.022874343773750149 0.076829204293511255 0.11168114095913949 -0.086602142245961591 0.11741900280781824 0.11230883816907998 0.014427867616582952 -0.050639186904984826 0.26336250794534899 0.066276488113935758 0.056974829164253393 0.035463786487227915 -0.0908766530626436 -0.057781085323368786 -0.031076354327915581 -0.032432802962428814 -0.0057718032639128168 -0.06380429167370115 -0.072879226347734152 0.047792680055404373 -0.019659514398825052 0.09184557339214168 0.096511033562546963 -0.018183001705360979 -0.024959028137380344 -0.012497689071775528
leaf_weight=126.547626927495 166.1543997451663 21.104505836963654 607.89609287679195 507.33720265328884 163.14912204444408 62.130241692066193 200.08628167212009 1106.6597866341472 451.02615997195244 251.50558938086033 669.40871094912291 440.31885072588921 6.3661101385951051 198.35028791427612 38.109650239348412 144.14414052665234 149.02300824970007 101.24218206107616 732.74273937195539 102.00314434617758 45.045466840267181 793.50674200057983 13.532573029398918 63.571968138217926 110.09038278460503 64.396734267473221 28.08204910159111 129.45433169603348 155.94881504029036 167.70259290933609
leaf_count=1630 1773 137 2655 2331 1294 325 834 14879 1822 1021 4368 4686 64 1014 244 894 1969 1213 6677 1155 234 9812 167 345 653 354 159 737 1327 1412
internal_value=0 -0.436114 0.6206 0.388659 -0.573026 -0.0559343 0.719307 -0.685383 0.936783 0.812189 0.171869 -0.264838 -0.759234 0.246976 -0.238754 -0.457763 -0.354321 -0.0300745 -0.279627 -0.671283 0.529424 -0.613947 0.346933 0.26038 0.18061 0.32606 0.153528 0.0354566 -0.00502673 -0.401191
internal_weight=0 4719.83 3096.81 1786.38 3470.14 1249.68 707.423 2543.03 1310.43 859.402 1078.96 927.119 1920.07 912.804 791.957 622.96 496.412 245.386 753.847 251.026 243.396 813.405 19.8987 457.726 395.595 285.505 221.108 193.026 319.098 608.021
internal_count=66185 50133 16052 10554 40502 9631 3165 31783 5498 3676 7389 8719 24922 5616 7058 6861 5231 2107 6814 3124 1248 10043 231 2573 2248 1595 1241 1082 2621 6098
shrinkage=0.1


Tree=9
num_leaves=31
num_cat=0
split_feature=6 5 5 0 0 0 7 19 0 0 7 1 1 0 3 5 0 1 5 0 0 0 7 3 0 5 0 0 0 3
split_gain=1717.62 218.13 189.976 111.844 60.0116 58.796 54.3818 40.5564 37.4376 29.5191 29.3007 24.4188 45.1937 43.0216 23.6588 22.1055 21.8782 25.1625 20.1785 19.8739 19.6773 40.019 20.5971 19.2845 22.5894 19.2827 25.7157 29.3313 17.1591 26.6633
threshold=3.5000000000000004 1.0000000180025095e-35 2.5000000000000004 3.5000000000000004 3.5000000000000004 3.5000000000000004 18.500000000000004 1.0000000180025095e-35 3.5000000000000004 1.5000000000000002 1.5000000000000002 37.500000000000007 48.500000000000007 1.5000000000000002 -1.0000000180025095e-35 1.5000000000000002 2.5000000000000004 52.500000000000007 4.5000000000000009 2.5000000000000004 6.5000000000000009 5.5000000000000009 10.500000000000002 60.500000000000007 1.5000000000000002 7.5000000000000009 3.5000000000000004 2.5000000000000004 5.5000000000000009 97.500000000000014
decision_type=2 2 2 2 2 2 2 2 2 2 2 2 2 2 2 2 2 2 2 2 2 2 2 2 2 2 2 2 2 2
left_child=1 3 4 7 16 15 8 11 18 -9 14 -1 13 -13 -5 -3 17 23 -4 -14 21 22 -6 -2 -25 26 27 -8 29 -12
right_child=2 5 6 10 20 -7 25 9 -10 -11 28 12 19 -15 -16 -17 -18 -19 -20 -21 -22 -23 -24 24 -26 -27 -28 -29 -30 -31
leaf_value=-0.083869663991008203 0.020564650222304675 -0.032362112639920705 0.030978522009455833 0.056215976929519899 0.042710012392501218 0.023070956596196401 0.08783908396767294 -0.084184157019861372 0.084705071214754013 -0.058324042898590271 0.012337953249594132 0.031238510993797222 -0.088655152490758282 -0.054669836145333585 -0.040634490396497441 0.0053152741323502315 -0.020786804620526584 -0.019038569506318295 0.069566873369120513 -0.030006636934717359 0.1117700678803598 -0.01466584728439823 0.093721931002692355 0.17242528903643181 0.043558748004562726 0.11951935156664886 0.12137610336365919 0.032672803272769349 -0.029770651786884018 0.19237909839169637
leaf_weight=117.72501643002033 364.59134689718485 562.26831883192062 401.35439004004002 26.335729345679283 214.21850709617138 463.41021421551704 409.03013080358505 1028.6527720689774 360.50832626223564 773.2018728107214 170.55985264480114 147.10852654278278 138.04958403855562 96.5527618303895 596.74554754793644 215.36204700171947 196.52558447420597 139.69887676090002 204.587765365839 99.36832794547081 51.109331205487251 86.391457587480545 125.53749398887157 18.584097974002361 50.747432395815849 214.32200954854488 152.61371096968651 126.08997352421284 105.77325580269098 8.6424403563141805
leaf_count=1630 2633 5588 2085 177 999 2573 1695 14879 1473 10043 1338 894 1969 1213 6241 1470 1531 1070 859 1155 232 421 535 128 354 884 624 529 899 64
internal_value=0 -0.408769 0.554954 -0.542868 0.25275 -0.0512486 0.756704 -0.655944 0.591885 -0.730872 -0.243927 -0.430477 -0.330582 -0.0280337 -0.365409 -0.219275 0.0800853 0.17874 0.440073 -0.641085 0.531378 0.461058 0.615586 0.297577 0.78101 0.933288 0.85167 0.748403 0.0216877 0.210208
internal_weight=0 4549.76 3115.91 3308.72 1247.4 1241.04 1868.51 2400.66 966.45 1801.85 908.057 598.804 481.079 243.661 623.081 777.63 770.147 573.622 605.942 237.418 477.257 426.147 339.756 433.923 69.3315 902.056 687.734 535.12 284.976 179.202
internal_count=66185 50133 16052 40502 7903 9631 8149 31783 4417 24922 8719 6861 5231 2107 6418 7058 5716 4185 2944 3124 2187 1955 1534 3115 482 3732 2848 2224 2301 1402
shrinkage=0.1


Tree=10
num_leaves=31
num_cat=0
split_feature=5 7 0 7 0 0 19 0 7 5 5 0 0 5 1 0 0 0 13 2 13 2 12 1 1 2 0 7 7 2
split_gain=1418.47 226.444 127.932 124.278 68.2501 46.8726 46.8616 29.4101 28.8563 27.7483 26.5536 29.25 30.7428 24.0331 23.1191 42.2162 22.9895 42.2681 28.3612 21.3499 19.2866 19.0154 17.713 17.3441 42.6526 26.4793 25.0529 16.0573 15.641 19.0183
threshold=1.5000000000000002 3.5000000000000004 3.5000000000000004 16.500000000000004 3.5000000000000004 3.5000000000000004 1.0000000180025095e-35 1.5000000000000002 1.0000000180025095e-35 1.0000000180025095e-35 7.5000000000000009 3.5000000000000004 2.5000000000000004 4.5000000000000009 62.500000000000007 5.5000000000000009 5.5000000000000009 6.5000000000000009 2.5000000000000004 2.5000000000000004 4.5000000000000009 3.5000000000000004 2.5000000000000004 37.500000000000007 48.500000000000007 4.5000000000000009 1.5000000000000002 10.500000000000002 1.0000000180025095e-35 2.5000000000000004
decision_type=2 2 2 2 2 2 2 2 2 2 2 2 2 2 2 2 2 2 2 2 2 2 2 2 2 2 2 2 2 2
left_child=1 2 6 5 9 13 23 -8 -4 -3 11 12 20 -2 15 22 18 -18 -7 -10 -5 -9 -6 -1 26 -26 28 -11 -25 -30
right_child=3 4 8 10 14 16 7 21 19 27 -12 -13 -14 -15 -16 -17 17 -19 -20 -21 -22 -23 -24 24 25 -27 -28 -29 29 -31
leaf_value=-0.072020258877678642 0.016397513411428418 -0.03252542781647208 -0.038980270740339433 0.087830366052263395 0.066401046434865316 0.091902138102274475 -0.080509205665920847 -0.029656976992748493 0.044806186763105729 -0.011973367906735801 0.11145342917556544 0.10351952947368281 0.024066222057501377 0.05803921295048621 0.11023578828862841 -0.024867466323767268 -0.017032968931255481 0.083980758694844795 0.044540241367216321 -0.012355327017977482 0.047970264736085858 -0.065330234811507237 0.014683606841238109 -0.010179074299586878 -0.01001612064835266 -0.081621952284369498 -0.044343433107354752 0.027927751176191659 0.44470095367680307 0.050437043421979438
leaf_weight=113.01881639659405 828.61050109565258 489.65761967748404 436.95212954282761 347.56173177063465 170.89756340533495 252.45582814514637 1074.0551008433104 218.33245880901814 75.11443554610014 287.67274341732264 216.98050636053085 229.71752384305 161.06764782965183 166.43566213548183 34.694861337542534 118.57318177819252 98.0274578332901 71.739224582910538 253.28411974012852 502.20078697800636 186.53935387730598 473.44111634790897 108.12300094217062 61.778142236173153 77.261400744318962 155.7451701387763 72.08936346322298 155.30545998364687 1.2422131672501553 81.141083508729935
leaf_count=1629 4919 5794 4651 1472 949 1059 15978 2850 453 2597 915 954 696 695 180 727 445 305 1066 4174 797 6350 612 422 912 2194 920 995 11 464
internal_value=0 -0.352169 -0.492329 0.545435 -0.0089528 0.371641 -0.621462 -0.70152 -0.195922 -0.161193 0.799696 0.725834 0.623606 0.233627 0.319495 0.251181 0.57494 0.256529 0.681824 -0.0491805 0.739089 -0.540713 0.463601 -0.370038 -0.281947 -0.578786 0.037891 0.0201572 0.278583 0.563819
internal_weight=0 4707.3 3342.37 2812.42 1364.92 1670.55 2328.1 1765.83 1014.27 932.636 1141.87 924.886 695.169 995.046 432.289 397.594 675.507 169.767 505.74 577.315 534.101 691.774 279.021 562.276 449.257 233.007 216.251 442.978 144.161 82.3833
internal_count=66185 52862 41008 13323 11854 8489 31730 25178 9278 9386 4834 3919 2965 5614 2468 2288 2875 750 2125 4627 2269 9200 1561 6552 4923 3106 1817 3592 897 475
shrinkage=0.1


Tree=11
num_leaves=31
num_cat=0
split_feature=6 5 0 0 5 7 0 19 6 2 6 0 0 0 0 0 7 5 0 10 0 2 19 7 8 21 6 2 0 13
split_gain=1195.06 202.379 128.817 63.458 56.7751 47.7852 41.5585 37.8216 37.7349 37.1346 27.9063 26.161 21.1933 21.4189 19.0555 33.9466 19.7108 18.8232 17.8527 27.8233 22.6047 21.0749 17.6913 17.3996 17.2123 16.5051 15.8484 15.2955 16.963 14.3907
threshold=2.5000000000000004 2.5000000000000004 3.5000000000000004 3.5000000000000004 1.0000000180025095e-35 26.500000000000004 3.5000000000000004 1.0000000180025095e-35 1.0000000180025095e-35 1.5000000000000002 5.5000000000000009 1.5000000000000002 5.5000000000000009 6.5000000000000009 6.5000000000000009 5.5000000000000009 10.500000000000002 5.5000000000000009 5.5000000000000009 2.5000000000000004 6.5000000000000009 1.5000000000000002 1.5000000000000002 3.5000000000000004 76.500000000000014 1.0000000180025095e-35 9.5000000000000018 3.5000000000000004 2.5000000000000004 9.5000000000000018
decision_type=2 2 2 2 2 2 2 2 2 2 2 2 2 2 2 2 2 2 2 2 2 2 2 2 2 2 2 2 2 2
left_child=2 3 4 10 7 6 17 -1 25 -6 -2 -9 22 -14 15 16 -5 29 19 -10 -20 -22 -8 -21 -13 -4 -24 -12 -29 -3
right_child=1 5 8 14 9 -7 12 11 18 -11 27 24 13 -15 -16 -17 -18 -19 20 23 21 -23 26 -25 -26 -27 -28 28 -30 -31
leaf_value=-0.038435047157715597 -0.013926689411270449 0.03938677228189795 -0.035991033124591128 0.031807168733504303 0.035185412108028752 0.089620024262942688 0.1232889508304415 -0.080489898329089607 0.080525418669477475 -0.036208425813887099 0.049436566847100127 -0.054482444873148184 0.014768007413511031 0.0943625381559062 0.086204329433553176 -0.015904304588782333 0.077420579037212042 0.06643776842387096 -0.049574655240789509 -0.0058541698995782515 0.17290059535031158 0.002656128807145984 0.0544077749242102 0.049372055545847567 0.42445757013855601 0.044250187838214723 0.10761042310977363 0.02116247858212204 -0.03412502008382387 0.0025297432897770935
leaf_weight=540.0610341578722 643.58724221587181 619.02294470369816 533.52811317145824 343.82838176190853 87.284366399049759 461.10658115148544 108.36356608569622 875.88144613802433 56.731757946312428 440.69098927825689 120.13738438487053 641.79702223092318 91.257915988564491 53.705367222428322 74.416007444262505 116.32070595026016 130.76860611140728 218.68451942503452 113.13192054629326 286.4450263902545 8.2738982737064344 60.014541879296303 147.92117649316788 71.236709341406822 0.75125127285718818 26.928190812468529 90.093274220824242 217.27877728641033 74.529877118766308 127.8073703199625
leaf_count=6623 5872 2967 5856 1652 756 1948 449 14615 346 4517 703 9217 387 223 350 610 554 887 891 2037 41 462 601 435 11 178 385 1442 557 613
internal_value=0 0.392249 -0.412559 0.143279 -0.536602 0.615635 0.526834 -0.611636 -0.135092 -0.244057 -0.00918053 -0.692475 0.763594 0.442558 0.385151 0.325094 0.443753 0.406348 0.0401126 0.154642 -0.221503 0.232831 0.897952 0.0514481 -0.539225 -0.321357 0.745461 0.194055 0.0704168 0.330793
internal_weight=0 3638.83 3742.76 1720.87 2586.47 1917.96 1456.86 2058.49 1156.29 527.975 1055.53 1518.43 491.341 144.963 665.334 590.918 474.597 965.515 595.834 414.413 181.42 68.2884 346.378 357.682 642.548 560.456 238.014 411.946 291.809 746.83
internal_count=66185 20200 45985 11740 35739 8460 6512 30466 10246 5273 8574 23843 2045 610 3166 2816 2206 4467 4212 2818 1394 503 1435 2472 9228 6034 986 2702 1999 3580
shrinkage=0.1


Tree=12
num_leaves=31
num_cat=0
split_feature=6 6 0 5 5 0 0 19 6 0 4 1 2 5 0 1 1 1 0 0 1 2 19 0 1 2 7 6 12 1
split_gain=990.128 167.799 114.738 52.2684 43.3503 59.8796 38.3925 36.1978 31.5931 31.1443 34.4573 32.8309 30.7108 29.5082 25.7003 25.2424 22.128 36.2847 35.5918 21.2296 18.9176 18.2788 16.3722 18.8312 16.3252 15.9873 15.9552 15.7576 15.9676 15.7125
threshold=2.5000000000000004 6.5000000000000009 3.5000000000000004 1.0000000180025095e-35 6.5000000000000009 3.5000000000000004 3.5000000000000004 1.0000000180025095e-35 1.0000000180025095e-35 2.5000000000000004 1.0000000180025095e-35 52.500000000000007 1.5000000000000002 1.5000000000000002 1.5000000000000002 36.500000000000007 37.500000000000007 48.500000000000007 1.5000000000000002 2.5000000000000004 38.500000000000007 25.500000000000004 1.0000000180025095e-35 1.5000000000000002 53.500000000000007 2.5000000000000004 18.500000000000004 13.500000000000002 4.5000000000000009 23.500000000000004
decision_type=2 2 2 2 2 2 2 2 2 2 2 2 2 2 2 2 2 2 2 2 2 2 2 2 2 2 2 2 2 2
left_child=2 6 3 7 5 9 13 16 -4 10 -3 15 -5 -2 -9 -12 -1 18 -18 -19 -17 -8 23 -22 -21 -11 -7 -13 -29 -16
right_child=1 4 8 12 -6 26 21 14 -10 25 11 27 -14 -15 29 20 17 19 -20 24 22 -23 -24 -25 -26 -27 -28 28 -30 -31
leaf_value=-0.078989380829178557 -0.01787858780965813 0.08421746485735887 -0.029734334183477741 0.030846311854580866 0.085812534071638857 0.064360963789649214 0.028348135310575607 -0.078031966720111826 0.0035590560037437238 0.036013318399254285 0.016301391654670993 -0.024930494463732005 -0.033564632485570359 0.016560461469097558 0.047349502380921775 0.13397653860381772 0.031098381840371333 -0.085532217657651163 -0.05159682262004011 -0.092070304804712899 0.074025525779007645 0.1549350235380641 0.06482046878313448 -0.062063261805801011 0.0055499141656227382 -0.013949696390384937 0.10261699440215388 0.083726183660745385 -0.041465615873026059 -0.053551321728260375
leaf_weight=96.338285461068153 496.56771428883076 171.3832039386034 546.11915181577206 89.48123462498188 369.20929816365242 360.82953299582005 639.68903009593487 816.23092789575458 596.15612908452749 103.91556224226952 176.80574335902929 115.72129879891872 428.52118108421564 498.61435385048389 15.8421164304018 33.923980049788952 145.48884344100952 113.02716706693172 81.035131357610226 23.240442037582397 17.930213570594788 11.614052310585974 245.52661141753197 23.487290523946285 65.164712406694889 166.915377818048 156.21807020902634 31.933633431792259 14.961096510291098 597.91708619892597
leaf_count=1573 5037 797 6034 756 1591 1514 3017 14615 4212 471 874 598 4517 2973 206 156 881 1908 1139 300 84 53 1144 108 822 908 679 134 62 9022
internal_value=0 0.353421 -0.385698 -0.506803 0.548907 0.478414 0.117297 -0.581661 -0.123584 0.346735 0.442647 0.338946 -0.224381 -0.0062365 -0.664069 0.466409 -0.356898 -0.259425 0.0151557 -0.568209 0.633586 0.306054 0.550098 -0.0314853 -0.20113 0.0522069 0.759194 -0.0511437 0.437855 -0.509469
internal_weight=0 3635.25 3614.56 2472.29 1988.76 1619.55 1646.49 1954.28 1142.28 1102.5 831.673 660.29 518.002 995.182 1429.99 497.674 524.295 427.956 226.524 201.432 320.868 651.303 286.944 41.4175 88.4052 270.831 517.048 162.616 46.8947 613.759
internal_count=66185 20200 45985 35739 9120 7529 11080 30466 10246 5336 3957 3160 5273 8010 23843 2366 6623 5050 2020 3030 1492 3070 1336 192 1122 1379 2193 794 196 9228
shrinkage=0.1


Tree=13
num_leaves=31
num_cat=0
split_feature=6 5 5 2 6 2 6 3 2 7 5 2 7 19 17 3 2 9 3 7 3 19 13 4 11 8 19 10 8 3
split_gain=820.172 146.047 80.5358 40.1869 39.6893 30.1131 27.9296 21.616 20.8215 19.2896 18.7983 24.9611 17.6785 19.3248 13.411 12.1072 11.3494 18.1667 15.4959 12.3993 11.065 11.0114 10.9307 11.3278 10.4914 10.4448 11.3709 10.2803 13.2334 11.7037
threshold=2.5000000000000004 3.5000000000000004 1.0000000180025095e-35 18.500000000000004 5.5000000000000009 1.5000000000000002 17.500000000000004 -1.0000000180025095e-35 10.500000000000002 3.5000000000000004 1.0000000180025095e-35 10.500000000000002 1.5000000000000002 2.5000000000000004 31.500000000000004 51.500000000000007 3.5000000000000004 108.50000000000001 213.50000000000003 11.500000000000002 471.50000000000006 1.5000000000000002 7.5000000000000009 19.500000000000004 8.5000000000000018 2.5000000000000004 1.0000000180025095e-35 108.50000000000001 28.500000000000004 2.5000000000000004
decision_type=2 2 2 2 2 2 2 2 2 2 2 2 2 2 2 2 2 2 2 2 2 2 2 2 2 2 2 2 2 2
left_child=2 4 3 7 10 14 25 -1 22 -9 20 27 13 15 -4 -5 17 18 19 21 -2 -6 23 -7 -18 26 -3 28 -12 -30
right_child=1 6 5 12 16 8 -8 9 -10 -11 11 -13 -14 -15 -16 -17 24 -19 -20 -21 -22 -23 -24 -25 -26 -27 -28 -29 29 -31
leaf_value=0.051352666524448067 -0.020062370563543999 0.10470193342769606 0.049188741553053542 -0.055913090837550583 0.058439956418467769 -0.00267687225008479 0.083976305368274509 -0.03695708049276749 0.023275666414834556 0.0054750077229049439 0.009471903654221174 0.060358936805814417 -0.038035486611304209 -0.075238870716264214 -0.028449407885170593 -0.019929405891093953 0.020103692560718995 -0.055024106940624998 0.11023657393488354 0.053036685964717251 0.11693974933005898 -0.0023602068380348868 -0.050690763775368998 -0.033993023588872393 0.1078502234643348 0.041258270568445624 0.055812859057939861 -0.020774998686141081 0.069430661976501107 0.37322009138480561
leaf_weight=32.118593215942383 288.24003674834967 55.162708908319473 110.92892630398273 493.27125733718276 43.277570985257626 242.30382146686316 333.15151852369308 908.55329253524542 106.62124501913786 121.45790920779109 728.86264671385288 94.771336413919926 461.98737085238099 527.77756093069911 27.830980755388737 115.37506309151649 616.74139495939016 18.372440814971924 35.10110942274332 284.94390254467726 6.01826637238264 95.5607088804245 127.31159736216068 220.72952728718519 13.934047527611254 542.95999756455421 345.82054978609085 120.71576875448227 4.4596446827054015 1.7720883041620252
leaf_count=218 2956 233 784 7154 223 2059 1474 13232 1001 1411 4498 623 6318 8938 204 1607 3426 89 169 1315 64 474 1157 1902 74 2324 1467 751 30 10
internal_value=0 0.318578 -0.36005 -0.445113 0.170796 -0.0892522 0.590836 -0.294344 -0.17395 -0.319535 0.0482645 0.116636 -0.545298 -0.612351 0.336169 -0.49092 0.308468 0.424816 0.463854 0.410968 -0.172604 0.165919 -0.247405 -0.176054 0.220424 0.50298 0.625385 0.0627109 0.107125 1.55818
internal_weight=0 3629.87 3496.27 2660.54 2352.77 835.726 1277.09 1062.13 696.966 1030.01 1244.84 950.581 1598.41 1136.42 138.76 608.646 1107.93 477.256 458.883 423.782 294.258 138.838 590.345 463.033 630.675 943.943 400.983 855.81 735.094 6.23173
internal_count=66185 20200 45985 38878 14702 7107 5498 14861 6119 14643 8932 5912 24017 17699 988 8761 5770 2270 2181 2012 3020 697 5118 3961 3500 4024 1700 5289 4538 40
shrinkage=0.1


Tree=14
num_leaves=31
num_cat=0
split_feature=6 5 0 0 5 19 1 1 0 6 6 0 0 0 2 2 1 1 1 19 1 10 6 9 13 1 2 10 2 1
split_gain=677.246 121.085 105.05 60.4719 47.5798 41.3893 49.3153 59.0521 26.5161 25.2687 25.2288 22.2296 22.0315 21.3329 18.811 19.1908 18.002 33.0696 23.5859 21.0098 31.8358 27.1756 17.8448 16.0539 15.8604 15.1771 16.8555 15.1471 15.0915 14.4977
threshold=2.5000000000000004 3.5000000000000004 1.5000000000000002 3.5000000000000004 1.0000000180025095e-35 1.0000000180025095e-35 49.500000000000007 37.500000000000007 3.5000000000000004 9.5000000000000018 17.500000000000004 2.5000000000000004 4.5000000000000009 3.5000000000000004 1.5000000000000002 10.500000000000002 52.500000000000007 36.500000000000007 38.500000000000007 2.5000000000000004 29.500000000000004 5.5000000000000009 1.0000000180025095e-35 217.50000000000003 10.500000000000002 55.500000000000007 1.5000000000000002 11.500000000000002 25.500000000000004 23.500000000000004
decision_type=2 2 2 2 2 2 2 2 2 2 2 2 2 2 2 2 2 2 2 2 2 2 2 2 2 2 2 2 2 2
left_child=2 3 5 11 8 6 7 -1 23 28 13 16 -10 -3 -6 -16 17 19 -19 -2 -21 -22 -7 25 -20 29 -27 -9 -5 -4
right_child=1 10 4 9 14 22 -8 27 12 -11 -12 -13 -14 -15 15 -17 -18 18 24 20 21 -23 -24 -25 -26 26 -28 -29 -30 -31
leaf_value=-0.065675720653572287 -0.034718799975634755 0.036344993984128764 0.037745606873646406 0.028062091160644283 0.043480750698336706 -0.078943728463603008 -0.084174485329849058 0.082138260471706179 0.0063764042622879496 0.084678454970666561 0.077628811180258869 -0.018472735270898637 -0.028689808873244477 0.070536741156346575 -0.011496058654579866 0.047854827608748568 -0.013414947428746896 0.092340898870125865 0.033536991600442836 0.13981324591186359 0.080052062331240348 -0.027511202428357397 -0.050990806409711723 0.33561290210476624 -0.015271952640131212 0.04302024644991459 -0.041879014540784326 0.014489961911564592 0.1395223850661636 -0.050995852232067443
leaf_weight=91.53083923459053 155.91633887961507 695.67973694205284 18.959117837250233 818.66352418065071 102.47223936021328 535.65162486210465 104.52657913416624 48.360358960926533 279.82907246798277 93.009237989783287 324.79781264066696 374.92088685184717 498.08981446921825 247.35888977348804 416.17771345376968 62.686323411762714 253.50540292263031 58.40021937340498 373.10749292373657 18.757622711360455 31.555256314575672 91.877955108880997 398.12083853408694 1.1216954924166191 81.034954745322466 40.679540224373341 55.004059445112944 104.88585752993822 12.330619856715201 635.27773917466402
leaf_count=1575 1129 2941 259 3742 645 10937 1828 308 2485 415 1474 2941 5927 1083 3224 470 1913 386 2549 129 229 660 6013 14 555 523 883 658 54 10236
internal_value=0 0.286608 -0.334762 0.152847 -0.197568 -0.560408 -0.266754 -0.0212163 -0.290156 0.352484 0.535921 0.0246632 -0.16076 0.453135 0.045946 -0.0372665 0.0984352 0.171169 0.325204 -0.0936668 0.184327 -0.000130409 -0.670258 -0.424183 0.248278 -0.429837 -0.057844 0.358379 0.29716 -0.484242
internal_weight=0 3630.92 3393.37 2363.08 2110.3 1283.08 349.304 244.777 1528.96 924.003 1267.84 1439.08 777.919 943.039 581.336 478.864 1064.16 810.65 512.543 298.107 142.191 123.433 933.772 751.042 454.142 749.92 95.6836 153.246 830.994 654.237
internal_count=66185 20200 45985 14702 24666 21319 4369 2541 20327 4211 5498 10491 8412 4024 4339 3694 7550 5637 3490 2147 1018 889 16950 11915 3104 11901 1406 966 3796 10495
shrinkage=0.1


Tree=15
num_leaves=31
num_cat=0
split_feature=5 6 0 0 7 5 0 19 0 5 6 0 0 0 1 1 17 10 7 19 22 7 1 1 1 0 0 1 13 1
split_gain=571.621 137.435 77.368 37.1093 34.5032 28.7363 33.7072 28.6608 26.6663 25.1531 22.6528 22.397 21.0466 34.6985 30.1106 28.4211 20.6823 19.1625 18.8475 18.7408 18.1664 18.0856 18.0289 16.4875 29.6979 24.3292 18.4106 16.2924 15.4606 15.2017
threshold=1.0000000180025095e-35 7.5000000000000009 3.5000000000000004 3.5000000000000004 5.5000000000000009 7.5000000000000009 3.5000000000000004 1.0000000180025095e-35 2.5000000000000004 1.5000000000000002 13.500000000000002 1.5000000000000002 5.5000000000000009 6.5000000000000009 41.500000000000007 40.500000000000007 30.500000000000004 18.500000000000004 3.5000000000000004 4.5000000000000009 1.0000000180025095e-35 1.5000000000000002 48.500000000000007 37.500000000000007 48.500000000000007 1.5000000000000002 2.5000000000000004 55.500000000000007 9.5000000000000018 23.500000000000004
decision_type=2 2 2 2 2 2 2 2 2 2 2 2 2 2 2 2 2 2 2 2 2 2 2 2 2 2 2 2 2 2
left_child=2 3 4 9 7 6 8 23 10 22 16 -9 14 -14 15 17 28 19 -19 -5 -16 -4 -2 -1 25 -25 -26 -28 -3 -6
right_child=1 5 21 12 29 -7 -8 11 -10 -11 -12 -13 13 -15 20 -17 -18 18 -20 -21 -22 -23 -24 24 26 -27 27 -29 -30 -31
leaf_value=-0.071229014524937809 -0.0030202287226348701 0.048626600104227861 -0.022675299923864439 0.065186030217310592 0.12786424714666458 0.079288743148089605 0.06481161294108094 -0.072034353481881738 0.0030704215648025609 0.010361111764845263 0.062365886455831132 -0.04480220067961329 -0.030228539195310263 0.044799843427296843 0.054868701727657267 -0.085108354536382977 -0.0065674411016659806 -0.023518296067950126 0.02679891518883018 -0.026016734737066022 0.1518813713861423 0.0065442697110181334 -0.035584000216967344 0.025644695174745869 -0.082982726536605725 -0.049155355902816708 -0.082186505268868129 0.012083831346174297 -0.0066684980761386407 -0.017315665732676174
leaf_weight=83.579733803868294 421.75677449256182 301.78093034029007 537.52087210863829 149.05449883639812 7.4193817153573027 212.69839417934418 394.59395311772823 686.31471816450357 264.55539558827877 725.43346734344959 283.47142387926579 539.35839304700494 162.6646978110075 99.248376190662384 158.29279254376888 24.771333321928978 134.39101321995258 109.20470361411572 233.85859164595604 26.542668089270592 21.983020126819611 349.60108440369368 284.84869237989187 146.11499133706093 93.026549689471722 61.906780205667019 27.080827564001083 56.75459972769022 60.743113249540329 258.50600264966488
leaf_count=1591 4093 1349 6418 683 74 1015 1759 14652 1205 4254 1223 9088 877 457 719 112 610 622 1029 118 98 2673 3034 874 1877 979 396 723 281 3302
internal_value=0 0.227507 -0.356631 0.0755941 -0.467531 0.449797 0.399104 -0.520096 0.305071 -0.0271889 0.398083 -0.600508 0.224931 -0.0179756 0.31284 0.195357 0.2694 0.245335 0.107818 0.514001 0.666985 -0.111603 -0.161474 -0.309709 -0.222286 0.0338438 -0.523542 -0.183677 0.393616 -0.132651
internal_weight=0 4069.89 2847.18 2417.66 1960.06 1652.23 1439.54 1694.14 1044.94 1432.04 780.386 1225.67 985.621 261.913 723.708 543.432 496.915 518.66 343.063 175.597 180.276 887.122 706.605 468.463 384.884 208.022 176.862 83.8354 362.524 265.925
internal_count=66185 23538 42647 16096 33556 7442 6427 30180 4668 11381 3463 23740 4715 1334 3381 2564 2240 2452 1651 801 817 9091 7127 6440 4849 1853 2996 1119 1630 3376
shrinkage=0.1


Tree=16
num_leaves=31
num_cat=0
split_feature=5 6 0 7 2 0 0 10 7 2 2 2 1 0 0 7 2 2 1 1 0 4 5 2 10 1 8 1 4 17
split_gain=475.017 115.889 68.7123 34.0833 32.3519 30.3529 24.8337 32.8235 18.7427 17.6873 22.6632 16.1756 14.3432 13.4867 26.2779 20.266 13.3994 14.8619 18.0941 12.4667 15.8156 20.1783 12.6874 12.4075 12.2329 11.9138 13.7697 11.8362 11.7719 15.6249
threshold=1.0000000180025095e-35 5.5000000000000009 3.5000000000000004 26.500000000000004 41.500000000000007 3.5000000000000004 1.5000000000000002 23.500000000000004 5.5000000000000009 10.500000000000002 3.5000000000000004 15.500000000000002 33.500000000000007 5.5000000000000009 6.5000000000000009 15.500000000000002 12.500000000000002 42.500000000000007 41.500000000000007 62.500000000000007 2.5000000000000004 1.0000000180025095e-35 5.5000000000000009 3.5000000000000004 53.500000000000007 23.500000000000004 14.500000000000002 25.500000000000004 75.500000000000014 31.500000000000004
decision_type=2 2 2 2 2 2 2 2 2 2 2 2 2 2 2 2 2 2 2 2 2 2 2 2 2 2 2 2 2 2
left_child=2 6 4 5 8 19 7 16 -1 10 -8 12 -4 15 -15 24 -2 -18 -19 20 21 23 28 -3 27 26 -10 -7 29 -23
right_child=1 3 11 -5 -6 13 9 -9 25 -11 -12 -13 -14 14 -16 -17 17 18 -20 -21 -22 22 -24 -25 -26 -27 -28 -29 -30 -31
leaf_value=-0.041629149090565809 0.0029232499084501399 0.083796387133367775 -0.018034368742492132 0.060974930893082459 -0.06527170891579169 -0.013567240991182143 0.019488180340016086 -0.040742608566287586 0.033415392532656622 0.041765815597727823 -0.0073637235602543238 -0.022490386244133818 0.020578095579711998 -0.0042641747347877297 0.078525209878338262 0.088636412629825703 0.13620482927558325 0.33636515777854525 -0.060006052237813613 -0.025053196953473536 0.0030234704773389426 0.019475689090619048 0.056792852742466052 0.029254253819452181 0.01718073062490735 -0.015593417538826218 0.33799472848436629 0.068955232268988462 0.041818990221717769 -0.024530547725096587
leaf_weight=1100.6647441312671 146.42360328882933 98.036871954798698 162.92507987469435 439.94074918329716 518.86239956691861 19.656297251582146 575.50139655172825 265.61695374548435 6.0333434045314771 144.34761308133602 692.58831872791052 481.00231178104877 234.91486902534962 110.91971461474895 58.590755149722099 141.47277964651585 17.209246858954433 1.3075806871056546 9.6597191989421827 57.216736607253551 295.85947974026203 306.17017719894648 89.611077561974525 72.590743727982044 115.17765781283379 252.06235590949655 1.9686180427670474 150.12829934060574 135.50192787498236 109.55474919825792
leaf_count=19815 1351 430 1712 2062 10410 82 3430 2585 57 952 4733 5368 2011 482 257 667 160 12 116 274 1452 1475 373 350 480 3258 16 634 647 534
internal_value=0 0.205628 -0.332335 0.360785 -0.440257 0.29857 0.0213451 -0.186038 -0.359243 0.0859807 0.0482257 -0.101521 0.0476536 0.482121 0.243517 0.576968 0.150756 0.78227 -0.127485 0.204639 0.228158 0.300321 0.218952 0.605923 0.423364 -0.117799 1.08347 0.594014 0.16222 0.0787886
internal_weight=0 4053.08 2758.43 2200.43 1879.59 1760.49 1852.65 440.217 1360.73 1412.44 1268.09 878.842 397.84 595.946 169.51 426.435 174.6 28.1765 10.9673 1164.54 1107.33 811.466 640.838 170.628 284.962 260.064 8.00196 169.785 551.227 415.725
internal_count=66185 23538 42647 10199 33556 8137 13339 4224 23146 9115 8163 9091 3723 2602 739 1863 1639 288 128 5535 5261 3809 3029 780 1196 3331 73 716 2656 2009
shrinkage=0.1


Tree=17
num_leaves=31
num_cat=0
split_feature=6 5 0 19 1 1 0 2 5 0 0 0 7 3 19 6 10 1 7 10 0 0 13 3 3 0 0 1 2 3
split_gain=400.209 108.56 62.4689 37.6049 44.1735 46.1164 33.1295 27.5539 27.4636 23.026 21.6449 19.8273 18.9446 17.3992 15.6645 15.1726 15.2674 15.1673 15.0096 16.194 14.9217 41.0946 20.7591 14.7689 14.6914 21.8546 13.6633 19.9376 13.5512 13.248
threshold=1.5000000000000002 2.5000000000000004 1.5000000000000002 1.0000000180025095e-35 49.500000000000007 37.500000000000007 3.5000000000000004 4.5000000000000009 7.5000000000000009 3.5000000000000004 3.5000000000000004 2.5000000000000004 7.5000000000000009 14.500000000000002 1.5000000000000002 16.500000000000004 3.5000000000000004 62.500000000000007 1.0000000180025095e-35 19.500000000000004 6.5000000000000009 5.5000000000000009 3.5000000000000004 2.5000000000000004 114.50000000000001 5.5000000000000009 2.5000000000000004 23.500000000000004 23.500000000000004 122.50000000000001
decision_type=2 2 2 2 2 2 2 2 2 2 2 2 2 2 2 2 2 2 2 2 2 2 2 2 2 2 2 2 2 2
left_child=2 6 3 4 5 -1 12 13 9 11 26 15 -2 -4 -11 16 -3 -14 19 23 21 22 -8 -7 -12 -26 27 -9 -13 -27
right_child=1 8 7 -5 -6 18 20 10 -10 14 24 28 17 -15 -16 -17 -18 -19 -20 -21 -22 -23 -24 -25 25 29 -28 -29 -30 -31
leaf_value=-0.067566221279285452 -0.016497282864714375 0.053132051246728207 0.013497297253107131 -0.065581654940703379 -0.087094802208969008 0.36202105690621328 0.040694044773982613 0.14150635599168879 0.070564734547271066 0.079518685922997101 -0.022327779288890352 -0.0006180910236730972 0.0094696413926651998 -0.026681954615678235 0.038866817299417378 0.063937735065654491 0.018431337905637574 -0.070601544339266395 0.061363863440379501 -0.053537402464887897 0.053116409349910881 -0.031274460422953003 0.0054568369508169534 0.034001160235441606 0.11251460676532735 0.27210710480771055 -0.063798625202536541 -0.033992691245242727 0.13147349901277641 -0.024548487752456674
leaf_weight=65.764927785843611 789.81743279844522 164.00040444731712 310.87736136838794 684.37342964485288 76.845030199736357 1.4479532092809702 363.12400586158037 6.6706544309854499 201.47246985137463 130.199179276824 526.85212229192257 311.98704244196415 633.20081616565585 164.96899282559752 348.51755392551422 125.77260720729828 558.82316353917122 24.574900306761265 82.421149492263794 31.610147073864937 107.34711780399084 164.58752524107695 309.84784214943647 26.378911726176739 20.86102356761694 1.5651557818055142 220.79135770723224 218.75387252122164 7.9647987633943549 39.417562805116177
leaf_count=1368 8662 724 3666 15362 1683 10 1737 79 1015 591 5837 1422 4620 2208 1562 581 2529 188 462 229 530 936 1545 183 204 19 3842 3873 36 482
internal_value=0 0.175135 -0.330594 -0.528798 -0.223218 0.0165189 0.0344978 -0.203487 0.357138 0.314512 -0.295062 0.238839 -0.0605742 -0.00432264 0.499231 0.318822 0.263045 0.0647813 0.337412 -0.0456318 0.180148 0.135159 0.244702 0.510695 -0.169154 0.291932 -0.461173 -0.287994 0.0267016 -0.13219
internal_weight=0 4241.24 2479.6 968.842 284.468 207.623 2392.5 1510.76 1848.74 1647.26 1034.91 1168.55 1447.59 475.846 478.717 848.596 722.824 657.776 141.858 59.437 944.906 837.559 672.972 27.8269 588.696 61.8437 446.216 225.425 319.952 40.9827
internal_count=66185 26678 39507 19297 3935 2252 18218 20210 8460 7445 14336 5292 13470 5874 2153 3834 3253 4808 884 422 4748 4218 3282 193 6542 705 7794 3952 1458 501
shrinkage=0.1


Tree=18
num_leaves=31
num_cat=0
split_feature=5 7 2 1 1 2 2 7 5 7 7 1 4 13 13 3 1 2 1 12 10 2 4 2 6 18 2 10 8 3
split_gain=338.376 83.9317 41.5003 22.9598 26.4835 22.6637 28.8905 21.9965 20.3685 16.7205 15.6741 13.9047 12.8371 18.4297 12.4735 12.149 11.7364 11.1938 9.92404 12.1393 10.3951 12.6783 11.4747 15.1679 9.12106 8.09047 7.9496 9.38115 7.89219 8.75084
threshold=1.0000000180025095e-35 13.500000000000002 18.500000000000004 40.500000000000007 39.500000000000007 2.5000000000000004 10.500000000000002 3.5000000000000004 7.5000000000000009 1.5000000000000002 3.5000000000000004 52.500000000000007 13.500000000000002 10.500000000000002 3.5000000000000004 -1.0000000180025095e-35 57.500000000000007 53.500000000000007 30.500000000000004 58.500000000000007 19.500000000000004 48.500000000000007 3.5000000000000004 53.500000000000007 15.500000000000002 5.5000000000000009 45.500000000000007 8.5000000000000018 2.5000000000000004 83.500000000000014
decision_type=2 2 2 2 2 2 2 2 2 2 2 2 2 2 2 2 2 2 2 2 2 2 2 2 2 2 2 2 2 2
left_child=2 5 10 4 18 12 7 14 11 -5 15 -3 13 -2 -7 -1 -11 -18 20 -20 21 -4 23 -23 -10 26 -6 -28 29 -25
right_child=1 8 3 9 25 6 -8 -9 24 16 -12 -13 -14 -15 -16 -17 17 -19 19 -21 -22 22 -24 28 -26 -27 27 -29 -30 -31
leaf_value=0.036951199676823483 0.041958418477175789 0.036992590163236472 -0.017985453676526909 -0.062825954630357186 0.041835271695736032 -0.01211804083613191 0.031043481025932181 0.0022921093548525632 0.0011995201856988158 -0.042157552753924604 0.00099434958765092017 0.010255739918438029 0.0063606881574046412 -0.0062253108900646821 -0.04765693040274116 -0.025706561779602018 0.0022890546123646698 0.22801978897103245 -0.045516787720688873 0.4180792187379721 -0.035163130262173874 0.64892010503184472 0.034731884421725319 -0.06047164822775173 0.075349157675317427 0.27100426646834763 0.041409005465578505 -0.048599054631823277 0.44776750344219257 0.21929866625403621
leaf_weight=32.169527132064104 352.92998634278774 1026.5227606520057 37.181173730641603 516.21234158799052 55.1591906696558 283.51147805154324 251.58340448886156 1037.0476658269763 18.474181056022644 183.38417321816087 386.25825916230679 239.98193072527647 387.65131395310163 102.41646205633879 151.55217127501965 812.94533602520823 46.815730970352888 2.3049906492233267 375.94223677366972 0.56567351147532363 96.313649136573076 0.65973684191704052 16.725184965878725 2.0660697966814041 162.59232077002525 1.2576084844768036 18.948066089302301 29.77699076756835 0.71870421990752209 2.4364458248019218
leaf_count=210 2018 4709 551 11188 456 2513 1835 6147 86 3002 4107 1117 2204 590 1450 13548 774 35 6590 10 1343 10 236 29 869 11 140 364 10 33
internal_value=0 0.171573 -0.290543 -0.4092 -0.269768 0.0629817 -0.00273287 -0.0562531 0.364115 -0.527967 -0.156941 0.319264 0.19735 0.311209 -0.244978 -0.233215 -0.305296 0.128815 -0.360309 -0.448203 -0.148315 0.179215 0.769789 1.97128 0.677837 0.188879 0.158358 -0.13597 1.40041 0.909204
internal_weight=0 4014.26 2617.84 1386.47 637.751 2566.69 1723.69 1472.11 1447.57 748.717 1231.37 1266.5 842.998 455.346 435.064 845.115 232.505 49.1207 532.609 376.508 156.101 59.7873 22.6061 5.88096 181.067 105.142 103.884 48.7251 5.22122 4.50252
internal_count=66185 23538 42647 24782 9783 16757 11945 10110 6781 14999 17865 5826 4812 2608 3963 13758 3811 809 8812 6600 2212 869 318 82 955 971 960 504 72 62
shrinkage=0.1


Tree=19
num_leaves=31
num_cat=0
split_feature=5 7 2 5 1 1 10 8 7 10 6 7 7 19 2 2 2 13 1 1 2 18 3 7 1 12 17 3 7 11
split_gain=279.808 69.8536 36.584 24.3413 20.6687 22.2898 17.8633 16.6187 15.5441 15.3731 13.8204 13.1693 13.148 11.3001 11.2114 10.8907 14.2954 10.8619 10.832 12.3111 10.4035 10.0043 15.417 13.7372 9.98565 9.66402 9.52404 15.0002 13.2483 11.0393
threshold=1.0000000180025095e-35 16.500000000000004 18.500000000000004 2.5000000000000004 40.500000000000007 39.500000000000007 37.500000000000007 4.5000000000000009 1.5000000000000002 10.500000000000002 22.500000000000004 2.5000000000000004 3.5000000000000004 2.5000000000000004 1.0000000180025095e-35 12.500000000000002 3.5000000000000004 45.500000000000007 37.500000000000007 59.500000000000007 10.500000000000002 5.5000000000000009 7.5000000000000009 1.0000000180025095e-35 57.500000000000007 39.500000000000007 19.500000000000004 3.5000000000000004 5.5000000000000009 1.0000000180025095e-35
decision_type=2 2 2 2 2 2 2 2 2 2 2 2 2 2 2 2 2 2 2 2 2 2 2 2 2 2 2 2 2 2
left_child=2 3 12 6 5 -4 7 15 -6 -9 -3 14 13 18 -8 16 -2 -15 -1 21 -13 25 23 -23 -10 -20 27 28 -26 -29
right_child=1 10 4 -5 8 -7 11 9 24 -11 -12 20 -14 17 -16 -17 -18 -19 19 -21 -22 22 -24 -25 26 -27 -28 29 -30 -31
leaf_value=-0.030808626593718632 0.015277148582662291 0.033281492342112591 -0.033561213706854276 0.020874653884289565 -0.059951222122932649 0.016755777682984099 0.084212326542852933 0.13679495017638008 -0.039374029923504722 0.028483558620014761 0.072121894619939744 -0.0073553242372409629 0.00089424181675545422 -0.036293245721176003 -0.038167426134386062 0.033311435809438406 -0.010594134141656429 0.12383916102477632 0.0042728298874848544 -0.057768677621802725 0.036410746468043688 0.53833380928974905 -0.0044452500458923259 0.012994956272928954 0.12793978555214444 0.33161969953796822 -0.026279428437497643 -0.014371359954315759 0.52086409285536694 0.26053874013010264
leaf_weight=171.71120234578848 367.51077004522085 1007.536014854908 516.67746713384986 907.71620267629623 488.34096698835492 106.12202401086688 7.8047403991222373 14.234219700098036 177.05404905974865 165.08127519488335 100.7752672880888 573.72011576220393 386.53350226208568 365.7848225235939 183.20045333355665 112.33657699078321 509.92272405698895 4.2855619825422755 248.967115201056 31.749435473233461 59.992610275745392 1.3849669583141797 2.8557013757526875 0.77701913565397251 4.1543313749134567 0.90514370426535506 28.525104686617851 14.21847105398774 1.0815040431916711 1.6279352866113175
leaf_count=2640 2388 4681 8812 4156 11188 971 43 100 3002 1143 548 3690 4107 6683 1806 829 3730 71 3674 595 424 20 48 11 66 16 482 219 14 28
internal_value=0 0.154575 -0.268971 0.073001 -0.383055 -0.249874 0.0112004 0.0907007 -0.499061 0.370814 0.368131 -0.101496 -0.143351 -0.21441 -0.331668 0.0399529 0.00241986 -0.344388 -0.109466 0.00951761 -0.0321206 0.0826606 1.48072 3.49527 -0.282639 0.0545862 0.113894 0.623569 2.09101 0.138707
internal_weight=0 4009.83 2552.76 2901.52 1337.8 622.799 1993.8 1169.09 715.002 179.315 1108.31 824.718 1214.95 828.421 191.005 989.77 877.433 370.07 458.351 286.639 633.713 254.89 5.01769 2.16199 226.661 249.872 49.6073 21.0822 5.23584 15.8464
internal_count=66185 23538 42647 18309 24782 9783 14153 8190 14999 1243 5229 5963 17865 13758 1849 6947 6118 6754 7004 4364 4114 3769 79 31 3811 3690 809 327 80 247
shrinkage=0.1


Tree=20
num_leaves=31
num_cat=0
split_feature=5 5 0 0 7 19 7 7 1 1 0 1 0 1 0 10 0 1 1 1 1 3 7 7 20 0 1 1 0 0
split_gain=231.147 58.8585 54.2922 30.3686 23.8706 23.5984 28.6314 17.1128 16.9295 26.0579 16.9328 16.8191 15.7352 14.3651 13.9047 19.0336 30.9014 17.4467 14.3768 19.3426 15.3173 13.8234 13.3188 13.0036 13.1801 12.7209 12.4731 36.7783 21.1683 20.9461
threshold=1.0000000180025095e-35 3.5000000000000004 3.5000000000000004 3.5000000000000004 15.500000000000002 1.0000000180025095e-35 3.5000000000000004 31.500000000000004 37.500000000000007 48.500000000000007 2.5000000000000004 62.500000000000007 1.5000000000000002 53.500000000000007 2.5000000000000004 24.500000000000004 1.5000000000000002 30.500000000000004 53.500000000000007 47.500000000000007 43.500000000000007 210.50000000000003 1.0000000180025095e-35 11.500000000000002 1.0000000180025095e-35 3.5000000000000004 41.500000000000007 40.500000000000007 4.5000000000000009 6.5000000000000009
decision_type=2 2 2 2 2 2 2 2 2 2 2 2 2 2 2 2 2 2 2 2 2 2 2 2 2 2 2 2 2 2
left_child=2 3 5 11 21 8 12 25 -1 -10 -11 14 -7 -12 15 17 23 -2 19 20 -18 26 -4 24 -17 -3 27 -5 -28 -30
right_child=1 7 22 4 -6 6 -8 -9 9 10 13 -13 -14 -15 -16 16 18 -19 -20 -21 -22 -23 -24 -25 -26 -27 28 -29 29 -31
leaf_value=-0.059728728627380295 -0.03654260900103018 0.02038471153254072 -0.018792679471455489 0.0088046167981714728 0.06248497483716256 -0.063618615556859243 -0.016983309237054264 0.057155063088227466 0.014366590835056573 -0.069231449660072386 -0.080823302812440878 -0.047359884548296129 -0.036594024687764924 0.017920202917872639 -0.015542905691685788 -0.041748449171867555 0.021053385146126355 0.024400888589074674 -0.040484732181716762 0.086797150921319788 -0.07131941717620037 0.059853684208662619 0.0068364609134980896 0.0089841994933198815 0.2448513936479611 0.047530501524380667 0.05057972866405594 -0.096188257407460592 -0.040291063134276037 0.040004971685928203
leaf_weight=74.941783543676138 51.770211756229401 741.223856523633 350.96542807668447 613.53386054933071 112.27590873837471 501.71562252938747 317.59720408543944 228.17464652657509 224.65786543861032 84.541984878480434 19.286034930497408 79.556276492774487 377.61274690926075 62.407566238194704 433.91667369753122 239.86416278779507 198.50107479095459 507.05397242307663 38.945086508989334 42.011498972773552 19.735970743000507 61.464004561305046 480.19528037309647 70.50163596123457 1.6154073476791371 225.04010944068432 173.10266953706741 35.2821946144104 69.501906402409077 61.001391053199768
leaf_count=1701 330 3208 4651 2945 537 14053 4510 1208 2196 2089 334 687 7798 875 3312 2409 1279 3659 262 254 118 284 4440 354 10 1082 775 170 376 279
internal_value=0 0.139284 -0.248546 0.0602325 0.187346 -0.352863 -0.427183 0.325234 -0.161902 -0.0784306 -0.378581 -0.0248 -0.520134 -0.0539093 -0.00253903 0.0541632 -0.0677983 0.18755 0.161814 0.246612 0.126998 0.138897 -0.0398568 -0.287999 -0.398312 0.267069 0.109235 0.0309517 0.276527 -0.0275814
internal_weight=0 4004.07 2493.92 2809.63 1126.16 1662.76 1196.93 1194.44 465.835 390.893 166.236 1683.47 879.328 81.6936 1603.92 1170 611.175 558.824 299.194 260.249 218.237 1013.89 831.161 311.981 241.48 966.264 952.422 648.816 303.606 130.503
internal_count=66185 23538 42647 18040 5366 33556 26361 5498 7195 5494 3298 12674 21851 1209 11987 8675 4686 3989 1913 1651 1397 4829 9091 2773 2419 4290 4545 3115 1430 655
shrinkage=0.1


Tree=21
num_leaves=31
num_cat=0
split_feature=6 7 0 19 1 1 0 0 5 2 0 1 0 10 1 19 19 5 10 0 0 1 1 4 1 0 3 10 19 3
split_gain=198.894 51.4227 49.3979 30.5926 35.4141 31.9849 22.1812 19.0978 24.9519 18.7193 18.486 16.9813 18.8304 18.099 17.7329 24.6701 39.125 24.9866 26.6771 15.2861 35.5153 16.5939 27.0374 15.9905 14.6918 17.3363 15.0576 14.3162 14.3947 14.1508
threshold=1.5000000000000002 13.500000000000002 1.5000000000000002 1.0000000180025095e-35 49.500000000000007 37.500000000000007 3.5000000000000004 3.5000000000000004 5.5000000000000009 4.5000000000000009 3.5000000000000004 31.500000000000004 2.5000000000000004 24.500000000000004 32.500000000000007 5.5000000000000009 3.5000000000000004 1.5000000000000002 14.500000000000002 5.5000000000000009 6.5000000000000009 41.500000000000007 40.500000000000007 1.5000000000000002 52.500000000000007 2.5000000000000004 32.500000000000007 23.500000000000004 5.5000000000000009 14.500000000000002
decision_type=2 2 2 2 2 2 2 2 2 2 2 2 2 2 2 2 2 2 2 2 2 2 2 2 2 2 2 2 2 2
left_child=2 6 3 4 5 -1 11 8 24 29 -11 -2 13 27 15 16 -14 18 -18 21 -21 22 -8 -23 25 26 -3 28 -13 -4
right_child=1 7 9 -5 -6 -7 19 -9 -10 10 -12 12 14 -15 -16 -17 17 -19 -20 20 -22 23 -24 -25 -26 -27 -28 -29 -30 -31
leaf_value=-0.059799000593152643 -0.034948216328554549 0.017637961774545411 0.015577242882227536 -0.057143517796626769 -0.081825295250529673 0.029510448033709214 0.018027166922460168 0.04799705572901488 0.042284693617551099 -0.037973647251905468 -0.0096705992661668544 0.011994000823093424 -0.12883414221235945 -0.005527493748909742 -0.021896145714397547 -0.037506715458577033 0.33741783633511135 0.15224807042375899 0.99035068174508134 -0.034095392466007728 0.035737837378948749 0.10767798650195459 -0.086093312309445516 0.033809775989107754 -0.016608511156976466 -0.01273450319494588 0.061512288933352546 0.15405209272011289 0.062435197145631352 -0.021488721266947078
leaf_weight=55.574608471244574 156.17226559668779 367.69572066515684 304.63557469844818 572.93035648018122 62.102698843926191 144.01941979676485 552.36804378032684 335.50488132238388 367.24682575464249 397.34401231259108 550.47094840556383 416.2483544498682 2.7175413221120834 537.61836795508862 418.89319662004709 9.3877284377813339 2.0053566023707394 3.8128533810377121 0.90957628190517403 171.5706927254796 126.53917814791203 35.076943889260292 26.119116403162479 178.10062535107136 157.75115920603275 143.82188723608851 99.36072052270174 7.9612116180360308 65.47524780407548 155.61102770641446
leaf_count=1368 1383 1771 3666 15362 1683 884 2646 1671 1852 7794 6542 3478 27 4775 3608 91 24 22 13 972 604 162 120 838 795 752 467 62 545 2208
internal_value=0 0.119834 -0.249275 -0.442042 -0.158764 0.0464328 0.0381442 0.270344 0.208427 -0.135012 -0.215358 -0.0360175 -0.00260211 0.0714025 -0.176284 0.772964 1.91399 3.20751 5.41159 0.148471 -0.0445317 0.221148 0.133261 0.459643 0.105978 0.176235 0.269717 0.21048 0.188499 0.0304511
internal_weight=0 4182.36 2242.69 834.627 261.697 199.594 2710.98 1471.38 1135.88 1408.06 947.815 1621.2 1465.03 1027.3 437.726 18.8331 9.44533 6.72779 2.91493 1089.77 298.11 791.665 578.487 213.178 768.629 610.878 467.056 489.685 481.724 460.247
internal_count=66185 26678 39507 19297 3935 2252 19370 7308 5637 20210 14336 14028 12645 8860 3785 177 86 59 37 5342 1576 3766 2766 1000 3785 2990 2238 4085 4023 5874
shrinkage=0.1


Tree=22
num_leaves=31
num_cat=0
split_feature=5 5 2 2 2 1 7 1 9 7 7 8 1 19 7 17 7 1 1 19 2 2 1 7 1 2 1 22 1 17
split_gain=165.546 42.8272 27.7642 20.1068 23.3617 15.6878 14.8783 14.5859 14.2126 13.6642 13.0748 10.9714 10.8774 12.3884 10.4242 9.46684 15.8801 8.68736 8.55549 9.85106 15.8425 12.0347 10.6282 13.5647 8.64838 19.0143 10.6465 9.97377 9.56058 8.54874
threshold=1.0000000180025095e-35 3.5000000000000004 18.500000000000004 10.500000000000002 3.5000000000000004 40.500000000000007 3.5000000000000004 39.500000000000007 141.50000000000003 31.500000000000004 1.5000000000000002 52.500000000000007 26.500000000000004 4.5000000000000009 10.500000000000002 23.500000000000004 11.500000000000002 57.500000000000007 30.500000000000004 1.0000000180025095e-35 132.50000000000003 224.50000000000003 23.500000000000004 7.5000000000000009 28.500000000000004 19.500000000000004 29.500000000000004 1.0000000180025095e-35 29.500000000000004 36.500000000000007
decision_type=2 2 2 2 2 2 2 2 2 2 2 2 2 2 2 2 2 2 2 2 2 2 2 2 2 2 2 2 2 2
left_child=2 3 -1 4 8 7 -6 18 11 12 -7 15 13 -3 -5 -2 -17 -12 19 -4 22 29 23 -21 -24 28 27 -27 -26 -22
right_child=1 9 5 14 6 10 -8 -9 -10 -11 17 -13 -14 -15 -16 16 -18 -19 -20 20 21 -23 24 -25 25 26 -28 -29 -30 -31
leaf_value=-0.010557613851872691 0.022379723872095157 -0.0016779969903633796 -0.04896538984637798 0.02026285034853921 -0.024809869374369079 -0.052998180242412908 -0.00069244347302371248 0.012934468413658163 -0.068412231206100432 0.050331497609416555 -0.033574854605358036 0.21134315619969846 0.024829700336425054 -0.14353562726806754 0.067193788958069808 -0.0068484717879018055 0.029670846737572455 0.014807460604496414 -0.036543928239327235 0.028461173217852798 0.13338539991003207 -0.01214612919845748 -0.050106195320451956 0.28483794763418685 0.58559852069892382 0.042539832451240128 -0.046290392085869068 0.33021268352458222 0.062245731418762565 0.38929437063345684
leaf_weight=1166.9840510264039 584.74967459589243 33.255802512168884 41.166567079722881 216.77724256366491 343.88381582871079 427.84246187843382 998.56606505811214 107.76434432342649 21.341066028922796 217.81099432706833 164.01400671899319 2.808841109275817 913.43289259076118 7.5546654164791098 60.548069953918457 392.90830488875508 170.84698764234781 47.965270843356848 335.85128941386938 12.981149781495331 7.0161265656352025 5.1556139737367621 44.455055214464664 2.4538307115435591 0.85822084173560387 9.9945749416947365 18.077754266560078 1.3704656623303897 0.58835012093186378 1.6037418432533739
leaf_count=17865 3434 153 562 1644 3293 11188 5884 971 143 1208 3002 18 4104 33 311 2508 805 809 6600 175 96 70 741 18 10 160 326 23 10 21
internal_value=0 0.116886 -0.21605 0.0495495 0.0213723 -0.320935 -0.068704 -0.203222 0.124491 0.277315 -0.42936 0.13948 0.22573 -0.279381 0.305092 0.134652 0.0421877 -0.226272 -0.277642 -0.0752923 0.087855 1.08712 -0.0637798 0.692196 -0.218648 0.187793 0.0138867 0.772292 3.7274 1.80998
internal_weight=0 3964.48 2396.14 2792.43 2515.1 1229.16 1342.45 589.337 1172.65 1172.05 639.822 1151.31 954.243 40.8105 277.325 1148.5 563.755 211.979 481.573 145.721 104.555 13.7755 90.7794 15.435 75.3444 30.8894 29.4428 11.365 1.44657 8.61987
internal_count=66185 23538 42647 18040 16085 24782 9177 9783 6908 5498 14999 6765 4290 186 1955 6747 3313 3811 8812 2212 1650 187 1463 193 1270 529 509 183 20 117
shrinkage=0.1


Tree=23
num_leaves=31
num_cat=0
split_feature=6 0 5 19 1 1 0 5 0 1 0 1 19 2 0 0 1 0 1 1 1 1 19 5 10 0 1 19 1 10
split_gain=138.428 43.0708 38.9014 26.9275 30.7791 25.9012 18.1827 15.6961 16.9461 14.563 14.3707 16.5932 13.8677 13.6791 16.2307 13.8862 14.6915 13.1309 13.5642 21.747 23.3519 15.8074 12.4228 11.9332 11.177 23.5233 11.0772 24.7287 22.5665 15.1637
threshold=1.5000000000000002 1.5000000000000002 2.5000000000000004 1.0000000180025095e-35 49.500000000000007 37.500000000000007 3.5000000000000004 7.5000000000000009 3.5000000000000004 62.500000000000007 2.5000000000000004 55.500000000000007 1.5000000000000002 4.5000000000000009 3.5000000000000004 2.5000000000000004 23.500000000000004 2.5000000000000004 36.500000000000007 48.500000000000007 47.500000000000007 38.500000000000007 1.0000000180025095e-35 5.5000000000000009 1.5000000000000002 5.5000000000000009 31.500000000000004 2.5000000000000004 29.500000000000004 1.5000000000000002
decision_type=2 2 2 2 2 2 2 2 2 2 2 2 2 2 2 2 2 2 2 2 2 2 2 2 2 2 2 2 2 2
left_child=1 3 6 4 5 -1 9 8 17 10 26 -12 -10 -3 15 16 -15 18 -4 20 21 -20 23 -23 25 -16 27 -2 -29 -28
right_child=2 13 7 -5 -6 -7 -8 -9 12 -11 11 -13 -14 14 24 -17 -18 -19 19 -21 -22 22 -24 -25 -26 -27 29 28 -30 -31
leaf_value=-0.055764786373264423 -0.061207899206639008 0.0033956737494360238 -0.0030605846183820338 -0.05292722599736252 -0.078842752056911325 0.026808527067685939 0.012229853532067826 0.049686946696337692 0.063388801198328654 -0.054091165171421457 -0.024091467306903994 0.091182298802481021 0.023787285126226229 0.1270778322233766 0.083490629794600799 -0.053519295916758906 -0.020394314787948647 -0.0057220735922100694 0.08983274042262103 0.0067122936437759495 0.11309107062557272 -0.071891870557306517 0.031980694172101462 0.081921200300866651 -0.013635180980020268 -0.014881449951994256 0.03320855203187182 0.099461287138920107 -0.078507529626688818 2.9316803914379576e-05
leaf_weight=51.374158855527639 71.239068686962128 458.52215655148029 222.48271058499813 529.3600643966347 55.784043962135911 145.78406026959419 946.23688750714064 172.59130297601223 120.88426299393177 59.463746942579746 364.55753054097295 12.930240564048288 329.32978083193302 7.0095309466123572 39.57811202481389 182.29731713980436 186.26572914049029 318.74594560265541 41.96133317053318 304.78489257395267 42.555594742298126 22.761572271585468 199.7298009544611 6.4798559546470633 433.44671227782965 63.004890158772469 170.54959614947438 22.64330143854022 10.396021090447901 716.09937480837107
leaf_count=1368 645 5874 1024 15362 1683 884 4748 1015 591 610 3729 120 1562 79 380 3842 3873 1458 188 1401 190 102 900 29 5301 861 1449 160 108 6649
internal_value=0 -0.21382 0.0986176 -0.401026 -0.13263 0.0529213 0.0147947 0.210274 0.179545 -0.0564467 -0.0353946 -0.201429 0.344204 -0.10693 -0.177794 -0.337203 -0.150459 0.115611 0.181135 0.257329 0.442253 0.334086 0.230682 -0.378071 -0.0661032 0.23072 0.0278554 -0.280444 0.434623 0.0641144
internal_weight=0 2152.43 4156.42 782.302 252.942 197.158 2374.12 1782.31 1609.72 1427.88 1368.42 377.488 450.214 1370.12 911.602 375.573 193.275 1159.5 840.756 618.273 313.488 270.933 228.971 29.2414 536.03 102.583 990.927 104.278 33.0393 886.649
internal_count=66185 39507 26678 19297 3935 2252 18218 8460 7445 13470 12860 3849 2153 20210 14336 7794 3952 5292 3834 2810 1409 1219 1031 131 6542 1241 9011 913 268 8098
shrinkage=0.1


Tree=24
num_leaves=31
num_cat=0
split_feature=5 6 7 2 19 2 1 1 3 13 19 1 1 10 7 3 2 8 4 3 10 8 1 4 2 4 2 4 17 1
split_gain=117.083 31.6139 23.1314 20.0737 16.0684 13.6637 12.8148 27.2219 15.6836 15.4279 12.8094 18.2272 11.8637 11.4197 11.3455 11.3133 12.9297 23.4652 17.9914 19.8503 19.3908 20.7264 11.6265 11.5188 11.0471 12.2867 10.2782 10.9851 11.8144 10.1208
threshold=1.0000000180025095e-35 11.500000000000002 1.5000000000000002 10.500000000000002 2.5000000000000004 115.50000000000001 48.500000000000007 47.500000000000007 36.500000000000007 3.5000000000000004 1.0000000180025095e-35 35.500000000000007 48.500000000000007 274.50000000000006 3.5000000000000004 2.5000000000000004 1.0000000180025095e-35 42.500000000000007 2.5000000000000004 12.500000000000002 1.5000000000000002 12.500000000000002 43.500000000000007 4.5000000000000009 145.50000000000003 5.5000000000000009 3.5000000000000004 18.500000000000004 22.500000000000004 32.500000000000007
decision_type=2 2 2 2 2 2 2 2 2 2 2 2 2 2 2 2 2 2 2 2 2 2 2 2 2 2 2 2 2 2
left_child=2 6 3 15 5 12 7 9 -9 -2 -7 24 -5 -4 -11 -1 17 23 19 20 22 -22 -18 -17 29 -26 27 28 -8 -12
right_child=1 -3 13 4 -6 10 26 8 -10 14 11 -13 -14 -15 -16 16 18 -19 -20 -21 21 -23 -24 -25 25 -27 -28 -29 -30 -31
leaf_value=0.016407874577329937 0.013212176282378583 0.027801537143903272 -0.0084307739188272477 -0.021343706006210869 -0.051579464744320895 -0.028195651875796542 0.041848002046872695 0.073296303599317755 -0.025805773086013818 -0.028471231913973789 0.15297367334084999 -0.00095914425376150973 -0.059292204805927375 0.0730485656428108 0.0016113810259443834 -0.051517121264980897 0.27785161607182435 0.62475039731569249 -0.014070789478051016 0.021121486848741974 0.071681818698847863 0.60830039986650197 0.83031850798464868 -0.010295793385361853 -0.081231488391956971 0.14362380939522287 -0.014717038758702495 -0.012656057296239809 -0.0022073643419630268 0.43411314755311187
leaf_weight=118.7078354600817 1361.2137745842338 777.95598183572292 967.87558250129223 297.7184447683394 378.10817599855363 41.630720037966967 124.93306346610188 95.650530505925417 19.169514924287796 156.62916487455368 4.1919287256896522 28.030826302245259 113.8987933807075 17.512484386563301 628.17101325839758 131.5928297303617 0.77867070585489506 0.54799124971032043 43.5831638276577 11.699917808175085 5.0595079343765974 0.83914651721715905 0.74573272466659535 139.81410789489746 3.5956625808030349 7.4969494435936213 483.37079994380474 171.45423081889749 118.71172060444951 1.8436436653137205
leaf_count=1761 7978 3876 14018 4791 10187 661 746 544 114 1329 60 769 3497 252 3321 2781 14 13 828 253 108 16 13 2444 55 99 3808 1067 755 27
internal_value=0 0.0974392 -0.185946 -0.271985 -0.360345 -0.242415 0.0529736 0.0931229 0.567509 0.0677414 0.118168 0.48703 -0.318445 -0.0698271 -0.0439246 -0.101157 -0.195239 -0.289622 0.214102 1.02275 2.30185 1.48022 5.48116 -0.302821 1.29977 0.707371 -0.0480546 0.0673628 0.203828 2.38851
internal_weight=0 3937.26 2315.27 1329.88 876.515 498.407 3159.3 2260.83 114.82 2146.01 86.7897 45.159 411.617 985.388 784.8 453.369 334.661 271.955 62.7061 19.123 7.42306 5.89865 1.5244 271.407 17.1282 11.0926 898.47 415.099 243.645 6.03557
internal_count=66185 23538 42647 28377 20146 9959 19662 13286 658 12628 1671 1010 8288 14270 4650 8231 6470 5238 1232 404 151 124 27 5225 241 154 6376 2568 1501 87
shrinkage=0.1


Tree=25
num_leaves=31
num_cat=0
split_feature=7 0 19 1 7 0 2 0 0 7 10 0 0 13 0 1 1 3 0 7 17 17 6 0 13 3 11 4 4 8
split_gain=96.1465 37.1134 25.5195 23.0657 21.4083 17.5363 17.4735 17.1413 16.9807 15.5441 15.7945 15.1017 38.7261 18.1912 14.1665 13.7871 16.8118 12.1568 14.834 12.0278 12.1432 18.5024 11.9566 14.8204 12.6867 11.2788 13.9303 17.0846 13.9088 12.6917
threshold=4.5000000000000009 1.5000000000000002 1.0000000180025095e-35 49.500000000000007 18.500000000000004 3.5000000000000004 3.5000000000000004 3.5000000000000004 3.5000000000000004 1.5000000000000002 3.5000000000000004 5.5000000000000009 6.5000000000000009 2.5000000000000004 2.5000000000000004 55.500000000000007 58.500000000000007 114.50000000000001 5.5000000000000009 1.0000000180025095e-35 42.500000000000007 45.500000000000007 22.500000000000004 2.5000000000000004 3.5000000000000004 13.500000000000002 2.5000000000000004 10.500000000000002 1.5000000000000002 9.5000000000000018
decision_type=2 2 2 2 2 2 2 2 2 2 2 2 2 2 2 2 2 2 2 2 2 2 2 2 2 2 2 2 2 2
left_child=1 2 3 19 5 -2 15 14 22 -4 -11 13 -13 -7 -8 -3 25 -9 -19 -1 -21 -22 23 24 -6 26 27 28 -17 -30
right_child=4 6 9 -5 8 11 7 17 -10 10 -12 12 -14 -15 -16 16 -18 18 -20 20 21 -23 -24 -25 -26 -27 -28 -29 29 -31
leaf_value=-0.021638914473474245 -0.0004721350093590083 0.0013856399653073359 -0.055022454687500548 -0.059276959063752112 0.035272638177085515 0.042777558003859954 -0.0088923040796697467 -0.0079291462230845263 0.054633079030300728 0.028538807680381091 -0.03506287446808197 -0.034558309795245379 0.042951678880604756 0.0093557413739727563 -0.0423713722212622 0.18491670686581749 0.013156504367727412 0.083616575866202067 -0.0039100286812251001 0.018842701610623708 0.32770172554754318 0.034605221679293759 0.054340488731749709 -0.012644592183725224 0.0025652396238302587 0.034342242158352888 -0.068072570003479368 0.08758835440811763 0.69545920913780479 0.28727395107153408
leaf_weight=80.835334924980998 1583.5248115714639 542.74494543299079 376.34715133160353 63.388280965387821 292.26869827136397 307.37017372250557 229.80714172683656 687.17979285120964 150.21430279314518 48.163104420527816 206.24842468462884 159.01890930533409 108.40111999958754 346.3763534873724 280.85830447077751 4.0089109390974098 56.780139334499836 33.789483331143856 45.353061616420746 131.59206383675337 3.2884667776525003 6.2421823032200336 79.607695266604424 164.85412587597966 199.57013579830527 12.173218984156845 2.2765860334038726 6.9931046217679977 1.3624041154980662 1.7277407273650167
leaf_count=1056 11737 5796 12623 1824 1410 1407 4293 7116 845 781 3548 834 501 1617 5230 47 600 256 565 1408 30 72 503 834 969 144 26 81 15 17
internal_value=0 -0.143497 -0.308896 -0.0607492 0.106367 0.0590975 -0.0639602 -0.131126 0.239918 -0.421155 -0.230223 0.168805 -0.0313894 0.250696 -0.273053 0.0726009 0.446282 -0.0365475 0.33459 0.0911888 0.26737 1.35736 0.177406 0.133038 0.220012 1.07237 1.61447 1.98526 3.07808 4.67237
internal_weight=0 2821.16 916.105 285.346 3391.21 2504.69 1905.05 1276.99 886.515 630.759 254.412 921.167 267.42 653.747 510.665 628.067 85.3221 766.322 79.1425 221.958 141.123 9.53065 736.301 656.693 491.839 28.542 16.3687 14.0922 7.09906 3.09014
internal_count=66185 45528 21342 4390 20657 16096 24186 17460 4561 16952 4329 4359 1335 3024 9523 6726 930 7937 821 2566 1510 102 3716 3213 2379 330 186 160 79 32
shrinkage=0.1


Tree=26
num_leaves=31
num_cat=0
split_feature=5 0 5 19 7 12 1 6 0 7 0 1 1 1 4 0 1 1 19 10 1 0 19 3 19 1 8 19 7 0
split_gain=84.9024 30.0239 22.7109 14.4691 16.5043 15.4999 14.858 17.6246 12.691 14.5488 13.4032 12.39 18.8796 19.4861 11.8785 11.0664 12.3062 10.7333 15.0249 12.9622 12.0639 13.4931 19.7797 12.2328 11.6764 11.2327 16.847 10.4817 10.3262 9.72467
threshold=1.0000000180025095e-35 3.5000000000000004 3.5000000000000004 1.0000000180025095e-35 3.5000000000000004 79.500000000000014 33.500000000000007 9.5000000000000018 3.5000000000000004 15.500000000000002 5.5000000000000009 40.500000000000007 47.500000000000007 48.500000000000007 2.5000000000000004 2.5000000000000004 53.500000000000007 52.500000000000007 1.5000000000000002 207.50000000000003 36.500000000000007 2.5000000000000004 3.5000000000000004 3.5000000000000004 5.5000000000000009 38.500000000000007 31.500000000000004 1.5000000000000002 1.0000000180025095e-35 1.5000000000000002
decision_type=2 2 2 2 2 2 2 2 2 2 2 2 2 2 2 2 2 2 2 2 2 2 2 2 2 2 2 2 2 2
left_child=1 3 8 5 29 6 -1 11 17 14 -11 -8 -13 -14 -10 -15 -17 19 -19 20 27 25 23 -23 -20 26 -22 -2 -3 -5
right_child=2 28 -4 4 -6 -7 7 -9 9 10 -12 12 13 15 -16 16 -18 18 24 -21 21 22 -24 -25 -26 -27 -28 -29 -30 -31
leaf_value=-0.067575527471713026 -0.032363705814183047 -0.014076152878005069 0.020132921829801319 -0.050329634380467725 -0.011559587827376138 0.46453997058319918 0.013829791005776221 0.33232895207577418 0.027249033396504963 0.074504794834190965 0.00021470065000575502 -0.10546755753377857 0.048972477227357682 -0.059215214303331334 0.0018586123038911583 -0.080871529501206407 0.017396211167701486 0.0068477565600587337 -0.040061224068656212 -0.052674918623724434 0.048339729566398038 0.067461723774911386 -0.048960988091670182 -0.0027640403428281354 0.051155873274073616 0.013909825174718705 0.35316767933673476 0.0013020321027740437 0.0089131758975762431 -0.02699188534101999
leaf_weight=40.727208917960525 138.27724018320441 334.3927109837532 1138.079846277833 383.79721255227923 300.53672045841813 0.68908649310469527 179.1726294234395 1.551056995987891 242.19301107525826 65.938297763466835 38.445205688476562 24.002527110278606 41.662024866789579 64.937698783352971 770.2522160410881 16.116798900067806 60.89373429492116 154.37047548219562 205.43714359030128 41.712751504033804 68.874407455325127 31.60956971719861 81.990472283214331 115.21901687607169 15.062072876840828 523.93560098484159 1.8620772808790196 279.24385868757963 470.00165750086308 333.87094055116177
leaf_count=1086 999 4651 5498 14053 4510 10 2243 15 1151 355 182 304 250 2083 3678 332 872 1297 1786 353 444 257 638 901 122 3835 14 2028 4440 7798
internal_value=0 -0.161339 0.0823723 -0.247393 -0.312337 -0.0935244 -0.101135 -0.0408714 0.0335757 0.115972 0.471432 -0.0543621 -0.22063 -0.111599 0.0793241 -0.288089 -0.0316931 -0.0219401 -0.170792 0.021561 0.0399907 0.110195 -0.0961619 0.123543 -0.338303 0.189598 0.563641 -0.098476 -0.00643659 -0.394725
internal_weight=0 2252.35 3912.5 1447.96 1018.2 429.753 429.064 388.336 2774.42 1116.83 104.384 386.785 207.613 183.61 1012.45 141.948 77.0105 1657.59 374.87 1282.72 1241.01 823.491 228.819 146.829 220.499 594.672 70.7365 417.521 804.394 717.668
internal_count=66185 42647 23538 33556 26361 7195 7185 6099 18040 5366 537 6084 3841 3537 4829 3287 1204 12674 3205 9469 9116 6089 1796 1158 1908 4293 458 3027 9091 21851
shrinkage=0.1


Tree=27
num_leaves=31
num_cat=0
split_feature=5 0 6 2 2 0 0 1 1 0 6 1 2 13 9 12 11 18 19 7 1 1 7 0 0 9 7 3 13 6
split_gain=69.82 25.4369 19.9447 15.5067 14.1505 13.6857 15.3474 23.064 24.66 19.9725 14.3011 13.8307 13.6152 12.967 11.8995 11.6007 11.4177 11.2112 10.5473 10.8367 10.0237 11.8558 21.1795 12.9062 16.2918 11.8039 11.6768 13.5433 11.0052 10.9086
threshold=1.0000000180025095e-35 3.5000000000000004 11.500000000000002 41.500000000000007 10.500000000000002 3.5000000000000004 5.5000000000000009 41.500000000000007 40.500000000000007 6.5000000000000009 9.5000000000000018 61.500000000000007 3.5000000000000004 3.5000000000000004 144.50000000000003 3.5000000000000004 35.500000000000007 1.0000000180025095e-35 1.5000000000000002 4.5000000000000009 28.500000000000004 29.500000000000004 1.0000000180025095e-35 4.5000000000000009 6.5000000000000009 102.50000000000001 1.5000000000000002 4.5000000000000009 16.500000000000004 6.5000000000000009
decision_type=2 2 2 2 2 2 2 2 2 2 2 2 2 2 2 2 2 2 2 2 2 2 2 2 2 2 2 2 2 2
left_child=1 3 4 16 5 12 7 8 10 17 13 -9 14 -7 -2 -11 -1 -8 -14 -20 -3 22 -22 25 -25 28 27 -24 -23 -26
right_child=2 20 -4 -5 -6 6 9 11 -10 15 -12 -13 18 -15 -16 -17 -18 -19 19 -21 21 23 26 24 29 -27 -28 -29 -30 -31
leaf_value=-0.017318434343317295 0.0064675515105257391 -0.023676474377057197 0.021984539888538646 -0.04164939843509724 0.024777959371440655 0.021275794281127646 -0.037909568962941342 0.057639243260026667 -0.082581100076762143 0.0091350388620309569 0.060820335547405562 -0.012454988862154692 0.00095113890529234177 -0.0095757284160814891 -0.077763641234681255 0.091093774728606802 0.34958444788863535 0.030785623287446853 -0.04461820728619896 -0.01259873561466089 0.0052368528435379411 0.019350879857148492 0.19923699119454708 -0.027027475919523054 0.013367770530470955 0.11182716494057184 0.13255150951765612 0.71247690716943968 -0.059581696149918664 0.2076169716542863
leaf_weight=1078.4851688127965 854.70027409121394 152.34049401432276 757.98408088088036 335.31457558274269 294.62152520939708 298.45340541005135 167.75430946052074 172.86008432507515 28.853733733296394 89.488234549760818 54.679537236690521 33.626065075397491 326.60480801016092 250.64716617763042 17.107644144445658 21.400064691901207 0.84882421605288882 27.677117988467216 150.26016947254539 356.40837538614869 15.871818885207178 246.29878885298967 1.2983692809939369 221.56870473921299 124.0504709482193 12.849823102355002 6.2989322021603584 0.85121483355760563 19.028516508638859 2.9599931687116614
leaf_count=23135 5291 1877 3876 10410 2024 1370 886 794 139 414 314 154 2569 1210 125 100 11 146 1874 2252 236 2211 18 2881 1510 106 52 11 177 12
internal_value=0 -0.147951 0.0742334 -0.228655 0.0391408 0.0175764 0.102116 0.172053 0.0773363 -0.0894668 0.120496 0.462245 -0.0392153 0.0719304 0.0481467 0.249521 -0.170299 -0.281809 -0.130617 -0.220946 -0.00584994 0.0481801 0.733216 0.0215983 -0.106593 0.182233 2.01229 4.02475 0.136901 0.178948
internal_weight=0 2218.07 3903.13 1414.65 3145.14 2850.52 1145.44 839.12 632.634 306.32 603.78 206.486 1705.08 549.101 871.808 110.888 1079.33 195.431 833.273 506.669 803.417 651.077 24.3203 626.756 348.579 278.177 8.44852 2.14958 265.327 127.01
internal_count=66185 42647 23538 33556 19662 17638 5527 3981 3033 1546 2894 948 12111 2580 5416 514 23146 1032 6695 4126 9091 7214 317 6897 4403 2494 81 29 2388 1522
shrinkage=0.1


Tree=28
num_leaves=31
num_cat=0
split_feature=7 0 19 1 0 7 5 1 8 5 2 2 0 0 7 7 0 4 9 3 7 3 17 1 1 10 9 19 3 0
split_gain=59.3223 24.791 23.4148 19.2543 18.8202 15.2448 15.2137 14.9051 14.0168 13.8418 12.8682 11.8542 11.5067 26.0158 12.9509 12.1349 11.9624 12.5711 11.8979 11.522 11.1056 10.9993 18.0592 14.8699 11.4582 10.7722 9.98982 9.95986 16.5958 10.6233
threshold=6.5000000000000009 1.5000000000000002 1.0000000180025095e-35 49.500000000000007 6.5000000000000009 1.5000000000000002 7.5000000000000009 37.500000000000007 79.500000000000014 1.0000000180025095e-35 15.500000000000002 3.5000000000000004 3.5000000000000004 5.5000000000000009 27.500000000000004 15.500000000000002 2.5000000000000004 1.0000000180025095e-35 1.0000000180025095e-35 208.50000000000003 2.5000000000000004 14.500000000000002 23.500000000000004 54.500000000000007 58.500000000000007 3.5000000000000004 132.50000000000003 5.5000000000000009 32.500000000000007 1.5000000000000002
decision_type=2 2 2 2 2 2 2 2 2 2 2 2 2 2 2 2 2 2 2 2 2 2 2 2 2 2 2 2 2 2
left_child=1 2 3 7 6 -4 12 9 11 -1 -9 21 16 15 18 19 17 27 -15 -14 -5 22 23 -3 -25 -7 -13 29 -29 -2
right_child=4 8 5 20 -6 25 -8 10 -10 -11 -12 26 13 14 -16 -17 -18 -19 -20 -21 -22 -23 -24 24 -26 -27 -28 28 -30 -31
leaf_value=-0.053727766414200719 0.048867900199129677 0.022690070322939137 -0.048568989989631398 -0.075414669997275557 0.056250563368747987 0.018784771584692904 0.038846509167704851 0.077958793779937127 0.16689889896297028 0.039234206566323759 0.013724018050288314 -0.0086114964018556058 0.016716156278669087 0.022612015770305034 0.059446539206142957 0.057110234420376049 -0.011902034753210274 0.0024512107299523157 -0.041462915795037844 0.090641754933512272 0.011898759189755024 -0.011101790661679942 -0.0051469966207404608 0.15981899865044605 0.046172618324170106 -0.027046705046428983 -0.092122045838544442 0.00085682871697425646 0.13261112875668857 0.0035113863928508109
leaf_weight=49.959087330847979 77.597239810973406 231.45129359140992 334.27713085152209 45.342372355982661 86.245684280991554 63.285716433078051 158.37756802141666 42.055898778140545 4.7878476716577998 23.575381711125374 120.67786632478237 1557.3030205648392 394.44461501389742 38.559143006801605 20.270524561405182 117.03335873782635 430.51371646672487 1097.6653160601854 116.6473723500967 22.273794740438461 21.462807377800345 259.97977666184306 251.96051761507988 14.609606955200432 22.588534153997898 270.4065875634551 14.457333069294689 17.336287375539541 21.31393077224493 154.36911743506789
leaf_count=1493 441 2210 12623 1636 406 938 1013 262 41 222 735 20084 1780 201 122 687 2665 6675 588 100 291 2807 2196 132 210 4299 174 95 117 942
internal_value=0 -0.0956855 -0.230153 0.000378928 0.102747 -0.33475 0.0878754 0.134406 -0.0402905 -0.239239 0.303245 -0.0437695 0.0688937 0.176765 -0.157264 0.286581 0.0263621 0.072105 -0.255443 0.206675 -0.473631 0.0569624 0.140848 0.321218 0.908073 -0.183546 -0.0937964 0.265149 0.735137 0.18684
internal_weight=0 3328.18 971.043 303.073 2752.65 667.969 2666.4 236.268 2357.14 73.5345 162.734 2352.35 2508.02 709.229 175.477 533.752 1798.8 1368.28 155.207 416.718 66.8052 780.59 520.61 268.649 37.1981 333.692 1571.76 270.617 38.6502 231.966
internal_count=66185 50353 22499 4639 15832 17860 15426 2712 27854 1715 997 27813 14413 3478 911 2567 10935 8270 789 1880 1927 7555 4748 2552 342 5237 20258 1595 212 1383
shrinkage=0.1


Tree=29
num_leaves=31
num_cat=0
split_feature=5 0 2 2 1 5 0 19 2 1 1 1 1 12 12 3 4 2 19 6 1 3 19 10 13 1 6 1 13 19
split_gain=50.7336 23.1939 18.2418 16.8978 13.0794 12.0488 10.5486 26.7474 16.5811 14.8475 18.7263 12.4754 22.2244 17.7245 17.5764 12.3816 11.1502 10.7223 10.3746 13.221 9.93237 9.79609 9.73578 11.0446 8.85485 8.75795 12.3065 11.0937 12.9243 12.178
