tree
version=v3
num_class=1
num_tree_per_iteration=1
label_index=0
max_feature_idx=27
objective=binary sigmoid:1
feature_names=country_code subject_line_length last_open_day last_login_day last_checkout_day open_count_last_10_days open_count_last_30_days open_count_last_60_days login_count_last_10_days login_count_last_30_days login_count_last_60_days checkout_count_last_10_days checkout_count_last_30_days checkout_count_last_60_days attr_1 attr_2 attr_3 age domain day last_open_day_nan last_login_day_nan last_checkout_day_nan attr_1_nan attr_2_nan attr_3_nan age_nan domain_nan
feature_infos=[1:7] [10:75] [-9999:808] [-9999:18134] [-9999:1430] [0:31] [0:92] [0:135] [0:254] [0:735] [0:1260] [0:157] [0:531] [0:783] [-9999:1] [-9999:1] [-9999:4] [-9999:98] [0:10] [0:6] [0:1] [0:1] [0:1] [0:1] [0:1] [0:1] [0:1] [0:1]
tree_sizes=3313 3338 3340 3357 3363 3377 3381 3390 3386 3396 3380 3392 3405 3376 3388 3377 3372 3395 3366 3381 3390 3383 3362 3396 3376 3380 3403 3373 3364 3390 3382 3364 3376 3362 3361 3381 3383 3355 3361 3331 3328 3376 3388 3371 3316 3360 3359 3359 3379 3370 3368 3389 3271 3360 3349 3314 3349 3351 3327 3310 3301 3326 3368 3329 3340 3313 3300 3348 3307 3306 3289 3340 3328 3389 3374 3334 3383 3339 3344 3285 3340 3300 3286 3337 3329 3282 3314 3330 3328 3291 3324 3288 3284 3335 3338 3320 3326 3288 3334 3326 3290 3342 3313 3320 3383 3305 3312 3279 3321 3369 3313 3318 3333 3351 3338 3309 3323 3312 3349 3335 3360 3271 3331 3341 3331 3335 3319 3324 3323 3334 3354 3285 3318 3336 3305 3331 3331 3328 3315 3304 3296 3344 3291 3308 3287 3285 3280 3361 3310 3300 3340 3311 3331 3315 3334 3302 3298 3340 3305 3365 3296 3328 3321 3293

Tree=0
num_leaves=31
num_cat=0
split_feature=5 6 0 5 0 6 0 6 0 5 5 6 7 6 7 7 5 0 19 7 5 3 0 7 0 0 0 2 5 0
split_gain=14579.1 2807.95 1084.38 697.602 505.159 285.005 455.694 248.332 242.455 219.085 195.392 173.807 144.763 107.397 77.3212 77.2457 62.4539 52.6597 51.6264 53.471 51.594 49.1067 43.4686 40.25 51.8225 38.6447 64.4535 38.6394 38.2119 39.163
threshold=1.5000000000000002 9.5000000000000018 3.5000000000000004 1.0000000180025095e-35 3.5000000000000004 16.500000000000004 3.5000000000000004 5.5000000000000009 3.5000000000000004 3.5000000000000004 3.5000000000000004 1.5000000000000002 9.5000000000000018 3.5000000000000004 12.500000000000002 24.500000000000004 3.5000000000000004 5.5000000000000009 1.0000000180025095e-35 3.5000000000000004 5.5000000000000009 -1.0000000180025095e-35 6.5000000000000009 8.5000000000000018 6.5000000000000009 5.5000000000000009 6.5000000000000009 1.0000000180025095e-35 6.5000000000000009 2.5000000000000004
decision_type=2 2 2 2 2 2 2 2 2 2 2 2 2 2 2 2 2 2 2 2 2 2 2 2 2 2 2 2 2 2
left_child=3 2 9 8 12 6 10 17 18 14 -3 21 27 -6 -2 -12 -7 -4 -1 -20 -11 -10 -19 -13 -25 -9 -27 -5 29 -18
right_child=1 5 7 4 13 16 -8 25 11 20 15 23 -14 -15 -16 -17 28 22 19 -21 -22 -23 -24 24 -26 26 -28 -29 -30 -31
leaf_value=-1.7604503035043173 -1.6511828671502093 -1.5010796987631063 -1.4421920462686624 -1.5803342200808124 -1.6192467813992215 -1.4784691231761384 -1.1642256610895374 -1.2841397592353911 -1.6095804288345918 -1.5200265206506047 -1.3701132755781293 -1.6598859857744857 -1.6371056872093226 -1.4929805224611541 -1.5549875058275366 -1.2385504468826758 -1.1772579201589441 -1.6288322638882611 -1.7923996397442445 -1.7594938508170308 -1.3531244521936647 -1.7497305777140901 -1.4312476409690258 -1.6026989679513497 -1.2808291679859838 -1.4873142396173347 -1.2381535776615911 -1.7451884768675188 -1.1456589547468843 -1.3265100815726576
leaf_weight=951.99714642763138 458.44205725193024 99.552678525447845 129.14231216907501 14.466043114662169 252.10367864370346 6.9700025916099539 132.56155872344971 138.08495700359344 25.644349157810211 118.2270250916481 153.07703804969788 148.0796777009964 154.65515184402466 91.925128519535065 102.18286818265915 62.993042290210724 47.211904346942902 33.403408646583557 2871.3780487775803 596.39550477266312 21.962083637714386 996.18433266878128 16.701704323291779 22.356612086296085 6.4439646601676932 27.090953469276428 16.833213806152344 828.24672305583954 151.63043373823166 28.011519849300385
leaf_count=7239 3486 757 982 110 1917 53 1008 1050 195 899 1164 1126 1176 699 777 479 359 254 21834 4535 167 7575 127 170 49 206 128 6298 1153 213
internal_value=0 2.58538 1.56859 -0.647871 6.7211e-05 4.16879 3.70186 2.97596 -0.802565 0.843123 3.04838 -0.403679 -0.36035 1.04495 0.56353 3.58245 5.06377 2.14049 -0.910749 -0.967377 1.96123 -0.562105 1.27032 0.511544 1.5932 3.79875 2.98175 -0.523558 5.15436 4.57167
internal_weight=0 1744.08 1062.07 6959.88 1341.4 682.008 448.184 361.257 5618.48 700.814 315.623 1198.71 997.368 344.029 560.625 216.07 233.824 179.247 4419.77 3467.77 140.189 1021.83 50.1051 176.88 28.8006 182.009 43.9242 842.713 226.854 75.2234
internal_count=66185 13262 8076 52923 10200 5186 3408 2747 42723 5329 2400 9115 7584 2616 4263 1643 1778 1363 33608 26369 1066 7770 381 1345 219 1384 334 6408 1725 572
shrinkage=1


Tree=1
num_leaves=31
num_cat=0
split_feature=5 6 5 0 0 0 5 0 7 7 5 6 6 6 7 7 0 0 13 7 2 7 6 2 5 0 10 2 0 10
split_gain=10222.5 1292.04 626.452 497.868 388.802 229.038 156.109 307.37 152.756 120.364 112.378 86.3854 84.3095 74.1697 56.8857 48.7293 37.3206 36.4505 37.6145 33.4945 31.2407 30.2794 29.8633 29.2873 29.6327 29.0453 33.7987 28.0711 26.7824 36.5948
threshold=1.5000000000000002 8.5000000000000018 1.0000000180025095e-35 3.5000000000000004 3.5000000000000004 3.5000000000000004 4.5000000000000009 3.5000000000000004 3.5000000000000004 9.5000000000000018 3.5000000000000004 4.5000000000000009 11.500000000000002 2.5000000000000004 26.500000000000004 3.5000000000000004 4.5000000000000009 2.5000000000000004 1.5000000000000002 12.500000000000002 1.0000000180025095e-35 4.5000000000000009 7.5000000000000009 1.0000000180025095e-35 2.5000000000000004 2.5000000000000004 6.5000000000000009 1.5000000000000002 5.5000000000000009 18.500000000000004
decision_type=2 2 2 2 2 2 2 2 2 2 2 2 2 2 2 2 2 2 2 2 2 2 2 2 2 2 2 2 2 2
left_child=2 3 5 10 9 15 7 12 16 20 19 -5 25 27 -8 -1 -7 18 -14 23 -4 -22 -15 -2 -25 26 -3 -6 29 -29
right_child=1 6 4 11 13 8 14 -9 -10 -11 -12 -13 17 22 -16 -17 -18 -19 -20 -21 21 -23 -24 24 -26 -27 -28 28 -30 -31
leaf_value=-0.092684157910369824 0.30043242303641327 0.22298235428347357 0.091283917551377797 0.14554481390613144 0.15197022052633746 -0.0218792922845585 0.27613443170311014 0.33725294186979737 0.053799045757614253 0.045828543140739121 0.14910168811877494 0.24246312524463451 0.31768854140021441 0.12656717288468575 0.33999215055849136 -0.06422799561041824 -0.064211435998820107 0.13544225923222677 0.19287756704189474 0.1029120214836865 -0.064001013183010824 -0.020788092227459948 0.29363632890081215 0.013775479584187296 0.069644332848855822 0.037943665905574818 0.10770464599239904 0.13199078964239622 -0.023911309259713256 0.021466536768671812
leaf_weight=3416.4107397794724 4.0513354539871207 35.887238249182701 15.575253963470457 148.96800072491169 23.180940270423889 294.11803436279297 268.88199388980865 169.46269959211349 158.35387744009495 160.33129227161407 122.98949229717255 240.34455399215221 50.57054515182972 147.54775720834732 289.91256140172482 730.44306103885174 713.43696913123131 32.322217553853989 46.210895106196404 79.89957757294178 570.51784753799438 226.53658986091614 11.535507783293722 319.65036731958389 135.04451513290405 34.903385743498802 87.313901945948601 45.67197160422802 54.226842418313026 87.066507801413536
leaf_count=27777 30 240 110 984 168 2300 1592 956 1179 1176 823 1471 317 1016 1612 5831 5636 206 290 555 4508 1790 77 2367 1000 234 585 331 393 631
internal_value=0 1.93377 -0.612411 1.1565 -0.00199706 -0.766623 2.7382 2.30448 -0.375043 -0.333554 0.628536 2.05378 1.6743 0.871691 3.09265 -0.876718 -0.518541 2.27387 2.58094 0.431605 -0.489783 -0.517192 1.38682 0.327536 0.303685 1.1847 1.41284 0.481735 0.353042 0.594952
internal_weight=0 2066.41 6654.95 1050.95 1342.19 5312.76 1015.47 456.671 1165.91 972.961 661.635 389.313 287.208 369.23 558.795 4146.85 1007.56 129.104 96.7814 538.646 812.63 797.054 159.083 458.746 454.695 158.105 123.201 210.146 186.965 132.738
internal_count=66185 13262 52923 7230 10200 42723 6032 2828 9115 7584 4775 2455 1872 2616 3204 33608 7936 813 607 3952 6408 6298 1093 3397 3367 1059 825 1523 1355 962
shrinkage=0.1


Tree=2
num_leaves=31
num_cat=0
split_feature=5 6 5 0 0 0 6 6 5 5 0 6 0 6 19 7 6 0 1 1 0 2 5 0 0 0 1 1 2 3
split_gain=7682.6 774.17 560.744 320.208 302.957 216.138 130.139 101.792 98.669 76.9115 66.7695 121.212 58.0119 54.9814 54.1217 52.7399 50.0967 41.9185 41.603 164.303 131.327 52.1137 30.0909 47.9042 29.9556 36.9929 33.5659 28.5527 27.7762 27.7532
threshold=1.5000000000000002 8.5000000000000018 1.0000000180025095e-35 3.5000000000000004 3.5000000000000004 3.5000000000000004 1.5000000000000002 3.5000000000000004 2.5000000000000004 3.5000000000000004 3.5000000000000004 13.500000000000002 3.5000000000000004 3.5000000000000004 1.0000000180025095e-35 3.5000000000000004 2.5000000000000004 4.5000000000000009 48.500000000000007 39.500000000000007 1.5000000000000002 41.500000000000007 7.5000000000000009 2.5000000000000004 5.5000000000000009 6.5000000000000009 42.500000000000007 54.500000000000007 1.0000000180025095e-35 75.500000000000014
decision_type=2 2 2 2 2 2 2 2 2 2 2 2 2 2 2 2 2 2 2 2 2 2 2 2 2 2 2 2 2 2
left_child=2 3 5 9 7 14 17 28 12 -2 11 27 29 -5 18 -16 -6 -7 19 -1 21 -21 23 -13 26 -26 -15 -10 -4 -3
right_child=1 8 4 13 16 6 -8 -9 10 -11 -12 22 -14 24 15 -17 -18 -19 -20 20 -22 -23 -24 -25 25 -27 -28 -29 -30 -31
leaf_value=-0.082783865569242443 0.037628379890011734 0.041869866699250489 0.077195428864436269 0.099351368021109387 0.041762717553555803 -0.017197002463972443 0.041885198525615543 0.022539833777399626 0.17292660629134338 0.12187220123873561 0.26583915496007221 0.2430098817879025 0.21935209797709573 0.18015216929640429 -0.096730819588704831 -0.062337792868341846 0.11385005854657129 -0.063286339374761191 -0.08628347953311849 0.17386963920955098 -0.096178737599732111 0.031427035732404858 0.2719217468633966 0.15387919792473931 0.075582559639373742 0.21444739587200803 0.26658801574374008 0.094966444704635875 -0.054050246250918844 0.21598628958784066
leaf_weight=315.24525561183691 554.3305499702692 59.833267539739609 16.520311087369919 102.2368001639843 217.02880376577377 279.6429057046771 185.33194424211979 259.60189820826054 243.56890459358692 134.70672038197517 263.66952845454216 234.45235519111156 39.894587099552155 195.85694260895252 2498.5344706177711 542.70458158105612 173.44763544201851 670.45549076795578 386.91253489255905 54.89914233237505 45.847481347620487 48.26561076939106 173.57437291741371 81.179128468036652 48.968720614910126 31.539593458175659 58.300918981432915 58.20508636534214 674.10271379351616 10.808097034692763
leaf_count=2679 3952 374 110 618 1523 2225 1345 1958 1391 823 1271 1164 193 1059 21834 4535 1093 5545 3292 467 389 412 824 418 297 167 314 331 5516 66
internal_value=0 1.55696 -0.578343 0.965629 -0.00371451 -0.731571 -0.347683 -0.30844 2.12838 0.54098 2.22259 2.07732 1.22952 1.63534 -0.843552 -0.905934 0.737835 -0.497208 -0.620661 -0.418833 0.446446 1.07228 2.38478 2.20086 1.83141 1.29984 1.9998 1.5789 -0.509107 0.685096
internal_weight=0 2291.13 6368.54 1125.94 1340.7 5027.84 1135.43 950.225 1165.19 689.037 1054.65 790.98 110.536 436.903 3892.41 3041.24 390.476 950.098 851.17 464.257 149.012 103.165 489.206 315.631 334.666 80.5083 254.158 301.774 690.623 70.6414
internal_count=66185 13262 52923 7230 10200 42723 9115 7584 6032 4775 5399 4128 633 2455 33608 26369 2616 7770 7239 3947 1268 879 2406 1582 1837 464 1373 1722 5626 440
shrinkage=0.1


Tree=3
num_leaves=31
num_cat=0
split_feature=5 6 5 0 0 0 7 7 5 7 0 5 19 7 5 6 1 1 0 7 7 3 5 5 7 1 0 0 0 13
split_gain=5974.04 530.549 501.69 259.47 238.915 203.613 113.87 91.5954 67.5801 55.374 76.763 54.9295 52.4879 52.2019 50.725 42.0345 38.7056 140.72 102.32 35.711 35.1808 34.1986 32.2338 29.2003 29.0734 24.9715 29.9716 24.3143 59.3896 31.3161
threshold=1.5000000000000002 9.5000000000000018 1.0000000180025095e-35 3.5000000000000004 3.5000000000000004 3.5000000000000004 3.5000000000000004 7.5000000000000009 2.5000000000000004 26.500000000000004 3.5000000000000004 2.5000000000000004 1.0000000180025095e-35 3.5000000000000004 2.5000000000000004 5.5000000000000009 48.500000000000007 39.500000000000007 1.5000000000000002 1.0000000180025095e-35 13.500000000000002 -1.0000000180025095e-35 6.5000000000000009 5.5000000000000009 1.5000000000000002 61.500000000000007 5.5000000000000009 5.5000000000000009 6.5000000000000009 2.5000000000000004
decision_type=2 2 2 2 2 2 2 2 2 2 2 2 2 2 2 2 2 2 2 2 2 2 2 2 2 2 2 2 2 2
left_child=2 3 5 8 7 12 21 -4 20 10 14 -5 16 -14 -3 27 17 -1 19 -19 -2 -7 -16 -10 -23 26 -8 29 -29 -6
right_child=1 9 4 11 15 6 25 -9 23 -11 -12 -13 13 -15 22 -17 -18 18 -20 -21 -22 24 -24 -25 -26 -27 -28 28 -30 -31
leaf_value=-0.079455047226640096 0.012164673810721872 0.031254446078334011 -0.046445966680197279 0.11213212835337866 0.10610102465929559 0.066613472114838465 0.062604173476500366 0.026359549463632934 0.073525063649637207 0.20877247571327145 0.21159042640569115 0.17626883059432191 -0.093948136157128714 -0.058859408599530628 0.13476908344550059 0.15078318388459966 -0.083044970800041432 0.024098086180042482 -0.093285013889413182 0.13831173447240883 0.097612463072693639 -0.057754603298731555 0.20261115280384595 0.172580671261167 -0.012995343984487593 0.15120586819313142 -0.032671097938544766 -0.036964903317683331 0.12441108066477567 0.035440537517732427
leaf_weight=296.58524091541767 355.07678434252739 39.591928198933601 699.81996913254261 287.88880944252014 118.05217845737934 26.367644101381302 96.769194811582565 229.45886954665184 364.94038470089436 444.19484210014343 219.22150062024593 249.05602018535137 2324.3195614814758 518.58170341700315 315.14879409968853 48.412340313196182 363.04828813672066 48.355281338095665 42.705788545310497 63.097801767289639 55.749404147267342 733.74000482261181 90.04522442817688 32.402029201388359 180.89936937391758 19.256877303123474 50.118474200367928 75.379290342330933 32.697305589914322 133.81961873173714
leaf_count=2679 2521 234 5902 1518 755 195 693 1682 2290 1982 955 1229 21834 4535 1598 273 3292 398 389 481 351 6270 417 167 1471 127 359 500 216 872
internal_value=0 1.30209 -0.54567 0.879984 -0.00453037 -0.697616 -0.321896 -0.284687 0.521988 1.81442 1.63159 1.41881 -0.811375 -0.875475 1.39289 0.633004 -0.587446 -0.39172 0.383282 0.887587 0.2376 -0.456652 1.49845 0.816027 -0.48902 0.441332 0.30096 0.515341 0.118575 0.685591
internal_weight=0 2453.32 6101.48 1345.11 1337.64 4763.85 1107.15 929.279 808.169 1108.2 664.007 536.945 3656.69 2842.9 444.786 408.361 813.792 450.744 154.159 111.453 410.826 941.007 405.194 397.342 914.639 166.145 146.888 359.948 108.077 251.872
internal_count=66185 13262 52923 8076 10200 42723 9115 7584 5329 5186 3204 2747 33608 26369 2249 2616 7239 3947 1268 879 2872 7936 2015 2457 7741 1179 1052 2343 716 1627
shrinkage=0.1


Tree=4
num_leaves=31
num_cat=0
split_feature=5 5 6 0 0 0 7 7 7 0 5 19 7 5 0 1 1 0 7 6 2 2 7 0 0 0 0 3 2 5
split_gain=4738.24 447.617 397.491 191.051 189.297 158.456 96.1254 78.6338 56.4663 93.8925 53.6385 50.6587 51.6118 43.6246 38.4128 35.8434 121.503 80.1242 33.7975 32.736 26.1839 21.9923 23.7068 21.788 21.4309 28.8683 21.4081 20.9642 20.4813 20.4163
threshold=1.5000000000000002 1.0000000180025095e-35 8.5000000000000018 3.5000000000000004 3.5000000000000004 3.5000000000000004 4.5000000000000009 9.5000000000000018 24.500000000000004 3.5000000000000004 5.5000000000000009 1.0000000180025095e-35 3.5000000000000004 3.5000000000000004 4.5000000000000009 48.500000000000007 38.500000000000007 1.5000000000000002 4.5000000000000009 4.5000000000000009 15.500000000000002 1.0000000180025095e-35 4.5000000000000009 2.5000000000000004 6.5000000000000009 5.5000000000000009 1.5000000000000002 51.500000000000007 12.500000000000002 2.5000000000000004
decision_type=2 2 2 2 2 2 2 2 2 2 2 2 2 2 2 2 2 2 2 2 2 2 2 2 2 2 2 2 2 2
left_child=1 3 5 11 7 13 14 21 9 10 29 15 26 28 -5 16 -1 20 -6 -7 -18 -3 -23 -17 25 -20 -13 -22 -2 -4
right_child=2 4 8 6 18 19 -8 -9 -10 -11 -12 12 -14 -15 -16 23 17 -19 24 -21 27 22 -24 -25 -26 -27 -28 -29 -30 -31
leaf_value=-0.078408152547257928 0.023762448334961033 0.072675298172952527 0.032929676407919224 -0.010952558360631512 0.031055701197978004 0.080513550826382119 0.053810158758751031 0.035224012997341743 0.17405912608175006 0.17839868982690835 0.15606170958979404 -0.098622414373002232 -0.055474494725314363 0.088755381222977436 -0.054016326956304456 -0.0989960190672865 0.16646709303215346 -0.075570841985077297 0.1025818533768883 0.13336873137814528 0.026096150343561261 -0.05473654447025416 -0.015202734648112743 -0.046466270325276678 0.20291579066688092 0.004948560526656251 -0.077839560097083579 0.1416140239956335 0.10355772393456802 0.096257224652666645
leaf_weight=268.55489641427994 547.7768969386816 16.842025965452194 61.499944657087326 302.6673501804471 249.14563342928886 186.14699891209602 122.02391745150089 169.45061865448952 543.02727518975735 283.09292916953564 153.34227555990219 1393.3124582916498 496.38442520052195 151.08986251056194 656.23916436731815 216.72540286183357 24.677544549107552 50.548045448958874 118.90545992553234 316.27154709398746 73.781337842345238 507.39278867840767 216.36357349157333 124.2158230394125 14.953259378671644 40.634244456887245 769.30815835297108 19.96026124060154 34.173235893249512 295.6107190400362
leaf_count=2576 3718 110 363 2458 1616 984 831 1176 2312 1186 686 14067 4535 823 5826 2092 171 492 673 1471 557 4508 1790 1200 83 244 7767 151 234 1485
internal_value=0 -0.514296 1.11416 -0.664552 -0.00524296 0.705273 -0.297859 -0.262288 1.49212 1.32209 1.06593 -0.779861 -0.845546 0.408783 -0.404238 -0.555499 -0.36608 0.298289 0.546935 1.13786 0.748195 -0.402894 -0.429181 -0.798577 0.884441 0.77715 -0.912293 0.506932 0.284482 0.853512
internal_weight=0 5852.09 2572.03 4518.4 1333.69 1235.46 1080.93 910.049 1336.57 793.546 510.453 3437.47 2659.01 733.04 958.907 778.463 437.522 168.967 423.639 502.419 118.419 740.598 723.756 340.941 174.493 159.54 2162.62 93.7416 581.95 357.111
internal_count=66185 52923 13262 42723 10200 7230 9115 7584 6032 3720 2534 33608 26369 4775 8284 7239 3947 1371 2616 2455 879 6408 6298 3292 1000 917 21834 708 3952 1848
shrinkage=0.1


Tree=5
num_leaves=31
num_cat=0
split_feature=5 6 6 0 0 0 6 6 0 19 6 1 1 0 6 0 5 6 0 0 0 5 1 21 2 2 1 5 5 0
split_gain=3806.76 404.938 311.556 217.129 147.46 100.801 63.1781 58.8806 87.4159 57.2706 47.9634 34.4612 109.821 55.1685 33.2288 32.0364 31.9015 31.7125 28.0935 26.6472 32.7413 26.5605 25.7368 25.7095 24.9731 22.8096 20.1668 20.9515 19.1121 22.4284
threshold=1.5000000000000002 1.5000000000000002 7.5000000000000009 3.5000000000000004 3.5000000000000004 3.5000000000000004 6.5000000000000009 15.500000000000002 3.5000000000000004 1.0000000180025095e-35 1.0000000180025095e-35 48.500000000000007 38.500000000000007 1.5000000000000002 11.500000000000002 1.5000000000000002 2.5000000000000004 5.5000000000000009 2.5000000000000004 5.5000000000000009 6.5000000000000009 1.0000000180025095e-35 41.500000000000007 1.0000000180025095e-35 41.500000000000007 1.5000000000000002 40.500000000000007 2.5000000000000004 4.5000000000000009 2.5000000000000004
decision_type=2 2 2 2 2 2 2 2 2 2 2 2 2 2 2 2 2 2 2 2 2 2 2 2 2 2 2 2 2 2
left_child=1 4 5 6 9 16 21 8 14 11 23 12 -1 24 28 -11 -2 -5 -13 22 -21 -3 26 -6 -14 -12 27 -7 29 -4
right_child=2 3 7 17 10 19 -8 -9 -10 15 25 18 13 -15 -16 -17 -18 -19 -20 20 -22 -23 -24 -25 -26 -27 -28 -29 -30 -31
leaf_value=-0.075926102302761422 0.012001672228316064 -0.054251209254773627 0.071651036706599294 0.038610308350433546 -0.051813313127567873 0.075310923838900604 0.035884514716571017 0.15385586975160159 0.14990976388543617 -0.093372588986143257 0.0951877327468027 -0.10010886409860911 0.10978900838421046 -0.069352433337558569 0.11586893077721371 -0.068978534833583474 0.056405634115705761 0.11046727914839093 -0.037460183067661641 0.0068807206504680075 0.11666670151394257 -0.021795758893140654 0.15415503170827557 0.05152723582478385 0.017054062073219727 -0.0086027817144404585 -0.025876046879443639 0.13760092763813389 0.10758539843644498 0.001587311127025216
leaf_weight=226.30035221576691 370.86097012460232 528.55849475413561 215.72883751988411 419.72381739318371 640.10573968291283 150.28816401958466 127.68538143485785 503.54508848488331 388.13286146521568 1441.4081654027104 22.705470107495785 189.65067390352488 63.652919128537178 39.376084536314011 284.69583371281624 859.31719503551722 287.01098485291004 71.945205956697464 114.97076846659184 67.729326337575912 45.355525135993958 482.17538946866989 86.167772263288498 25.015038564801216 53.40196892619133 313.91299835592508 13.995812207460402 84.279379263520241 101.68149365484715 57.965515315532684
leaf_count=2286 2540 5219 1172 2680 5870 720 982 2065 1603 15393 145 1958 427 400 1272 8907 1697 380 1134 357 208 4068 392 178 418 2478 65 378 466 327
internal_value=0 -0.484055 0.968482 -0.0641016 -0.655632 0.562851 -0.303951 1.25751 1.1225 -0.766944 -0.3236 -0.513657 -0.313897 0.330388 0.901054 -0.842614 0.313739 0.49125 -0.764639 0.928815 0.509132 -0.387682 1.0706 -0.479267 0.674821 -0.0160194 0.907338 0.976915 0.705657 0.568123
internal_weight=0 5619.91 2657.44 1630.09 3989.82 1105.69 1138.42 1551.75 1048.2 2988.08 1001.74 687.353 382.731 156.431 660.072 2300.73 657.872 491.669 304.621 447.816 113.085 1010.73 334.731 665.121 117.055 336.618 248.563 234.568 375.376 273.694
internal_count=66185 52923 13262 13329 39594 6357 10269 6905 4840 30923 8671 6623 3531 1245 3237 24300 4237 3060 3092 2120 565 9287 1555 6048 845 2623 1163 1098 1965 1499
shrinkage=0.1


Tree=6
num_leaves=31
num_cat=0
split_feature=6 5 5 0 0 0 6 0 19 5 0 5 1 1 0 0 5 0 0 1 0 1 0 2 2 1 12 0 2 0
split_gain=3109.29 340.91 321.127 137.016 130.79 105.413 85.3217 62.522 47.583 40.1253 38.2363 33.661 32.3076 74.2349 83.9865 29.2943 28.6699 36.5807 29.0416 25.5068 27.3411 21.2053 46.8569 21.1657 20.9543 20.7138 23.4829 20.3227 20.1928 25.1311
threshold=3.5000000000000004 2.5000000000000004 1.0000000180025095e-35 3.5000000000000004 3.5000000000000004 3.5000000000000004 9.5000000000000018 3.5000000000000004 1.0000000180025095e-35 1.0000000180025095e-35 4.5000000000000009 1.5000000000000002 37.500000000000007 48.500000000000007 1.5000000000000002 1.5000000000000002 7.5000000000000009 3.5000000000000004 2.5000000000000004 52.500000000000007 2.5000000000000004 23.500000000000004 2.5000000000000004 1.0000000180025095e-35 20.500000000000004 31.500000000000004 1.0000000180025095e-35 2.5000000000000004 1.5000000000000002 5.5000000000000009
decision_type=2 2 2 2 2 2 2 2 2 2 2 2 2 2 2 2 2 2 2 2 2 2 2 2 2 2 2 2 2 2
left_child=2 4 3 8 9 11 7 -3 12 -2 -5 23 -1 14 -14 -10 17 18 -8 20 25 22 24 -4 -17 -11 -27 -15 -7 -30
right_child=1 6 5 10 -6 28 16 -9 15 19 -12 -13 13 27 -16 21 -18 -19 -20 -21 -22 -23 -24 -25 -26 26 -28 -29 29 -31
leaf_value=-0.091943377658943809 -0.029307214035791635 0.052722563616251023 0.071680550962175668 -0.0031864891426841898 0.080165846229737756 0.089251910242447371 0.11436205173211254 0.11486360373479515 -0.091589766625567726 -0.0075563849975688255 -0.045221578249972687 0.0071355257624524417 0.055611017590730075 -0.095524412787632199 -0.062489966743846097 0.537779200528958 0.1530386671495452 0.14814917901568395 0.065997659395541766 -0.013788477041218872 -0.0041305014908068543 -0.070490294900274683 -0.069821728692249826 -0.041790847774669869 0.14078807239359342 0.090026112425281246 0.030869625229478437 -0.040783714784152922 0.042085600938544743 -0.016037926776171076
leaf_weight=153.53543412685394 180.1325317248702 402.38050472736359 16.913268283009529 323.56382237374783 446.60610100626945 58.545095756649971 500.25285305082798 270.92720413208008 1279.0081209242344 49.837422028183937 653.36241794377565 219.50642041862011 130.00501566380262 175.22721698135138 112.1675281971693 1.8459282144904143 243.42117914557457 236.45924757421017 165.14299170672894 131.8091403990984 121.02983731031418 894.02038311958313 14.435859382152557 585.53732308000326 4.7530521005392075 144.81086039543152 125.05072815716267 110.64507282525301 270.12916612625122 102.65956969559193
leaf_count=1662 1769 2201 110 2638 2166 320 2129 1156 14889 333 6106 1481 906 1973 1211 19 978 947 715 900 840 9827 158 5516 51 972 854 1143 1567 648
internal_value=0 0.786828 -0.493508 -0.636547 0.372945 -0.0538111 1.05977 0.77727 -0.746466 0.118563 -0.312993 -0.2639 -0.515672 -0.398274 0.00909955 -0.818162 1.22584 1.14365 1.02359 0.248072 0.363501 -0.681553 0.310883 -0.386052 2.51838 0.51675 0.626137 -0.743374 0.346538 0.260794
internal_weight=0 3017.86 5105.86 3852.57 1199.28 1253.29 1818.58 673.308 2875.64 752.671 976.926 821.957 681.58 528.045 242.173 2194.06 1145.28 901.855 665.396 572.538 440.729 915.055 21.0348 602.451 6.59898 319.699 269.862 285.872 431.334 372.789
internal_count=66185 15960 50225 40583 7834 9642 8126 3357 31839 5668 8744 7107 6895 5233 2117 24944 4769 3791 2844 3899 2999 10055 228 5626 70 2159 1826 3116 2535 2215
shrinkage=0.1


Tree=7
num_leaves=31
num_cat=0
split_feature=6 5 5 0 0 0 7 19 5 7 7 0 7 1 1 0 5 2 0 3 1 2 5 7 0 0 0 3 1 0
split_gain=2541.82 286.985 283.647 166.521 129.095 85.5518 58.7522 45.6253 44.0678 44.0409 42.5326 36.0284 35.7512 30.3529 65.939 68.8032 29.8902 31.081 29.2963 25.8346 20.6364 20.1609 19.4135 19.3417 18.8453 27.1463 18.4717 25.6344 18.3341 31.5267
threshold=3.5000000000000004 1.0000000180025095e-35 3.5000000000000004 3.5000000000000004 3.5000000000000004 3.5000000000000004 11.500000000000002 1.0000000180025095e-35 1.0000000180025095e-35 1.5000000000000002 23.500000000000004 3.5000000000000004 16.500000000000004 37.500000000000007 48.500000000000007 1.5000000000000002 2.5000000000000004 1.0000000180025095e-35 1.5000000000000002 -1.0000000180025095e-35 52.500000000000007 10.500000000000002 4.5000000000000009 1.0000000180025095e-35 5.5000000000000009 6.5000000000000009 5.5000000000000009 97.500000000000014 23.500000000000004 2.5000000000000004
decision_type=2 2 2 2 2 2 2 2 2 2 2 2 2 2 2 2 2 2 2 2 2 2 2 2 2 2 2 2 2 2
left_child=1 4 3 8 7 16 -5 13 -2 19 11 22 -10 -1 15 23 17 -3 -9 -6 -14 -16 -4 -15 -8 -26 27 -11 29 -20
right_child=2 5 10 6 9 -7 24 18 12 26 -12 -13 20 14 21 -17 -18 -19 28 -21 -22 -23 -24 -25 25 -27 -28 -29 -30 -31
leaf_value=-0.089438884176614969 -0.027012964541039547 0.090367755123249668 0.05221384577998929 0.057733629133647296 0.055962787389376024 0.030575668524114072 0.13376404951751505 -0.089199156744248748 0.015834078062153308 0.015048363117438674 0.12627832199554587 0.12267009000485124 0.075806335755880971 0.0042596541652910776 -0.029491101325632069 -0.059281417816206376 0.05855785404437594 -0.032185540903147354 0.18312563405077775 -0.046912082037518621 -0.00077476039985414186 -0.089192587715749908 0.091423649510189567 0.080894910744734747 0.038494553831486707 0.16041703706223912 -0.029230591174216891 0.19556573595019699 -0.067342868477750284 -0.066661000263540368
leaf_weight=142.61747191101313 176.10719690471888 21.287095099687576 216.56739228963852 418.6410465836525 25.376658335328102 439.14367620646954 196.95389437675476 1186.7394718304276 657.36663071066141 172.7643706575036 549.81408348679543 229.24760082364082 188.50495293736458 57.406740039587021 80.814312390983105 106.70430222898722 41.312463611364365 742.77583457529545 8.022774875164032 641.41672058403492 43.263657420873642 188.49927946925163 302.86737377941608 77.251920238137245 57.456403359770775 26.770396217703819 106.42841502279043 8.241834454238413 844.81679554283619 13.649747848510742
leaf_count=1662 1769 131 1034 1962 175 2535 826 14889 4328 1339 2217 934 988 429 899 1211 256 6720 70 6270 228 2217 1301 477 260 113 899 61 9827 158
internal_value=0 -0.464151 0.696829 0.435843 -0.605182 -0.0493098 0.814796 -0.716686 0.186887 -0.288918 1.05159 0.896493 0.277406 -0.486509 -0.3726 0.00697032 -0.242915 -0.287712 -0.789923 -0.429969 0.615111 -0.712777 0.750759 0.482243 1.16834 0.77246 0.0382931 0.232679 -0.650131 0.258055
internal_weight=0 4905.27 3063.56 1765.06 3660.75 1244.52 699.822 2706.52 1065.24 954.228 1298.5 748.682 889.135 653.294 510.677 241.363 805.375 764.063 2053.23 666.793 231.769 269.314 519.435 134.659 281.181 84.2268 287.435 181.006 866.489 21.6725
internal_count=66185 50225 15960 10474 40583 9642 3161 31839 7313 8744 5486 3269 5544 6895 5233 2117 7107 6851 24944 6445 1216 3116 2335 906 1199 373 2299 1400 10055 228
shrinkage=0.1


Tree=8
num_leaves=31
num_cat=0
split_feature=5 6 7 0 0 0 19 7 5 5 0 0 6 7 0 0 1 1 0 0 5 1 2 10 2 2 3 2 0 3
split_gain=2089.53 297.58 180.191 118.868 114.653 51.8386 50.9089 44.7073 38.9408 35.6062 46.6064 32.0075 31.9995 30.6674 27.7822 42.2609 27.439 70.2786 30.2299 27.0511 20.9743 20.2293 20.1256 19.6993 17.3559 22.3879 17.2324 16.8569 16.8095 16.673
threshold=1.5000000000000002 1.5000000000000002 13.500000000000002 3.5000000000000004 3.5000000000000004 3.5000000000000004 1.0000000180025095e-35 7.5000000000000009 4.5000000000000009 7.5000000000000009 3.5000000000000004 1.5000000000000002 1.0000000180025095e-35 25.500000000000004 6.5000000000000009 5.5000000000000009 48.500000000000007 38.500000000000007 1.5000000000000002 2.5000000000000004 3.5000000000000004 53.500000000000007 5.5000000000000009 21.500000000000004 12.500000000000002 2.5000000000000004 -1.0000000180025095e-35 9.5000000000000018 2.5000000000000004 570.50000000000011
decision_type=2 2 2 2 2 2 2 2 2 2 2 2 2 2 2 2 2 2 2 2 2 2 2 2 2 2 2 2 2 2
left_child=1 3 5 6 7 8 16 -3 24 10 13 -8 26 -4 15 -6 17 -1 -19 -18 27 -21 23 -13 25 -2 -5 -7 -27 -9
right_child=2 4 9 12 14 20 11 29 -10 -11 -12 22 -14 -15 -16 -17 19 18 -20 21 -22 -23 -24 -25 -26 28 -28 -29 -30 -31
leaf_value=-0.066248702723266759 0.03548301027610893 -0.039067692341437366 0.05842245691326569 0.038534289947017193 0.04188998501927807 0.051456155810988141 -0.086378228297994519 0.0013555415022439754 0.079382645227335819 0.12846233606611587 0.11630973573394143 -0.054826647322872769 -0.0014886145610496612 0.098197770767218473 0.09548147060738299 -0.030456537960098742 -0.094431527053461556 0.04535149203990721 -0.060554320687757762 -0.10369605578363084 0.10840679134274066 -0.0026326071150694326 -0.071794122023723067 0.0063394378244914992 0.079400236881674829 0.011414449985463773 -0.043634556974120858 0.12868859529095011 -0.033506726629029662 0.20643428538299669
leaf_weight=189.05877207219601 259.84546507894993 662.63993406295776 532.58773379027843 26.698141485452652 354.13205720484257 424.21532066166401 1164.883146174252 391.0145915299654 115.74541845917702 233.14567220211029 350.98335741460323 181.31301232427359 334.40434715151787 304.76667000353336 64.512341469526291 104.58929492533207 153.12778191268444 129.39127969741821 34.043751649558544 26.582144312560558 94.380014941096306 77.694493159651756 480.85156203061342 74.202041961252689 41.531031653285027 271.32695880532265 579.83701877295971 30.277418673038483 120.20718468725681 4.0049602389335623
leaf_count=2286 1576 6958 2448 178 2026 1875 15393 3278 509 948 1426 2180 2623 1241 375 659 1958 845 400 295 386 839 5851 876 252 1703 5870 134 764 33
internal_value=0 -0.401839 0.678468 -0.566389 -0.042521 0.417902 -0.679978 -0.231937 0.25691 0.927311 0.857208 -0.760622 -0.263247 0.728992 0.340362 0.253948 -0.428586 -0.247332 0.232912 -0.676799 0.655093 -0.283956 -0.597429 -0.370639 0.167222 0.127259 -0.400177 0.566012 -0.0237706 0.0343476
internal_weight=0 5032.98 2779.01 3452.09 1580.89 1357.53 2511.15 1057.66 808.656 1421.48 1188.34 1901.25 940.94 837.354 523.234 458.721 609.898 352.494 163.435 257.404 548.873 104.277 736.367 255.515 692.911 651.38 606.535 454.493 391.534 395.02
internal_count=66185 52923 13262 39594 13329 7199 30923 10269 4804 6063 5115 24300 8671 3689 3060 2685 6623 3531 1245 3092 2395 1134 8907 3056 4295 4043 6048 2009 2467 3311
shrinkage=0.1


Tree=9
num_leaves=31
num_cat=0
split_feature=6 5 0 0 5 7 6 19 0 7 1 1 0 5 20 0 4 0 3 7 7 0 5 0 0 7 19 9 0 0
split_gain=1741.85 289.016 151.824 105.15 73.5205 63.968 49.368 43.9753 39.8434 38.4958 27.716 53.4638 50.5386 27.1608 27.1445 27.1267 25.3085 24.3877 33.8316 22.6747 20.7572 20.2851 20.0981 19.6799 18.803 17.2946 16.5476 16.4557 16.3816 16.0985
threshold=2.5000000000000004 2.5000000000000004 3.5000000000000004 3.5000000000000004 1.0000000180025095e-35 18.500000000000004 1.0000000180025095e-35 1.0000000180025095e-35 3.5000000000000004 13.500000000000002 37.500000000000007 48.500000000000007 1.5000000000000002 4.5000000000000009 1.0000000180025095e-35 1.5000000000000002 6.5000000000000009 5.5000000000000009 97.500000000000014 11.500000000000002 3.5000000000000004 6.5000000000000009 1.0000000180025095e-35 2.5000000000000004 1.5000000000000002 31.500000000000004 1.5000000000000002 215.50000000000003 3.5000000000000004 2.5000000000000004
decision_type=2 2 2 2 2 2 2 2 2 2 2 2 2 2 2 2 2 2 2 2 2 2 2 2 2 2 2 2 2 2
left_child=2 3 4 9 7 8 -4 10 13 22 -1 12 -12 -3 24 -9 -11 18 20 -5 -8 -19 -2 -13 -6 28 -10 -17 -7 -24
right_child=1 5 6 19 14 25 17 15 26 16 11 23 -14 -15 -16 27 -18 21 -20 -21 -22 -23 29 -25 -26 -27 -28 -29 -30 -31
leaf_value=-0.086002066276705466 -0.035827285611785165 0.029221874184748111 -0.037239919291678074 0.039640753581383803 -0.049329993530465202 0.075292382987083517 -0.0016770618082236903 -0.085868602086065143 0.11757709690377999 0.074343775205696572 0.039444012021446602 -0.090715127177676241 -0.056490305372336527 0.073365047055240815 0.082617469851109432 -0.060898244991073991 0.0083525931611178102 -0.052819530220454047 0.12745690430819503 0.083185909761654131 0.057238416300099383 0.01655953144901141 0.0089928257016745356 -0.031853591891759354 -0.011518322914056269 0.11381078486855034 0.07087318972665492 0.39493565058554431 0.11447287774417372 -0.028749380055716436
leaf_weight=121.82837218046188 238.16517680883408 445.40631707012653 587.77500007301569 492.79770175367594 271.7041971758008 449.86999829113483 309.59623055160046 1005.6062061190605 105.31000323593616 94.585580915212631 139.88321285694838 135.94874888658524 90.401136457920074 202.87043370306492 21.891189575195312 714.47637955844402 150.72512964904308 113.02039792388678 26.055773973464966 157.89576508104801 74.11775566637516 67.199361048638821 416.39640671014786 97.566531233489513 254.89275240153074 308.3772646188736 271.29952102899551 0.79283640533685584 139.89794467389584 155.11198447644711
leaf_count=1611 2633 2330 6048 2451 2783 1872 2185 14623 433 607 896 1910 1133 857 130 9232 977 893 158 687 456 494 3067 1114 2435 1269 1119 10 575 1197
internal_value=0 0.485585 -0.469372 0.185925 -0.593994 0.751377 -0.167278 -0.672249 0.580641 -0.00906942 -0.435553 -0.324056 0.0178374 0.43036 -0.264919 -0.752798 0.337971 0.0370729 0.171905 0.502073 0.0970298 -0.269498 -0.114214 -0.661218 -0.310277 0.946205 0.839328 -0.60393 0.845863 -0.0125071
internal_weight=0 3628.71 4032.76 1705.68 2854.99 1923.03 1177.76 2306.5 1024.89 1054.98 585.628 463.8 230.284 648.277 548.488 1720.88 245.311 589.99 409.77 650.693 383.714 180.22 809.674 233.515 526.597 898.145 376.61 715.269 589.768 571.508
internal_count=66185 20074 46111 11619 35877 8455 10234 30529 4739 8481 6664 5053 2029 3187 5348 23865 1584 4186 2799 3138 2641 1387 6897 3024 5218 3716 1552 9242 2447 4264
shrinkage=0.1


Tree=10
num_leaves=31
num_cat=0
split_feature=5 5 7 0 0 0 7 7 19 7 5 1 1 0 0 5 0 0 1 0 0 0 1 13 3 1 1 7 2 19
split_gain=1420.16 229.957 129.574 116.439 51.698 47.8395 44.0823 42.8161 36.469 35.4078 27.3787 25.9708 44.2023 25.2763 23.7998 23.1091 24.7567 33.4932 21.417 21.299 19.3309 37.0524 24.9799 22.9102 19.3245 17.069 16.3373 18.1072 16.3695 15.8827
threshold=1.5000000000000002 1.0000000180025095e-35 16.500000000000004 3.5000000000000004 3.5000000000000004 3.5000000000000004 2.5000000000000004 1.5000000000000002 1.0000000180025095e-35 4.5000000000000009 4.5000000000000009 37.500000000000007 48.500000000000007 1.5000000000000002 1.5000000000000002 7.5000000000000009 3.5000000000000004 2.5000000000000004 53.500000000000007 1.5000000000000002 5.5000000000000009 6.5000000000000009 41.500000000000007 3.5000000000000004 -1.0000000180025095e-35 40.500000000000007 23.500000000000004 12.500000000000002 16.500000000000004 1.0000000180025095e-35
decision_type=2 2 2 2 2 2 2 2 2 2 2 2 2 2 2 2 2 2 2 2 2 2 2 2 2 2 2 2 2 2
left_child=1 3 5 6 9 10 8 24 11 29 -2 -1 13 -13 -10 16 17 18 -4 -14 22 -22 23 -7 -5 -25 27 -8 -28 -3
right_child=2 4 15 7 -6 20 26 -9 14 -11 -12 12 19 -15 -16 -17 -18 -19 -20 -21 21 -23 -24 25 -26 -27 28 -29 -30 -31
leaf_value=-0.089276617871089106 0.015581077708415884 0.0084350694516059574 0.087417987297972177 0.048365387339780103 0.027122549185017081 0.075901792885315386 0.018648916761567543 0.0080501419395916096 -0.086847864363348362 0.0077830315359184513 0.060016197128769988 0.028235162644350331 -0.098222622062505649 -0.056991799203224183 -0.059080215323453006 0.1103379210996962 0.10216003851982768 0.024140205002923458 0.039526470873745959 -0.03124225051259899 -0.011495425082209293 0.083526523493776636 0.1053744083185154 0.03317889837597484 -0.039226702758189791 -0.12084919782181834 -0.023890632836080637 0.32453721854409401 -0.055913214128871395 -0.04267604966434798
leaf_weight=100.3409811258316 826.36282107234001 73.191773906350136 408.55283543467522 26.318428799510002 473.87246540188789 212.92860351502895 13.709851257503031 358.62407580763102 851.17394001036882 381.34606902301311 166.62179091572762 125.65920360386372 96.17053446918726 48.125686414539814 484.29528042674065 214.70128184556961 231.96080683171749 159.02206385135651 121.04227736592293 93.759422712028027 98.054643422365189 70.570215374231339 128.84316523373127 154.55089646577835 585.91149651259184 7.5458796471357337 306.04772505909204 2.2532550096511832 333.67683247476816 359.06502030789852
leaf_count=1431 4904 756 1731 175 2616 896 148 2670 13442 2966 699 797 1469 639 6767 910 966 678 517 1131 452 295 532 650 6270 32 3565 18 4201 3862
internal_value=0 -0.351654 0.547431 -0.487055 0.00865693 0.369847 -0.602982 -0.193886 -0.683865 -0.144273 0.230372 -0.442366 -0.31811 0.0463354 -0.767782 0.80795 0.739049 0.643871 0.764721 -0.651576 0.575792 0.282717 0.673873 0.543365 -0.354613 0.260086 -0.381 0.618262 -0.405934 -0.340217
internal_weight=0 4713.54 2800.76 3426.07 1287.48 1665.48 2455.21 970.854 1799.53 813.603 992.985 464.056 363.715 173.785 1335.47 1135.28 920.578 688.617 529.595 189.93 672.493 168.625 503.869 375.025 612.23 162.097 655.688 15.9631 639.725 432.257
internal_count=66185 52923 13262 42723 10200 8460 33608 9115 25676 7584 5603 5467 4036 1436 20209 4802 3892 2926 2248 2600 2857 747 2110 1578 6445 682 7932 166 7766 4618
shrinkage=0.1


Tree=11
num_leaves=31
num_cat=0
split_feature=6 6 0 5 0 6 0 19 2 6 5 0 2 0 13 2 4 0 2 0 5 0 9 18 19 10 5 2 7 4
split_gain=1212.84 204.298 120.553 62.6883 52.1708 46.7023 72.7636 40.0965 34.9745 33.7845 32.3442 26.4351 21.646 19.3508 20.0276 19.1451 18.7284 25.5736 18.2013 16.0314 15.8838 15.4824 15.2494 13.6325 13.6043 12.9154 12.8644 12.7136 12.6516 12.2025
threshold=2.5000000000000004 6.5000000000000009 3.5000000000000004 1.0000000180025095e-35 3.5000000000000004 12.500000000000002 3.5000000000000004 1.0000000180025095e-35 1.5000000000000002 1.0000000180025095e-35 2.5000000000000004 1.5000000000000002 25.500000000000004 5.5000000000000009 2.5000000000000004 1.5000000000000002 1.0000000180025095e-35 2.5000000000000004 31.500000000000004 4.5000000000000009 7.5000000000000009 2.5000000000000004 65.500000000000014 8.5000000000000018 5.5000000000000009 350.50000000000006 5.5000000000000009 13.500000000000002 3.5000000000000004 3.5000000000000004
decision_type=2 2 2 2 2 2 2 2 2 2 2 2 2 2 2 2 2 2 2 2 2 2 2 2 2 2 2 2 2 2
left_child=2 4 3 7 10 6 16 -1 -5 19 21 -9 -6 14 18 -15 17 24 28 -4 25 22 23 -2 -3 -7 -18 -10 -11 -29
right_child=1 5 9 8 12 20 -8 11 27 13 -12 -13 -14 15 -16 -17 26 -19 -20 -21 -22 -23 -24 -25 -26 -27 -28 29 -30 -31
leaf_value=-0.038070046274068722 0.0029126011260183506 0.070078964771983943 -0.0057922094305302395 0.034939313707139041 0.033322449920715994 0.072904585607636394 0.080224147898383696 -0.081147996924296015 -0.041634709956583207 0.019359416686553867 0.030999333756782634 -0.054484329262538767 0.17504624740087346 0.07915525165492282 -0.0074510569016181501 -0.035933055276044817 0.015716312073512168 -0.0010137429131420351 0.21671967873640097 -0.043174299275281575 0.1033217140446695 -0.034162678995648545 -0.046221318485157793 0.2348897629968541 0.16298251489938823 -0.082225812895088402 0.062878506877191737 0.064043070187714893 0.08501722390038377 -0.024639101397764648
leaf_weight=542.44210968539119 483.48546078801155 93.928892105817795 161.63454492390156 87.521965086460114 638.00132486224174 563.79636290669441 455.55377881228924 869.25686354190111 371.05564300715923 159.58705764263868 244.42890253663063 649.76749682426453 10.962043114006518 15.871602296829222 214.99882704019547 161.86197013407946 513.63686739653349 48.728972196578979 5.4494725465774527 395.26059428602457 215.17818175256252 206.79774964600801 68.650723375380039 2.5466265156865111 18.940394811332226 5.4183398485183707 65.175055921077728 23.248578272759914 35.960666224360466 46.649100340902805
leaf_count=6664 4148 465 1513 769 3012 2371 1904 14623 3828 1069 1304 9242 49 85 1492 1302 2725 262 33 4535 936 1905 591 21 94 23 264 251 205 500
internal_value=0 0.39544 -0.415654 -0.535312 0.136109 0.612149 0.487782 -0.614084 -0.228039 -0.146315 -0.00650538 -0.697425 0.357164 0.0196378 0.137641 -0.256557 0.294304 0.595303 0.364572 -0.323244 0.801772 -0.108099 -0.0210345 0.0412807 0.856689 0.714279 0.210268 -0.34265 0.314337 0.0485736
internal_weight=0 3635.23 3740.57 2589.94 1654.87 1980.36 1195.96 2061.47 528.475 1150.62 1005.91 1519.02 648.963 593.73 415.996 177.734 740.41 161.598 200.997 556.895 784.393 761.481 554.683 486.032 112.869 569.215 578.812 440.953 195.548 69.8977
internal_count=66185 20074 46111 35877 11030 9044 5714 30529 5348 10234 7969 23865 3061 4186 2799 1387 3810 821 1307 6048 3330 6665 4760 4169 559 2394 2989 4579 1274 751
shrinkage=0.1


Tree=12
num_leaves=31
num_cat=0
split_feature=6 5 0 0 5 19 1 1 7 5 7 9 0 2 1 0 1 2 0 7 1 7 1 1 0 5 3 2 4 0
split_gain=1004.56 172.163 111.674 80.7459 66.6995 47.2103 47.1787 80.8269 38.1539 30.9173 29.1433 28.978 28.2531 27.5853 23.867 23.6701 35.4788 22.2574 20.9622 20.8303 19.6777 19.0932 17.8095 18.959 17.1987 17.406 15.9527 15.469 15.4688 16.4229
threshold=2.5000000000000004 3.5000000000000004 1.5000000000000002 3.5000000000000004 1.0000000180025095e-35 1.0000000180025095e-35 49.500000000000007 37.500000000000007 11.500000000000002 1.0000000180025095e-35 31.500000000000004 234.50000000000003 3.5000000000000004 1.5000000000000002 52.500000000000007 2.5000000000000004 36.500000000000007 16.500000000000004 4.5000000000000009 1.5000000000000002 38.500000000000007 1.0000000180025095e-35 41.500000000000007 40.500000000000007 3.5000000000000004 5.5000000000000009 114.50000000000001 1.5000000000000002 1.0000000180025095e-35 2.5000000000000004
decision_type=2 2 2 2 2 2 2 2 2 2 2 2 2 2 2 2 2 2 2 2 2 2 2 2 2 2 2 2 2 2
left_child=2 3 5 9 11 6 7 -1 22 -2 24 12 -4 -6 15 16 -11 -15 26 -7 27 -9 23 -5 25 28 -14 -18 29 -3
right_child=1 10 4 8 13 19 -8 21 -10 14 -12 -13 18 17 -16 -17 20 -19 -20 -21 -22 -23 -24 -25 -26 -27 -28 -29 -30 -31
leaf_value=-0.072985577778983665 -0.025955799432243572 0.09339063100685617 -0.048707846475924708 0.022184473447553931 0.053390749094471536 -0.081543450620607333 -0.083635960577943105 -0.0031308291244831173 0.072834846022299268 -0.0015621259918346018 0.093903740514243592 0.44577687205083932 -0.0065160292116071454 -0.012697412620586882 -0.015110745417664993 -0.0071001443839383439 -0.036130073756759605 0.058240184943258638 -0.034213808181770999 -0.050531233325465011 0.038819317568998091 0.069545289447852501 0.051586450955731278 -0.066062905229475111 0.079829185484701942 0.068489217533451038 0.095506496795534301 0.12657084666991578 0.027006458045846168 0.0068575575732810453
leaf_weight=107.66715464740992 269.0409350246191 80.828820183873177 816.31613378226757 390.27810163795948 95.938283249735832 712.1954105719924 115.80500046908855 60.247838467359543 286.38505017757416 236.38748027384281 275.49812172353268 1.2518793083727349 273.46959105879068 428.25027590990067 258.07745236903429 244.95773646235466 6.7312589138746253 49.324775166809559 533.34712964296341 311.23561369627714 364.14406754821539 90.373417340219021 225.26114872097969 25.964692458510399 251.78192457556725 297.21919026970863 16.236429288983345 44.314949721097946 346.62591895461082 30.099697858095169
leaf_count=1620 3079 343 11908 1801 636 12663 1840 429 1222 1455 1211 13 2371 3318 1671 1648 38 370 5929 4332 2228 550 1060 123 1071 1229 132 263 1499 133
internal_value=0 0.356051 -0.388669 0.195328 -0.248968 -0.610001 -0.305998 -0.0682078 0.424857 0.0457287 0.650849 -0.351587 -0.355259 0.0445889 0.116865 0.194003 0.293631 -0.0537086 -0.224519 -0.721123 0.469703 0.404752 0.289371 0.166797 0.571971 0.496474 -0.00798228 1.05116 0.37408 0.699105
internal_weight=0 3633.6 3611.66 2351.54 2214.13 1397.52 374.093 258.288 927.889 1423.65 1282.05 1640.62 1639.37 573.513 1154.61 896.535 651.578 477.575 823.053 1023.43 415.19 150.621 641.504 416.243 1006.56 754.774 289.706 51.0462 457.554 110.929
internal_count=66185 20074 46111 14588 24677 21434 4439 2599 4206 10382 5486 20353 20340 4324 7303 5632 3984 3688 8432 16995 2529 979 2984 1924 4275 3204 2503 301 1975 476
shrinkage=0.1


Tree=13
num_leaves=31
num_cat=0
split_feature=6 5 5 2 2 2 6 7 7 7 3 19 4 4 2 19 3 4 7 16 2 5 3 19 13 7 3 3 2 4
split_gain=834.151 138.539 100.462 51.8405 28.9164 27.9795 27.831 27.5901 22.3865 18.1077 17.7027 17.4092 16.0118 14.6501 12.8311 12.6074 12.0457 12.0311 11.9404 11.8331 11.7318 10.9561 10.754 10.6439 11.1128 9.65237 9.32648 9.06761 8.89592 8.79122
threshold=3.5000000000000004 1.0000000180025095e-35 3.5000000000000004 18.500000000000004 2.5000000000000004 10.500000000000002 5.5000000000000009 25.500000000000004 3.5000000000000004 1.5000000000000002 -1.0000000180025095e-35 2.5000000000000004 395.50000000000006 665.00000000000011 5.5000000000000009 1.5000000000000002 51.500000000000007 1.0000000180025095e-35 4.5000000000000009 1.5000000000000002 70.500000000000014 2.5000000000000004 216.50000000000003 4.5000000000000009 6.5000000000000009 15.500000000000002 8.5000000000000018 4.5000000000000009 15.500000000000002 543.50000000000011
decision_type=2 2 2 2 2 2 2 2 2 2 2 2 2 2 2 2 2 2 2 2 2 2 2 2 2 2 2 2 2 2
left_child=1 3 6 8 -3 15 13 23 10 11 -1 16 14 -2 -10 21 -5 -17 -19 -14 -11 -6 25 29 -25 -8 -23 -20 -21 -4
right_child=2 4 7 9 5 -7 22 -9 12 20 -12 -13 19 -15 -16 17 -18 18 27 28 -22 26 -24 24 -26 -27 -28 -29 -30 -31
leaf_value=0.040892603193009629 0.0065290677881694251 0.022130771394769988 0.053202724967538577 -0.057517535376366391 -0.0076111102211578177 0.026512838077848599 0.022135038549744131 0.079578145890654844 0.078966131703051265 -0.040291443676155878 -0.036507772305348234 -0.075457187362694148 0.046923777066630507 0.21469620120564317 -0.010564987780913153 0.0027205016791658379 -0.021989730975311261 -0.049180910615534777 0.024713640780601769 0.48125287379618675 0.21170259795527763 0.0080629682917960875 0.069546254362941151 0.0420171246255064 -0.013805630270901504 0.042060244186476782 0.1869457278593265 -0.036534935200666668 0.092487851060514104 0.15826855985814944
leaf_weight=30.510007552802563 731.1970022842288 331.09042286872864 644.18922506272793 490.61150586232543 245.45649278908968 151.07489085197449 616.23674866557121 435.09885244071484 17.484001964330673 504.82027319073677 938.88868272304535 524.81591431424022 3.6768771037459365 3.3964754194021216 189.51651494204998 87.098784059286118 118.47857210040092 275.8595175370574 44.646911561489105 1.5104602202773096 1.8542775288224209 6.2574657350778562 73.730833530426025 134.42717364430428 48.537964150309563 401.54687474668026 5.4558489471673965 52.705561332404613 0.96440239995718002 8.0635909736156446
leaf_count=206 4746 2385 2744 7173 2025 1304 3339 1929 185 6754 13574 8922 40 22 2056 746 1622 2408 330 17 24 34 392 572 207 1975 28 382 10 34
internal_value=0 -0.314837 0.375633 -0.435809 -0.0301536 -0.12601 0.2254 0.591595 -0.2762 -0.550857 -0.340717 -0.621085 0.0172199 0.0749155 -0.0300287 -0.208369 -0.506068 -0.30745 -0.385551 1.60709 -0.393692 -0.0310221 0.326677 0.485226 0.272082 0.299961 0.913833 -0.0844567 3.29759 0.545016
internal_weight=0 4022.78 3096.42 2823.13 1199.65 868.555 1826.11 1270.32 1182.55 1640.58 969.399 1133.91 213.152 734.593 207.001 717.481 609.09 460.311 373.212 6.15174 506.675 257.17 1091.51 835.218 182.965 1017.78 11.7133 97.3525 2.47486 652.253
internal_count=66185 50225 15960 40583 9642 7257 10474 5486 16088 24495 13780 17717 2308 4768 2241 5953 8795 3866 3120 67 6778 2087 5706 3557 779 5314 62 712 27 2778
shrinkage=0.1


Tree=14
num_leaves=31
num_cat=0
split_feature=6 5 0 5 19 1 1 0 6 0 0 0 0 2 6 0 0 0 6 1 2 1 1 1 0 2 1 19 0 1
split_gain=690.314 121.262 100.468 48.6172 45.2515 44.2322 70.7053 43.4112 35.2014 36.3993 26.4855 24.0928 23.6003 18.7895 18.46 17.8478 27.945 17.6625 17.0761 16.5335 16.2286 17.945 15.8808 19.1091 27.0334 15.3273 14.9876 14.6105 17.1918 14.3449
threshold=2.5000000000000004 2.5000000000000004 1.5000000000000002 1.0000000180025095e-35 1.0000000180025095e-35 49.500000000000007 37.500000000000007 3.5000000000000004 16.500000000000004 3.5000000000000004 3.5000000000000004 5.5000000000000009 6.5000000000000009 1.5000000000000002 5.5000000000000009 6.5000000000000009 5.5000000000000009 4.5000000000000009 1.0000000180025095e-35 36.500000000000007 8.5000000000000018 55.500000000000007 36.500000000000007 53.500000000000007 2.5000000000000004 11.500000000000002 38.500000000000007 1.0000000180025095e-35 1.5000000000000002 58.500000000000007
decision_type=2 2 2 2 2 2 2 2 2 2 2 2 2 2 2 2 2 2 2 2 2 2 2 2 2 2 2 2 2 2
left_child=2 7 4 10 5 6 -1 14 9 22 20 -11 -13 -5 -2 16 19 -12 -6 -9 21 -4 -3 24 26 -15 -24 28 -28 -23
right_child=1 8 3 13 18 -7 -8 15 -10 11 17 12 -14 25 -16 -17 -18 -19 -20 -21 -22 29 23 -25 -26 -27 27 -29 -30 -31
leaf_value=-0.068689290445387574 -0.013395238727049752 0.0083893271774039251 -0.033900489703317278 0.043810459028397593 -0.079333784662487541 -0.08016357642680684 0.040520540725364436 0.018355571164148096 0.073408100617898472 0.076552762150883635 0.0032147714406955221 9.6006996661483692e-05 0.084004747866088386 -0.010934062593369202 0.013689595120980664 0.075686541638673527 -0.01879101650080554 -0.028067218307080533 -0.051838511070263785 0.055699068110267896 -0.052715863773916828 0.095240421425581867 0.11999046441320585 0.0095599442248663017 0.012910937344361989 0.042178912264383486 0.067712799408164756 0.062015157753050804 -0.063921766298263322 -0.022830745186341758
leaf_weight=97.869819223880768 643.98739557340741 278.38913211226463 190.84207404777408 100.02712458372116 529.73010866716504 104.22508043050766 150.36144378036261 270.3062135130167 385.9016145169735 341.66506649553776 282.36400144547224 99.178408578038216 50.632636219263077 410.05073539167643 413.03372232615948 74.767107576131821 122.31776086986065 500.2956516072154 393.789470680058 211.1875476539135 526.40438279882073 21.542073626071215 38.775014132261276 194.66666814684868 168.9032566100359 62.632158063352108 18.60029524564743 293.71257643401623 21.263973712921143 19.699805591255426
leaf_count=1620 5821 1268 3048 636 10944 1840 979 1228 1758 1462 2506 435 218 3235 2660 340 620 5932 6051 950 8321 287 171 881 775 453 84 1308 95 259
internal_value=0 0.289484 -0.338173 -0.204419 -0.559759 -0.254923 -0.0253748 0.0985991 0.464618 0.395561 -0.296868 0.618917 0.284552 0.0443588 -0.0281177 0.295986 0.238917 -0.167815 -0.676098 0.347348 -0.430034 -0.20974 0.287335 0.364294 0.460933 -0.0389641 0.611452 0.54305 -0.0250231 0.388419
internal_weight=0 3627.29 3389.83 2113.86 1275.98 352.456 248.231 1735.6 1891.69 1505.79 1541.15 491.476 149.811 572.71 1057.02 678.579 603.812 782.66 923.52 481.494 758.488 232.084 1014.31 735.922 541.255 472.683 372.352 333.577 39.8643 41.2419
internal_count=66185 20074 46111 24677 21434 4439 2599 11619 8455 6697 20353 2115 653 4324 8481 3138 2798 8438 16995 2178 11915 3594 4582 3314 2433 3688 1658 1487 179 546
shrinkage=0.1


Tree=15
num_leaves=31
num_cat=0
split_feature=5 6 0 7 7 19 0 0 0 1 1 7 0 0 5 0 13 0 0 10 5 2 1 6 1 19 19 1 0 1
split_gain=583.951 142.932 78.5235 35.6743 32.1976 29.4281 27.4943 23.042 22.9366 22.8996 30.8088 22.3343 21.0293 17.8801 23.5452 21.1795 16.9304 16.6444 30.0031 25.9041 16.2 15.6375 15.6374 15.0861 14.8576 16.5059 15.7094 14.6866 14.5583 12.6297
threshold=1.0000000180025095e-35 5.5000000000000009 3.5000000000000004 18.500000000000004 2.5000000000000004 1.0000000180025095e-35 3.5000000000000004 1.5000000000000002 3.5000000000000004 37.500000000000007 48.500000000000007 1.5000000000000002 1.5000000000000002 3.5000000000000004 5.5000000000000009 2.5000000000000004 4.5000000000000009 5.5000000000000009 6.5000000000000009 18.500000000000004 1.5000000000000002 1.0000000180025095e-35 52.500000000000007 11.500000000000002 23.500000000000004 2.5000000000000004 3.5000000000000004 48.500000000000007 1.5000000000000002 53.500000000000007
decision_type=2 2 2 2 2 2 2 2 2 2 2 2 2 2 2 2 2 2 2 2 2 2 2 2 2 2 2 2 2 2
left_child=2 6 4 8 5 9 20 -7 -3 -1 28 -4 -12 14 15 16 22 19 -19 -8 27 -22 -5 -24 25 -6 -27 -2 -11 -14
right_child=1 3 11 13 24 7 17 -9 -10 10 12 -13 29 -15 -16 -17 -18 18 -20 -21 21 -23 23 -25 -26 26 -28 -29 -30 -31
leaf_value=-0.081197771385489101 -0.0049185389194822344 0.018628287845759359 -0.024030639692884499 0.074359277886197103 -0.049228140889116409 -0.076464544391723108 0.05656443341817155 -0.045347308935739968 0.046608066289493461 0.025999481070999694 -0.092640349946908521 0.0082760610102837438 -0.095801374059818589 0.083597426137490785 0.067280615350663819 -0.0093487971648615938 0.012529595339462424 -0.035711985434940287 0.044961317495861977 0.010628972580819747 0.15857069810339175 0.0046136736279991132 -0.088719594413745842 0.04464555183343924 -0.029735152046659403 0.25255442297671021 -0.037330369065798633 -0.035746838659692796 -0.04360134826237895 0.0017145266043436351
leaf_weight=76.556074623018503 374.582887776196 768.09757731109858 541.31091132760048 170.4707874506712 6.559967413544654 609.60561057180166 189.70274871587753 390.34358359873295 473.6482667773962 126.77282139658928 70.79087246581912 353.88108158111572 16.68757302314043 178.18507803976536 357.06742936372757 94.49822074174881 109.099769115448 129.09760668873787 71.707049548625946 347.91249167919159 6.6921045929193488 465.91122150421143 12.003885850310324 28.908145591616631 561.23619814962149 5.9244814738631231 2.7312576472759247 263.05694274604321 39.390318881720304 65.06774902716279
leaf_count=1431 3757 3838 6445 739 83 13442 894 6767 2004 797 1469 2670 250 825 1647 421 480 754 343 1715 33 2913 56 122 7766 49 34 2921 639 881
internal_value=0 0.231884 -0.358209 0.404607 -0.469725 -0.551866 0.0270843 -0.643175 0.293008 -0.320869 -0.202902 -0.112594 -0.527396 0.550442 0.484542 0.322551 0.445225 0.176622 -0.0690367 0.268377 -0.0723726 0.0679372 0.610349 0.0551525 -0.270917 0.704115 1.61083 -0.176367 0.0950004 -0.1819
internal_weight=0 4040.64 2866.86 2191.98 1971.67 1395.21 1848.66 999.949 1241.75 395.265 318.709 895.192 152.546 950.233 772.048 414.981 320.483 738.42 200.805 537.615 1110.24 472.603 211.383 40.912 576.452 15.2157 8.65574 637.64 166.163 81.7553
internal_count=66185 23462 42723 10132 33608 25676 13330 20209 5842 5467 4036 9115 2600 4290 3465 1818 1397 3706 1097 2609 9624 2946 917 178 7932 166 83 6678 1436 1131
shrinkage=0.1


Tree=16
num_leaves=31
num_cat=0
split_feature=5 6 0 7 2 0 1 0 10 7 5 4 0 1 1 0 1 4 0 0 7 2 2 7 8 1 1 1 1 0
split_gain=485.26 116.952 69.7374 32.9254 32.6601 29.9331 25.3177 23.2282 26.8201 18.5152 17.1849 15.9377 29.8879 16.3598 26.1217 23.0556 19.2471 17.623 14.9186 29.0986 21.517 14.5211 22.1802 14.2197 18.3327 14.0287 20.7947 28.7108 13.9899 13.0566
threshold=1.0000000180025095e-35 5.5000000000000009 3.5000000000000004 26.500000000000004 18.500000000000004 3.5000000000000004 23.500000000000004 1.5000000000000002 23.500000000000004 1.5000000000000002 5.5000000000000009 1.0000000180025095e-35 2.5000000000000004 53.500000000000007 46.500000000000007 1.5000000000000002 48.500000000000007 49.500000000000007 5.5000000000000009 6.5000000000000009 15.500000000000002 10.500000000000002 3.5000000000000004 3.5000000000000004 72.500000000000014 48.500000000000007 37.500000000000007 40.500000000000007 41.500000000000007 1.5000000000000002
decision_type=2 2 2 2 2 2 2 2 2 2 2 2 2 2 2 2 2 2 2 2 2 2 2 2 2 2 2 2 2 2
left_child=2 7 4 5 23 10 -6 8 -2 -4 11 12 29 14 -13 -16 -17 -18 20 -20 28 22 -9 -1 -25 26 -8 -28 -7 -3
right_child=1 3 9 -5 6 18 25 21 -10 -11 -12 13 -14 -15 15 16 17 -19 19 -21 -22 -23 -24 24 -26 -27 27 -29 -30 -31
leaf_value=-0.038543868234033954 0.012578139276312196 0.09852980712180083 -0.022075156676439375 0.061437584161451189 0.089003728463051546 0.029022149060386762 -0.071661007463902568 0.019827698852405141 -0.037630652886992515 0.0074073034062879907 0.046527553547518599 0.0029026375889947536 -0.027703040983120233 -0.021408000341710375 0.0030716232973100293 0.13428322124938319 0.088807959014333915 -0.026627294416914488 -0.0067766715348941062 0.081050043039397002 0.089492990622075094 0.038957081405266519 -0.0068253570368934499 -0.012236586700402147 0.43799053345291195 -0.072219496983600195 -0.002013384270438112 -0.056713266775692252 0.079195773231815939 0.03894246408590419
leaf_weight=566.61486410722136 177.40700381994247 58.483477853238583 530.90346958488226 429.69681471586227 11.909124244004486 208.19303877651691 239.43740176782012 573.04310471564531 265.77124682068825 355.74308636784554 216.15014515817165 422.74056453257799 49.960757777094841 147.95457634329796 61.818115100264549 40.042237609624863 33.526543542742729 21.840642131865025 110.01182492077351 57.410903468728065 147.50799651443958 142.77055970579386 686.00425387173891 271.32936710864305 0.90743079036474117 403.54250238835812 162.327168289572 234.68386992067099 75.808518379926682 99.054576702415943
leaf_count=10367 1677 272 6445 2033 146 869 4716 3420 2591 2670 902 2081 255 751 301 193 164 111 478 254 686 942 4700 3349 10 8629 1939 4452 321 461
internal_value=0 0.209533 -0.333857 0.366338 -0.442368 0.305452 -0.559735 0.0242392 -0.175318 -0.102461 0.211147 0.152425 0.396905 0.0827341 0.158454 0.506447 0.814685 0.432723 0.486775 0.2334 0.585082 0.0873282 0.0530552 -0.295192 -0.107359 -0.576337 -0.483854 -0.34348 0.42415 0.610633
internal_weight=0 4025.2 2777.4 2180.2 1890.75 1750.5 1051.9 1845 443.178 886.647 1151.57 935.421 207.499 727.923 579.968 157.228 95.4094 55.3672 598.932 167.423 431.51 1401.82 1259.05 838.852 272.237 1039.99 636.448 397.011 284.002 157.538
internal_count=66185 23462 42723 10132 33608 8099 19882 13330 4268 9115 5491 4589 988 3601 2850 769 468 275 2608 732 1876 9062 8120 13726 3359 19736 11107 6391 1190 733
shrinkage=0.1


Tree=17
num_leaves=31
num_cat=0
split_feature=6 5 0 19 0 1 1 2 0 7 0 1 1 7 1 19 1 10 7 3 2 7 2 2 1 7 3 1 0 1
split_gain=402.879 77.133 73.0296 40.2366 38.1889 36.2414 50.4929 31.9264 23.8054 23.0776 21.0917 21.2718 23.5671 20.0001 19.5313 19.292 27.5675 22.8835 18.7362 18.2441 16.7591 16.0555 17.5467 17.3034 16.0072 14.9008 14.2436 13.4809 13.1629 16.1795
threshold=2.5000000000000004 3.5000000000000004 1.5000000000000002 1.0000000180025095e-35 3.5000000000000004 49.500000000000007 37.500000000000007 7.5000000000000009 3.5000000000000004 15.500000000000002 2.5000000000000004 53.500000000000007 36.500000000000007 33.500000000000007 38.500000000000007 2.5000000000000004 29.500000000000004 5.5000000000000009 1.5000000000000002 151.50000000000003 25.500000000000004 1.0000000180025095e-35 119.50000000000001 150.50000000000003 42.500000000000007 1.0000000180025095e-35 14.500000000000002 36.500000000000007 2.5000000000000004 23.500000000000004
decision_type=2 2 2 2 2 2 2 2 2 2 2 2 2 2 2 2 2 2 2 2 2 2 2 2 2 2 2 2 2 2
left_child=2 4 3 5 10 6 -1 26 28 20 11 12 15 -3 -14 -2 -17 -18 -5 -16 -6 22 -10 -24 -21 -8 27 -4 29 -9
right_child=1 13 7 18 9 -7 25 8 21 -11 -12 -13 14 -15 19 16 17 -19 -20 24 -22 -23 23 -25 -26 -27 -28 -29 -30 -31
leaf_value=-0.060796461928673232 -0.031634864993060001 0.036443286272688814 -0.010174618042449731 -0.070998289886074373 0.01895700170388449 -0.073605013469265415 -0.0028833162571914629 0.095586256948631376 -0.054688227821942895 0.066510109627629113 -0.019608369543248502 -0.018397154325872484 0.080538632452843664 0.070812023396453719 0.015477676384264208 0.13190600736450217 0.075252124179530547 -0.02290692203875944 -0.038306788012065766 -0.065931253477701943 0.14030649628604031 -0.0026052471898111544 0.094993002089858045 -0.022232144797395308 0.11711633208138639 0.060916608255756614 -0.018936074439240305 0.022244079707485809 -0.05791640024702166 -0.031493172240825672
leaf_weight=83.095735959708691 152.95786461234093 1015.6864692568779 217.36455483362079 526.61111338436604 790.40965749323368 86.563814144581556 60.130549341440201 10.404581058770416 151.26278623193502 127.47202241420746 369.8741652816534 235.55167770013213 63.001924432814121 203.19209468364716 431.56220454350114 18.914714470505714 31.966868098825216 92.39536801353097 262.79891297593713 5.6465935334563246 11.547128975391386 441.33090084046125 16.662982851266861 51.538363099098206 31.034374859184027 93.577885329723358 279.62269869819283 312.94394993782043 263.10246777161956 270.17823818325996
leaf_count=1620 1100 4458 2187 12663 3572 1840 429 108 2032 585 2910 1751 402 1028 2959 129 232 654 4332 40 49 3979 221 657 205 550 3216 3263 4445 4569
internal_value=0 0.217414 -0.273838 -0.479447 0.111996 -0.182343 0.0200649 -0.160258 -0.263493 0.269866 0.00959692 0.081162 0.156635 0.421727 0.282657 -0.0693624 0.194312 0.0232451 -0.601151 0.212324 0.207043 -0.135973 -0.357017 0.0640835 0.889384 0.359582 -0.006734 0.089562 -0.418481 -0.267808
internal_weight=0 3581.21 3127.19 1112.78 2362.33 323.368 236.804 2014.41 1204.48 929.429 1432.91 1063.03 827.48 1218.88 531.245 296.235 143.277 124.362 789.41 468.243 801.957 660.795 219.464 68.2013 36.681 153.708 809.931 530.309 543.685 280.583
internal_count=66185 20074 46111 21434 14588 4439 2599 24677 16011 4206 10382 7472 5721 5486 3606 2115 1015 886 16995 3204 3621 6889 2910 878 245 979 8666 5450 9122 4677
shrinkage=0.1


Tree=18
num_leaves=31
num_cat=0
split_feature=5 7 2 1 1 5 5 2 2 7 7 13 7 1 3 7 10 1 2 4 1 10 12 16 18 19 4 2 1 13
split_gain=346.735 82.6454 48.3425 23.5283 21.4697 21.1426 20.4768 17.6084 25.456 17.0698 14.497 14.4097 14.0632 13.9962 11.9763 11.5413 10.2834 16.9788 14.0594 10.5869 18.8913 11.3411 10.514 10.0194 9.38036 9.28799 11.0728 9.26534 9.2669 9.27798
threshold=1.0000000180025095e-35 13.500000000000002 18.500000000000004 40.500000000000007 39.500000000000007 2.5000000000000004 7.5000000000000009 10.500000000000002 3.5000000000000004 1.5000000000000002 3.5000000000000004 7.5000000000000009 3.5000000000000004 52.500000000000007 1.5000000000000002 33.500000000000007 5.5000000000000009 29.500000000000004 48.500000000000007 29.500000000000004 26.500000000000004 2.5000000000000004 58.500000000000007 1.5000000000000002 5.5000000000000009 2.5000000000000004 3.5000000000000004 48.500000000000007 33.500000000000007 7.5000000000000009
decision_type=2 2 2 2 2 2 2 2 2 2 2 2 2 2 2 2 2 2 2 2 2 2 2 2 2 2 2 2 2 2
left_child=2 5 10 4 16 7 13 8 11 -5 14 -2 -10 -3 -1 -15 17 18 -4 20 -20 -21 -18 -22 -6 -7 -27 28 29 -28
right_child=1 6 3 9 24 25 -8 -9 12 -11 -12 -13 -14 15 -16 -17 22 -19 19 21 23 -23 -24 -25 -26 26 27 -29 -30 -31
leaf_value=0.0027930299720468079 0.019554990572237089 0.03730786526525328 0.0011600793474364809 -0.064599252564707998 0.0094123157757266054 0.033608383315626086 0.068310665944835328 0.028173735461122409 -0.029286028690706335 -0.031878513273237506 0.00056710450954232296 -0.016764996368799315 -0.0039216270507282866 0.0038672322959164432 -0.028054390452330054 0.08401149207070456 -0.045887067775916161 -0.02947653233094006 0.064347363474562755 -0.032172843929232607 0.3121236475905188 0.29128638088818809 0.36393838679297885 0.75214128416801662 0.28943053901979393 0.033706772670934422 0.051361868115114589 0.17452202050802343 -0.014242861158998508 -0.058295952500867734
leaf_weight=153.82203824073076 543.67811667174101 1016.4171980470419 16.062160380184654 506.68680602684617 106.6209251396358 330.04239763319492 179.31887237727642 211.53180641680956 342.57437570393085 232.6353152282536 404.58890861272812 136.70182641595602 603.98998867720366 219.65142831206322 692.35199815034866 19.56935727596283 379.92411890998483 130.17590293288231 2.3115171492099744 3.8986275978386402 1.4243760667741301 1.5014168694615362 0.62702907249331374 0.81278500333428372 1.2098938487470139 135.81332674622536 44.992328271269798 2.9451397955417624 191.56249402463436 9.3126994371414167
leaf_count=2154 3657 4668 228 11161 984 1519 948 1662 3244 3813 4134 973 3914 1019 11626 94 6226 2238 32 52 20 22 11 11 11 623 205 13 880 43
internal_value=0 0.174983 -0.292508 -0.421285 -0.28164 0.0670616 0.367002 0.0103248 -0.0249637 -0.543033 -0.150024 0.122576 -0.131013 0.321859 -0.224468 0.104234 -0.363443 -0.147384 0.590213 1.52438 2.64835 0.577611 -0.452118 4.71987 0.125542 0.213016 0.107414 -0.0179416 -0.0390617 0.325568
internal_weight=0 3988.1 2634.65 1383.89 644.569 2553.14 1434.96 1838.48 1626.94 739.322 1250.76 680.38 946.564 1255.64 846.174 239.221 536.738 156.187 26.0109 9.94872 4.54868 5.40004 380.551 2.23716 107.831 714.668 384.626 248.813 245.868 54.305
internal_count=66185 23462 42723 24809 9835 16733 6729 13450 11788 14974 17914 4630 7158 5781 13780 1113 8840 2603 365 137 63 74 6237 31 995 3283 1764 1141 1128 248
shrinkage=0.1


Tree=19
num_leaves=31
num_cat=0
split_feature=5 6 2 1 1 5 2 2 7 7 7 4 3 2 2 13 4 7 7 10 1 8 17 2 3 9 1 8 9 11
split_gain=286.715 69.2246 42.5718 21.2964 18.242 17.6347 16.271 21.3533 19.8161 15.9944 12.1448 11.0624 10.9485 10.2935 19.4902 10.1165 10.172 9.87927 9.51823 8.94846 13.1335 8.92343 8.68818 16.6237 9.32335 8.9954 8.13676 8.89805 10.0095 8.12246
threshold=1.0000000180025095e-35 8.5000000000000018 18.500000000000004 40.500000000000007 39.500000000000007 7.5000000000000009 10.500000000000002 3.5000000000000004 2.5000000000000004 1.5000000000000002 3.5000000000000004 1.0000000180025095e-35 -1.0000000180025095e-35 10.500000000000002 3.5000000000000004 7.5000000000000009 13.500000000000002 10.500000000000002 17.500000000000004 5.5000000000000009 29.500000000000004 1.5000000000000002 22.500000000000004 1.0000000180025095e-35 21.500000000000004 3.5000000000000004 28.500000000000004 10.500000000000002 136.50000000000003 23.500000000000004
decision_type=2 2 2 2 2 2 2 2 2 2 2 2 2 2 2 2 2 2 2 2 2 2 2 2 2 2 2 2 2 2
left_child=2 6 10 4 19 13 7 15 11 -5 12 -9 -1 14 29 16 18 -8 22 20 21 -4 24 -24 -2 -26 -17 -28 -29 -3
right_child=1 5 3 9 -6 -7 17 8 -10 -11 -12 -13 -14 -15 -16 26 -18 -19 -20 -21 -22 -23 23 -25 25 -27 27 28 -30 -31
leaf_value=0.037714270735422245 0.055381969682019888 0.036806104025566243 0.033508794417352855 -0.061754748537145902 0.01117550981871507 0.06287457353405497 0.021629063189327891 0.011826844415138236 0.00060502600686595772 -0.029502416684692695 0.00051017755212096744 -0.042825447248840541 -0.022876969048781198 0.070222797729396907 0.0076074628944180871 -0.058232529654664279 0.0086222608431075053 0.075496744729259282 0.12337969022253428 -0.042374810626330639 -0.027247442980204307 0.25870049790308253 0.14207665080669024 0.0036338558351492116 0.021293611289073679 -0.11925220436736866 -0.033589049676390779 0.021560069953510043 -0.069140972756612185 -0.14841529366440037
leaf_weight=30.97775187343359 145.70195992290974 770.39251746237278 25.60788277536631 478.50895775854588 108.70223104953766 184.00833520293236 223.95333296060562 46.275585278868675 978.18157368153334 226.56359605491161 404.75124117732048 185.51162991300225 799.30545967817307 59.18419449031353 343.48196159303188 25.727553702890873 503.37702091783285 40.149907372891903 10.594024360179899 366.29368489608169 126.91967864707112 1.889489360153674 9.1461007893085462 167.79561606049538 73.151180073618889 4.8562313094735137 53.811503563076258 139.97594145685434 13.325472075492142 2.3748817592859259
leaf_count=206 853 3497 342 11161 995 992 1685 453 6122 3813 4134 1898 13574 268 1574 134 2918 210 49 6237 2238 23 46 993 446 29 329 859 96 11
internal_value=0 0.157765 -0.270725 -0.394553 -0.260849 0.340884 0.062806 0.0364368 -0.0562452 -0.51391 -0.136926 -0.319143 -0.206163 0.295821 0.274273 0.134168 0.181543 0.298182 0.298218 -0.338633 -0.136729 0.489829 0.27348 0.1079 0.404444 0.125441 -0.0519284 0.0139575 0.13676 0.362369
internal_weight=0 3980.98 2569.52 1334.49 629.413 1359.44 2621.53 2357.43 1209.97 705.073 1235.03 231.787 830.283 1175.43 1116.25 1147.46 914.622 264.103 411.245 520.711 154.417 27.4974 400.651 176.942 223.709 78.0074 232.84 207.113 153.301 772.767
internal_count=66185 23462 42723 24809 9835 6342 17120 15225 8473 14974 17914 2351 13780 5350 5082 6752 5334 1895 2416 8840 2603 365 2367 1039 1328 475 1418 1284 955 3508
shrinkage=0.1


Tree=20
num_leaves=31
num_cat=0
split_feature=5 7 0 0 19 7 1 1 0 0 0 1 3 1 0 8 0 5 0 1 1 1 5 13 1 0 7 11 3 8
split_gain=236.633 58.0897 55.7155 30.2954 25.3667 25.8285 18.4727 27.6718 18.2213 17.7894 41.42 30.986 22.8967 22.773 17.4075 15.5798 14.9369 20.5874 19.1723 15.3218 14.735 14.5718 13.7858 12.2777 12.2228 14.2525 11.9105 12.6283 11.9978 11.8771
threshold=1.0000000180025095e-35 16.500000000000004 3.5000000000000004 3.5000000000000004 1.0000000180025095e-35 3.5000000000000004 37.500000000000007 48.500000000000007 2.5000000000000004 5.5000000000000009 6.5000000000000009 41.500000000000007 40.500000000000007 40.500000000000007 1.5000000000000002 6.5000000000000009 3.5000000000000004 5.5000000000000009 2.5000000000000004 53.500000000000007 53.500000000000007 61.500000000000007 1.5000000000000002 1.5000000000000002 47.500000000000007 1.5000000000000002 1.0000000180025095e-35 12.500000000000002 506.50000000000006 1.0000000180025095e-35
decision_type=2 2 2 2 2 2 2 2 2 2 2 2 2 2 2 2 2 2 2 2 2 2 2 2 2 2 2 2 2 2
left_child=2 3 4 22 6 14 -1 -8 -9 11 -11 12 13 -5 -6 -16 17 18 19 23 -10 -13 -2 -3 -25 -26 27 -4 -28 -22
right_child=1 16 26 9 5 -7 7 8 20 10 -12 21 -14 -15 15 -17 -18 -19 -20 -21 29 -23 -24 24 25 -27 28 -29 -30 -31
leaf_value=-0.059889182091652143 -0.012215654240091536 0.054343291825936828 -0.019440260257421776 0.013013107338617578 -0.06456338692235182 -0.019106330617616067 0.016021261021717685 -0.069431886150477851 -0.077035696426590528 -0.030829243292860103 0.045666239216755299 0.07191042142466457 0.066142158284409641 -0.087486136440667828 -0.04806128747951223 -0.0020628350057335263 0.0573151201392249 0.047092467384284312 -0.020316464338877124 -0.012701385560739513 -0.021880696655276765 -9.5724139311940449e-05 0.0058752214672914953 -0.00038752267931074774 -0.00088843080154826315 0.12316974194713631 0.0042636311727051943 0.25992084898404405 0.14139024724133595 0.067810903618046911
leaf_weight=79.142130304127932 709.20528890192509 168.00462146103382 345.54713594913483 534.19529838860035 494.03049729019403 323.8507874943316 224.1459302008152 86.96218366920948 20.123417552560568 184.55519863218069 114.82458262145519 174.95649364590645 79.477585986256599 23.540947392582893 285.33462899178267 99.244211342185736 218.6812431961298 342.97038926184177 115.91847066581249 82.392075404524803 30.148843929171562 33.482918381690979 1037.338470377028 118.21166099607944 17.349849134683609 19.862288311123848 484.33128263801336 1.6257475912570942 6.4657072201371184 28.932401176542044
leaf_count=1732 7253 737 4657 2502 14067 4535 2215 2092 346 991 529 795 353 107 5807 1960 1106 1746 526 373 443 152 5603 527 77 85 4376 22 60 411
internal_value=0 0.142166 -0.250021 0.0681702 -0.355501 -0.432465 -0.158366 -0.0690424 -0.378289 0.194586 -0.0149005 0.268749 0.159269 0.0877123 -0.521444 -0.36191 0.339662 0.280613 0.15551 0.257962 -0.0313071 0.603436 -0.014708 0.356033 0.153465 0.653287 -0.039569 -0.181321 0.0607012 0.220418
internal_weight=0 3974.97 2509.88 2891.58 1671.92 1202.46 469.455 390.313 166.167 1145.03 299.38 845.653 637.214 557.736 878.609 384.579 1083.39 864.709 521.739 405.82 79.2047 208.439 1746.54 323.428 155.424 37.2121 837.97 347.173 490.797 59.0812
internal_count=66185 23462 42723 18285 33608 26369 7239 5507 3292 5429 1520 3909 2962 2609 21834 7767 5177 4071 2325 1799 1200 947 12856 1426 689 162 9115 4679 4436 854
shrinkage=0.1


Tree=21
num_leaves=31
num_cat=0
split_feature=6 6 0 19 1 1 0 5 2 0 0 4 1 0 0 13 0 1 1 17 1 2 3 3 3 6 19 0 1 7
split_gain=197.913 53.0413 45.8338 31.7579 30.4955 33.9245 23.6554 30.3962 22.3653 18.4083 17.2298 22.8342 18.2069 15.3517 15.159 13.8186 27.8644 12.7838 12.4904 14.9939 14.8116 13.6288 12.4117 12.0302 13.8401 11.7625 11.6895 12.3029 23.8586 11.4762
threshold=1.5000000000000002 6.5000000000000009 1.5000000000000002 1.0000000180025095e-35 49.500000000000007 37.500000000000007 3.5000000000000004 6.5000000000000009 8.5000000000000018 3.5000000000000004 2.5000000000000004 1.0000000180025095e-35 52.500000000000007 3.5000000000000004 2.5000000000000004 2.5000000000000004 5.5000000000000009 46.500000000000007 36.500000000000007 30.500000000000004 38.500000000000007 7.5000000000000009 14.500000000000002 142.50000000000003 155.50000000000003 7.5000000000000009 1.0000000180025095e-35 1.5000000000000002 46.500000000000007 1.5000000000000002
decision_type=2 2 2 2 2 2 2 2 2 2 2 2 2 2 2 2 2 2 2 2 2 2 2 2 2 2 2 2 2 2
left_child=2 13 3 4 5 -1 7 10 22 -10 11 -3 18 14 -2 16 23 -12 19 21 -20 -13 -4 -11 -25 -14 -22 -28 -29 -7
right_child=1 6 8 -5 -6 29 -8 -9 9 15 17 12 25 -15 -16 -17 -18 -19 20 -21 26 -23 -24 24 -26 -27 27 28 -30 -31
leaf_value=-0.060495419244280035 0.0018452974763097799 0.049590191487380676 0.011788506435171693 -0.057140122598703852 -0.076690276571847946 0.014598061003667416 0.043209081707208372 0.047757205143663689 -0.041653631183351858 0.023351908786022182 -0.027380771360225861 0.00082346401026960015 -0.083882819196821515 0.011777370387908768 -0.021207859892109195 -0.030031435059861045 -0.032289243952185971 0.018340346913056214 0.092883897982176458 -0.049885113492012356 -0.027481536469778169 0.088670729866371811 -0.019268369926445462 0.43059908719884277 0.087997171176137035 -0.0088068464169705676 -0.0024988615116657642 0.019692160724693129 0.10059297223572855 0.082200961365304873
leaf_weight=58.451437991112471 984.67016274109483 174.69018811732531 378.39415149390697 560.29603169485927 61.516692612320185 111.11078468710184 495.93279141187668 270.20349155366421 355.83496642112732 126.92514083534479 177.09679042547941 108.2790547311306 24.633813582360744 929.55077201128006 401.5655618570745 220.66521005704999 116.44908861815929 93.41025647521019 33.934915743768215 48.826460339128971 39.506267197430134 21.10223200917244 194.99232038483024 1.2827029973268498 14.602235175669191 136.54476317763329 74.422573640942574 110.0101982653141 54.519321523606777 32.443464703857899
leaf_count=1402 9050 798 4520 15393 1692 715 2355 1421 7102 1421 882 503 148 4624 3873 2745 1576 463 155 245 186 127 2693 13 143 644 354 511 252 179
internal_value=0 0.119397 -0.249374 -0.43675 -0.150457 0.0372683 0.245002 0.177137 -0.13983 -0.24418 0.103135 0.174835 0.0887825 0.0183451 -0.0483275 -0.116387 0.0401597 -0.115926 0.184581 -0.0266767 0.305094 0.151515 0.0122695 0.336197 1.15662 -0.202811 0.22908 0.31239 0.464999 0.298764
internal_weight=0 4178.9 2232.96 823.818 263.522 202.006 1863.11 1367.18 1409.15 835.759 1096.98 826.47 651.78 2315.79 1386.24 479.924 259.259 270.507 490.601 178.208 312.393 129.381 573.386 142.81 15.8849 161.179 278.458 238.952 164.53 143.554
internal_count=66185 26591 39594 19381 3988 2296 9044 6689 20213 13000 5268 3923 3125 17547 12923 5898 3153 1345 2333 875 1458 630 7213 1577 156 792 1303 1117 763 894
shrinkage=0.1


Tree=22
num_leaves=31
num_cat=0
split_feature=5 5 2 2 2 1 7 7 7 1 7 3 1 17 7 12 4 3 3 7 8 4 4 7 3 7 3 1 5 7
split_gain=168.034 42.5341 32.7754 20.5258 20.5666 16.0467 13.929 13.8311 13.7703 11.8394 11.6025 11.5801 13.3052 11.2284 10.8063 8.79702 9.1069 12.2093 8.63879 9.33922 11.0508 10.9194 8.30035 16.9632 13.1565 8.08606 9.36613 8.79353 8.34606 7.97388
threshold=1.0000000180025095e-35 3.5000000000000004 18.500000000000004 10.500000000000002 3.5000000000000004 40.500000000000007 3.5000000000000004 31.500000000000004 1.5000000000000002 39.500000000000007 10.500000000000002 213.50000000000003 35.500000000000007 23.500000000000004 10.500000000000002 11.500000000000002 3.5000000000000004 22.500000000000004 -1.0000000180025095e-35 1.5000000000000002 76.500000000000014 2.5000000000000004 1.0000000180025095e-35 49.500000000000007 12.500000000000002 6.5000000000000009 512.50000000000011 55.500000000000007 1.5000000000000002 1.5000000000000002
decision_type=2 2 2 2 2 2 2 2 2 2 2 2 2 2 2 2 2 2 2 2 2 2 2 2 2 2 2 2 2 2
left_child=2 3 18 4 10 9 -6 -3 -7 -4 13 12 -12 15 -5 16 17 -2 -1 -20 -21 -22 23 -9 -25 26 -19 28 -27 -18
right_child=1 7 5 14 6 8 -8 22 -10 -11 11 -13 -14 -15 -16 -17 29 25 19 20 21 -23 -24 24 -26 27 -28 -29 -30 -31
leaf_value=0.040408696851283732 0.065538022240578336 0.02276961960588696 -0.028076203294102722 0.020633366082570766 -0.02369322974714088 -0.054803520624224 -0.00021793762058237772 0.040200510249119706 -0.023457570559027072 0.0082817761778880474 0.051162053350565423 0.090896519275113691 0.0091797109366364687 -0.0073928852130255608 0.06868791530736082 -0.053409139615687801 0.057257425144792998 -0.037707734752436377 -0.020505448835640636 -0.0034516525047928871 -0.034555532399142379 0.35942008454837038 0.060262813802739637 -0.28120543509040347 -0.0062116115843481191 -0.09923755553577901 0.157871576755409 0.23148103188293323 0.065269996403671995 0.0016251716359495716
leaf_weight=33.301480248570442 80.166013821959496 949.66408766806126 485.01157730259001 215.34282448887825 339.76416316628456 417.36683448962867 986.97925271838903 31.728848308324814 210.99629224091768 109.84831175580621 106.67232686281204 25.703926064074039 258.24378217756748 380.45429345220327 59.788520894944668 17.188457325100899 29.2270004786551 33.669365733861923 560.55169991776347 589.22432704642415 1.2189327627420419 1.6636599116027353 174.35852421820164 3.1991293132305136 3.8138905912637711 3.9006146714091363 2.6406185105442992 2.4741442948579779 14.730211213231085 217.45481254160404
leaf_count=217 520 4275 8840 1649 3308 11161 5792 175 3813 995 513 122 1235 2454 301 118 244 251 10525 7138 16 18 992 20 24 28 15 14 73 1339
internal_value=0 0.118809 -0.216492 0.0515204 0.022982 -0.331339 -0.062297 0.27936 -0.44278 -0.213622 0.119477 0.260216 0.21452 0.0491679 0.310761 0.165826 0.197134 0.403274 -0.0980358 -0.112543 -0.0249611 1.92824 0.509598 0.0909127 -1.31656 0.0512678 -0.234844 0.543507 0.308281 0.0821651
internal_weight=0 3937.16 2409.18 2774.4 2499.27 1223.22 1326.74 1162.76 628.363 594.86 1172.53 390.62 364.916 781.906 275.131 401.451 384.263 137.581 1185.96 1152.66 592.107 2.88259 213.1 38.7419 7.01302 57.415 36.31 21.105 18.6308 246.682
internal_count=66185 23462 42723 17976 16026 24809 9100 5486 14974 9835 6926 1870 1748 5056 1950 2602 2484 901 17914 17697 7172 34 1211 219 44 381 266 115 101 1583
shrinkage=0.1


Tree=23
num_leaves=31
num_cat=0
split_feature=5 0 7 2 0 11 19 0 0 1 13 1 1 0 5 0 1 1 1 11 11 2 19 1 1 1 1 2 4 6
split_gain=138.3 42.1976 35.134 20.7234 20.0592 16.4003 14.6737 14.3515 33.3927 25.3045 20.0047 14.0355 13.9129 12.0202 14.6858 13.468 11.6032 11.5731 11.3896 16.0714 11.8155 10.8331 10.8046 15.722 14.4882 16.1435 15.0143 10.1642 17.5168 12.6638
threshold=1.0000000180025095e-35 3.5000000000000004 16.500000000000004 29.500000000000004 3.5000000000000004 33.500000000000007 1.0000000180025095e-35 5.5000000000000009 6.5000000000000009 41.500000000000007 3.5000000000000004 48.500000000000007 40.500000000000007 3.5000000000000004 5.5000000000000009 2.5000000000000004 61.500000000000007 57.500000000000007 23.500000000000004 1.5000000000000002 2.5000000000000004 27.500000000000004 1.0000000180025095e-35 37.500000000000007 40.500000000000007 47.500000000000007 48.500000000000007 1.5000000000000002 40.500000000000007 1.5000000000000002
decision_type=2 2 2 2 2 2 2 2 2 2 2 2 2 2 2 2 2 2 2 2 2 2 2 2 2 2 2 2 2 2
left_child=1 3 4 5 27 18 11 9 -9 10 -6 -5 -12 14 15 17 -11 -4 19 21 -21 -1 23 -20 -25 -26 -27 28 -2 -29
right_child=2 -3 13 6 7 -7 -8 8 -10 16 12 -13 -14 -15 -16 -17 -18 -19 22 20 -22 -23 -24 24 25 26 -28 29 -30 -31
leaf_value=-0.0096431142963571484 0.026973328237794383 -0.0015535752951800525 0.02573510583606797 -0.0072196293327234365 0.027918787329881723 0.46270572850340863 -0.05776867832682208 -0.030142087842553733 0.038737756038331864 0.062499462984744993 -0.0033939702159507101 -0.072056507297050307 -0.12043009861956473 0.047955505631402537 0.037746812333872594 -0.019481942527563606 -0.0018831903704033183 -0.024961119199911952 -0.059915101598218071 0.47373661039026782 0.10821987192992773 0.35568994637928486 -0.029329749624122461 0.044171606515191815 -0.099317356352021074 0.07393952099177363 -0.015117995985714838 -0.030642674605090799 -0.026658668143486136 -0.0019044029732647615
leaf_weight=15.736584018915895 251.27254932373762 819.31902430579066 351.90459663420916 139.20395350083709 353.23466217517853 0.69971204549074073 346.4196176212281 182.70473224669695 114.48603372275829 174.95013247430325 272.76666007936001 43.921845311298966 10.5501412153244 207.03337615728378 324.6745061725378 115.47965793311596 33.324531629681587 51.637056529521942 44.256913289427757 1.3515456393361085 2.558564119040966 0.85580005124211389 733.53108994103968 66.904809560626745 18.480827167630196 22.967932812869549 107.69449447654188 175.18452051654458 80.379215747117996 1229.4701491743326
leaf_count=227 1514 9115 1566 1692 1619 12 10822 991 529 795 1294 1308 49 1106 1746 526 152 233 1041 15 24 12 15322 776 248 127 1982 2475 516 8351
internal_value=0 -0.198982 0.107129 -0.29629 0.0499953 -0.212627 -0.456657 0.152931 -0.0360768 0.219419 0.120423 -0.227704 -0.0775216 0.26364 0.210657 0.106308 0.521981 0.19248 -0.215965 0.521797 2.34562 0.0919999 -0.231185 -0.0561541 0.0550775 -0.118366 0.00536597 -0.0177081 0.139751 -0.0548856
internal_weight=0 2363.9 3929.05 1544.58 2878.32 1015.04 529.545 1142.02 297.191 844.826 636.551 183.126 283.317 1050.73 843.696 519.021 208.275 403.542 1014.34 20.5025 3.91011 16.5924 993.836 260.305 216.048 149.143 130.662 1736.31 331.652 1404.65
internal_count=66185 42723 23462 33608 18285 19786 13822 5429 1520 3909 2962 3000 1343 5177 4071 2325 947 1799 19774 278 39 239 19496 4174 3133 2357 2109 12856 2030 10826
shrinkage=0.1


Tree=24
num_leaves=31
num_cat=0
split_feature=6 5 2 7 1 10 7 7 13 1 3 3 10 2 7 19 3 19 2 9 8 1 1 10 7 1 13 1 19 5
split_gain=115.621 33.6933 21.45 21.6122 13.9341 17.6348 11.5081 10.7186 13.5518 9.71528 10.9192 9.47876 12.732 21.0179 40.149 20.9082 11.4916 8.77712 11.0847 10.309 9.46174 9.09893 8.65645 8.62324 9.48084 11.8286 12.2301 8.6087 8.51659 11.4634
threshold=1.5000000000000002 3.5000000000000004 8.5000000000000018 1.5000000000000002 40.500000000000007 7.5000000000000009 33.500000000000007 10.500000000000002 5.5000000000000009 29.500000000000004 213.50000000000003 14.500000000000002 1.5000000000000002 1.0000000180025095e-35 1.0000000180025095e-35 2.5000000000000004 40.500000000000007 1.5000000000000002 5.5000000000000009 1.5000000000000002 25.500000000000004 54.500000000000007 42.500000000000007 108.50000000000001 2.5000000000000004 59.500000000000007 1.0000000180025095e-35 21.500000000000004 5.5000000000000009 1.0000000180025095e-35
decision_type=2 2 2 2 2 2 2 2 2 2 2 2 2 2 2 2 2 2 2 2 2 2 2 2 2 2 2 2 2 2
left_child=2 7 11 4 5 -4 -3 8 17 -9 -11 12 13 -1 15 -15 -13 18 19 21 -20 -2 -21 24 25 26 -24 -18 29 -12
right_child=1 6 3 -5 -6 -7 -8 9 -10 10 28 16 -14 14 -16 -17 27 -19 20 22 -22 -23 23 -25 -26 -27 -28 -29 -30 -31
leaf_value=-0.010372207569391488 -0.014253415309354908 0.019373777720475303 0.0050806879051057971 -0.0086981683525668291 -0.047514478849464796 -0.036854088782720174 0.047536815969117616 0.041242083016589985 -0.01397121468483499 0.0054706124909154911 -0.087041576842006266 -0.043580828685868364 -0.0010054826860947436 1.1076880206134132 0.10386151596764795 0.32237485532246879 0.22405681323916449 -0.0014493901579638179 -0.0020317651565974295 0.023721936674093873 0.11456909855106011 0.079318088899585942 0.033878622311226146 -0.05652036090493872 0.063632751572746712 -0.062392279191753545 0.30344876653772523 -0.0033949365497109095 0.14847066011247098 0.052397034869021732
leaf_weight=9.915201064199211 66.847936775535345 973.2275847941637 148.92875616252422 432.75536098890007 484.32081870734692 307.00528602488339 170.51295660436153 102.20698435977101 559.57134182751179 795.25042773038149 6.724279820919036 122.90424567833543 466.61756092682481 0.65874347835779079 6.2942070960998535 0.69851672649383545 1.6873856708407391 944.45612927526236 270.77377997338772 93.383856806904078 7.1429128721356383 12.305011652410029 2.4122135080397111 5.0763965249061576 60.223725084215403 1.7913481816649435 5.5674127675592899 120.18315109610558 7.5597497895359984 47.85656300932169
leaf_count=173 426 4458 2424 7432 13094 5631 1028 547 4397 4335 69 2202 6677 13 67 13 13 7301 2579 549 71 75 18 35 380 15 39 1855 39 230
internal_value=0 0.0897572 -0.198308 -0.271915 -0.357031 -0.231563 0.235724 0.0339057 -0.00726989 0.120992 0.0862519 -0.0596692 0.0214087 0.857163 2.10233 7.03525 -0.220048 0.0431463 0.146736 0.300601 0.00965067 0.00293086 0.440468 0.693298 0.784571 1.69828 2.21959 -0.00245703 0.489962 0.352184
internal_weight=0 4132.89 2101.97 1373.01 940.255 455.934 1143.74 2989.15 2029.55 959.598 857.391 728.959 484.184 17.5667 7.65147 1.35726 244.775 1469.98 525.525 247.608 277.917 79.1529 168.455 75.0711 69.9947 9.77097 7.97963 121.871 62.1406 54.5808
internal_count=66185 26591 39594 28581 21149 8055 5486 21105 15885 5220 4673 11013 6943 266 93 26 4070 11488 4187 1537 2650 501 1036 487 452 72 57 1868 338 299
shrinkage=0.1


Tree=25
num_leaves=31
num_cat=0
split_feature=6 0 6 19 1 1 0 0 0 1 1 0 1 1 19 17 1 0 3 1 19 0 2 2 0 8 0 4 19 3
split_gain=95.2498 34.8127 27.3059 26.1151 24.7083 26.2305 20.382 23.1826 30.1355 20.541 20.8077 16.1369 18.5531 29.616 17.937 16.2565 16.0341 14.8888 25.7756 23.9382 17.4082 14.7281 14.4914 14.1238 17.1866 14.144 15.0183 16.7964 16.667 14.1028
threshold=1.5000000000000002 1.5000000000000002 10.500000000000002 1.0000000180025095e-35 49.500000000000007 37.500000000000007 6.5000000000000009 5.5000000000000009 3.5000000000000004 41.500000000000007 40.500000000000007 2.5000000000000004 53.500000000000007 36.500000000000007 1.5000000000000002 65.500000000000014 38.500000000000007 1.5000000000000002 96.500000000000014 33.500000000000007 5.5000000000000009 3.5000000000000004 23.500000000000004 3.5000000000000004 3.5000000000000004 7.5000000000000009 5.5000000000000009 3.5000000000000004 1.5000000000000002 411.50000000000006
decision_type=2 2 2 2 2 2 2 2 2 2 2 2 2 2 2 2 2 2 2 2 2 2 2 2 2 2 2 2 2 2
left_child=1 3 6 4 5 -1 7 8 11 10 -10 12 13 14 -2 16 -15 18 -16 20 -19 -4 -13 -3 -25 26 27 28 -26 -24
right_child=2 23 21 -5 -6 -7 -8 -9 9 -11 -12 22 -14 15 17 -17 -18 19 -20 -21 -22 -23 29 24 25 -27 -28 -29 -30 -31
leaf_value=-0.054131030651432405 -0.040644243553483179 0.0066420345010354586 0.017594205241415646 -0.049243634897997705 -0.070806492341701763 0.028963898630114917 0.041371876838664674 -0.029853575354379092 0.014210322442622643 0.044670830501657093 -0.073566721507277791 -0.020910379810284548 -0.018431867926272983 0.061810228229799161 -0.043933439219355795 0.35720838964998847 0.014861096200689284 0.030063772115198784 0.29040336241646048 -0.021627639489562547 0.1328293498883136 0.051435812798430083 0.047473272896235402 -0.031926573031418014 0.15839043623054549 -0.024645547285275918 -0.017996597618635896 0.010128098045793425 0.03300466858995306 0.52756304461855752
leaf_weight=51.651927791535854 149.36481844633818 417.38528015092015 762.74825999885798 484.40802158042789 51.627011759206653 143.61404702067375 137.71847034990788 212.05806196480989 634.84651105105877 238.99642930924892 28.205929949879646 508.93036274239421 314.93296256661415 81.909493841230869 71.038720693439245 1.4334294907748688 650.00211911275983 61.490539312362671 2.3832620792090884 69.799195151776075 22.521160326898098 154.68113374710083 22.042302194982771 377.25001903623343 16.736022211611271 207.13121598213911 129.65025056153536 158.4821844175458 28.921434782445431 0.62934210151433845
leaf_count=1402 1236 5555 3750 15393 1692 894 667 1160 3007 1132 130 4347 2648 574 629 11 4936 486 25 526 173 883 261 7973 170 2643 1811 1780 281 10
internal_value=0 -0.182139 0.0808651 -0.357526 -0.0928288 0.0698355 0.0373614 0.0204814 0.0441475 0.195361 0.104763 -0.0255707 0.0299019 0.0906844 -0.13726 0.207742 0.201153 0.0396795 -0.330809 0.216533 0.576123 0.233 -0.174256 -0.0861038 -0.155439 -0.0411822 0.0861988 0.255242 0.789656 0.608001
internal_weight=0 2066.86 4125.73 731.301 246.893 195.266 3208.3 3070.58 2858.53 902.049 663.052 1956.48 1424.88 1109.94 376.598 733.345 731.912 227.233 73.422 153.811 84.0117 917.429 531.602 1335.56 918.171 540.921 333.79 204.14 45.6575 22.6716
internal_count=66185 39594 26591 19381 3988 2296 21958 21291 20131 4269 3137 15862 11244 8596 3075 5521 5510 1839 654 1185 659 4633 4618 20213 14658 6685 4042 2231 451 271
shrinkage=0.1


Tree=26
num_leaves=31
num_cat=0
split_feature=5 0 5 19 7 0 1 19 7 3 1 0 8 1 0 6 10 10 0 1 1 19 1 3 4 19 4 3 5 0
split_gain=83.2298 31.0548 22.7839 16.1046 16.0346 13.532 13.2784 14.0777 12.9594 13.998 12.9431 12.4941 14.4696 11.8614 11.3795 11.0804 10.8011 12.8961 10.2502 14.513 10.0651 11.9853 16.4049 11.4672 10.0558 10.0543 16.821 9.71948 9.64363 11.4697
threshold=1.0000000180025095e-35 3.5000000000000004 3.5000000000000004 1.0000000180025095e-35 3.5000000000000004 3.5000000000000004 52.500000000000007 1.5000000000000002 15.500000000000002 167.50000000000003 33.500000000000007 1.5000000000000002 6.5000000000000009 59.500000000000007 5.5000000000000009 9.5000000000000018 206.50000000000003 192.50000000000003 2.5000000000000004 36.500000000000007 32.500000000000007 3.5000000000000004 33.500000000000007 65.500000000000014 19.500000000000004 1.5000000000000002 1.0000000180025095e-35 114.50000000000001 7.5000000000000009 3.5000000000000004
decision_type=2 2 2 2 2 2 2 2 2 2 2 2 2 2 2 2 2 2 2 2 2 2 2 2 2 2 2 2 2 2
left_child=1 3 5 10 11 6 16 -8 9 -7 -1 -5 -13 15 -10 -12 17 18 19 25 -20 22 -22 24 -24 -2 -27 -3 29 -4
right_child=2 27 28 4 -6 8 7 -9 14 -11 13 12 -14 -15 -16 -17 -18 -19 20 -21 21 -23 23 -25 -26 26 -28 -29 -30 -31
leaf_value=-0.061378709140584443 -0.031628392922595831 -0.0039545554553535233 0.010664693742017117 -0.052056876889444395 -0.012191647803698096 0.005036401923614299 0.0038481527788236862 -0.035058041452345416 0.069244596382002949 0.050500775378966384 -0.00010155378981695192 -0.038175731866409005 0.00861627793957849 -0.082657922336144871 0.00058714728153826622 0.26636601414667888 -0.04725862810080856 0.12393778334932724 0.025893723806322485 0.018268668951481076 -0.085699338884955789 -0.046597836102092803 0.047559834864911749 -0.041127042392953291 -0.0088485010800712863 0.066408213552325818 -0.0099614431509474129 0.031932600373013147 0.042898229024981804 0.037004271086842844
leaf_weight=41.753990054130554 117.85440573096275 724.27513378858566 755.99101679027081 381.10768549516797 301.99848257005215 926.64269126206636 160.0778201892972 221.95322596281767 68.754796236753464 73.060387142002583 369.98609845899045 246.23097994923592 90.330966927111149 17.74826342985034 37.202941954135895 1.5671232938766468 42.167115356773138 8.9315180927515012 60.641451269388199 580.55094730481505 21.680832527577877 101.46000060066581 67.839017175137997 38.326559588313103 59.165284179151058 36.628673553466797 135.64981741830707 84.246741890907288 160.4121153652668 211.59586735069752
leaf_count=1116 844 8188 3380 14067 4535 4437 1311 1941 367 343 5641 5807 1960 468 178 14 350 63 472 4198 176 799 532 305 449 233 978 927 1002 1104
internal_value=0 -0.159198 0.0821609 -0.246724 -0.315229 0.033201 -0.0240816 -0.187557 0.118837 0.0835903 -0.0846755 -0.396575 -0.256171 -0.0279264 0.451382 0.0102234 0.0250589 0.042137 0.0333706 0.0914169 -0.111396 -0.189246 -0.03911 0.068144 0.212819 -0.0912123 0.0627575 -0.00215169 0.201895 0.164247
internal_weight=0 2259.25 3886.59 1450.72 1019.67 2758.59 1652.93 382.031 1105.66 999.703 431.055 717.67 336.562 389.301 105.958 371.553 1270.9 1228.73 1219.8 870.684 349.113 288.472 187.012 165.331 127.004 290.133 172.278 808.522 1128 967.587
internal_count=66185 42723 23462 33608 26369 17976 12651 3252 5325 4780 7239 21834 7767 6123 545 5655 9399 9049 8986 6253 2733 2261 1462 1286 981 2055 1211 9115 5486 4484
shrinkage=0.1


Tree=27
num_leaves=31
num_cat=0
split_feature=5 0 7 2 2 2 3 0 19 1 1 3 13 5 1 1 7 9 13 12 11 7 0 0 7 9 18 11 2 2
split_gain=68.36 26.2331 19.8342 16.8832 19.8151 14.7186 13.8457 12.0462 11.0112 10.4173 10.2137 10.063 10.0217 9.69263 9.46831 11.9755 19.8507 11.597 11.1067 10.6706 9.41132 9.37199 9.34503 11.4959 12.6125 11.3593 10.4593 9.18216 9.17265 11.7383
threshold=1.0000000180025095e-35 3.5000000000000004 23.500000000000004 10.500000000000002 3.5000000000000004 29.500000000000004 621.50000000000011 3.5000000000000004 1.0000000180025095e-35 60.500000000000007 48.500000000000007 256.50000000000006 63.500000000000007 2.5000000000000004 28.500000000000004 29.500000000000004 1.0000000180025095e-35 11.500000000000002 4.5000000000000009 2.5000000000000004 33.500000000000007 1.5000000000000002 4.5000000000000009 6.5000000000000009 6.5000000000000009 101.50000000000001 8.5000000000000018 6.5000000000000009 116.50000000000001 150.50000000000003
decision_type=2 2 2 2 2 2 2 2 2 2 2 2 2 2 2 2 2 2 2 2 2 2 2 2 2 2 2 2 2 2
left_child=1 5 3 4 12 9 8 -6 10 20 -7 13 -2 -9 17 16 -16 19 21 -3 -1 -18 25 28 -25 26 27 -17 -24 -30
right_child=2 14 -4 -5 7 6 -8 11 -10 -11 -12 -13 -14 -15 15 22 18 -19 -20 -21 -22 -23 23 24 -26 -27 -28 -29 29 -31
leaf_value=-0.013959251748769936 0.01064728593898002 0.0089857334827490257 0.026405964425592066 0.027145967043125541 -0.013408168480879079 -0.0058986003845520919 0.16823915944913248 -0.0037711631761832318 -0.05061397179395162 -0.069908283559810616 -0.065331105105625245 0.068561676418825643 -0.072286841895759998 0.031805358645159064 0.0086937249678185665 0.013090382542899213 0.59419943065716274 -0.040839299747366886 0.049312515560885117 0.27447866605788923 0.29711692467966044 0.23106081615335713 -0.026857350038831454 0.0024373226608005311 0.090952406085704332 0.10723528230423481 0.31123282415239922 -0.11706066483108378 0.18480741282224158 -0.015186383993285327
leaf_weight=917.36508415825665 1647.7754376083612 49.369689114391804 481.43726576864719 305.37987622246146 878.42705190181732 134.56906742043793 3.2533862851560107 428.80583548545837 291.27717762067914 34.111812960356474 36.829581139609218 24.186943016946316 14.700472816824911 93.229679957032204 15.443127404898407 258.89027298986912 0.85383275151252547 107.07564115524292 2.9969704076647758 1.561742529273032 0.97359384968876739 4.2395828366279602 211.47216621786356 105.25735751911998 19.004211083054543 13.051982551813124 1.1605186909437168 5.5365522354841223 4.7642878517508489 7.6423386633396149
leaf_count=18886 9076 553 2629 2077 6870 1681 99 2169 10744 888 1298 118 80 443 241 2331 12 1331 32 21 12 34 2679 1427 88 108 11 53 65 129
internal_value=0 -0.14576 0.0741174 0.0471623 0.0249747 -0.227699 -0.373345 -0.0615709 -0.3878 -0.156451 -0.186693 0.0550399 0.0991394 0.025824 -0.00198025 0.0513682 0.751692 -0.221547 2.02059 0.171267 -0.136295 2.91935 0.0250733 -0.0841655 0.159746 0.16156 0.1168 0.103653 -0.219546 0.616135
internal_weight=0 2226.7 3873.94 3392.51 3087.13 1418.38 465.929 1424.65 462.676 952.45 171.399 546.222 1662.48 522.036 808.32 650.313 23.5335 158.007 8.09039 50.9314 918.339 5.09342 626.78 348.14 124.262 278.639 265.587 264.427 223.879 12.4066
internal_count=66185 42723 23462 20833 18756 33608 13822 9600 13723 19786 2979 2730 9156 2612 9115 7210 319 1905 78 574 18898 46 6891 4388 1515 2503 2395 2384 2873 194
shrinkage=0.1


Tree=28
num_leaves=31
num_cat=0
split_feature=7 0 1 1 5 0 0 0 0 7 13 1 1 0 2 3 13 19 12 0 5 7 3 17 10 2 2 3 4 2
split_gain=59.7723 36.31 19.1231 20.3545 18.166 20.0214 25.0949 15.9275 35.1088 15.4037 14.6276 14.5262 21.3579 14.1189 13.9103 13.6567 12.57 15.3661 13.6609 13.5411 20.3587 17.2411 17.5888 14.3668 11.745 11.7356 17.9793 11.4189 11.2414 12.8592
threshold=2.5000000000000004 1.5000000000000002 48.500000000000007 47.500000000000007 4.5000000000000009 3.5000000000000004 2.5000000000000004 5.5000000000000009 6.5000000000000009 6.5000000000000009 3.5000000000000004 53.500000000000007 36.500000000000007 1.5000000000000002 7.5000000000000009 50.500000000000007 10.500000000000002 5.5000000000000009 17.500000000000004 1.5000000000000002 1.0000000180025095e-35 4.5000000000000009 45.500000000000007 19.500000000000004 3.5000000000000004 115.50000000000001 202.50000000000003 94.500000000000014 136.50000000000003 18.500000000000004
decision_type=2 2 2 2 2 2 2 2 2 2 2 2 2 2 2 2 2 2 2 2 2 2 2 2 2 2 2 2 2 2
left_child=1 2 3 15 5 6 11 10 -9 28 -7 12 -2 24 -3 -1 17 -14 -18 -19 21 23 -23 -21 -13 -16 -27 -17 -10 -30
right_child=4 14 -4 -5 -6 7 -8 8 9 -11 -12 13 16 -15 25 27 18 19 -20 20 -22 22 -24 -25 -26 26 -28 -29 29 -31
leaf_value=-0.035489433986603605 -0.0099189925956553859 0.0059439111281316317 -0.053367486746656867 0.054109710372233048 0.020966917388592465 0.032625810280986531 -0.021546008027874514 -0.028565839226855988 -0.020700365690201811 0.063484445986119284 0.0070497788620654273 0.065590623964566414 0.017603370271264639 -0.035110487872390038 -0.019839937967286846 0.088405332404448866 -0.024903802445040719 0.027627513233423929 0.056391404900751646 0.089969485639661562 0.071432772936746838 0.0867005304015004 0.53491577569795545 0.72303146561629328 -0.0058840255134984436 0.061953042981602757 -0.030086431215671446 -0.0092587590193814809 0.032215351177008966 0.30526898581286188
leaf_weight=292.12992250546813 420.18357332795858 605.68912618979812 285.70977583527565 34.432879194617271 699.46953450143337 469.34698114544153 528.23059839382768 227.9333785623312 52.815166331827641 80.691846027970314 427.11308882385492 27.386659128591418 623.46369118243456 170.33078125491738 596.90148518420756 16.165155807510018 112.51093277335167 47.630491100251675 25.322771525010467 0.51026376336812873 29.900683157145977 4.5619021616876125 1.0834445878863332 1.2051676549017427 143.22416642680764 46.313886845484376 39.177168665453792 46.14814231544733 7.199051581323145 2.26808812469244
leaf_count=7738 3521 7307 9752 234 3589 2255 4860 1351 305 382 2152 245 5067 1465 9894 376 912 434 209 10 173 60 14 22 1352 746 759 950 33 18
internal_value=0 -0.149296 -0.337247 -0.192929 0.062894 0.0327244 -0.0263662 0.132294 -0.0419896 0.346474 0.204403 0.0357779 0.0851049 -0.147439 -0.0508643 -0.264237 0.176618 0.230382 -0.0996827 0.629524 1.08107 2.57086 1.72721 5.34724 0.0558917 -0.148769 0.19775 0.16077 -0.0271339 0.976321
internal_weight=0 1962.67 674.586 388.876 4102.38 3402.91 2135.55 1267.37 370.908 142.974 896.46 1607.31 1266.37 340.942 1288.08 354.443 846.189 708.356 137.834 84.892 37.2615 7.36078 5.64535 1.71543 170.611 682.393 85.4911 62.3133 62.2823 9.46714
internal_count=66185 37756 19050 9298 28429 24840 18344 6496 2089 738 4407 13484 10422 3062 18706 9064 6901 5780 1121 713 279 106 74 32 1597 11399 1505 1326 356 51
shrinkage=0.1


Tree=29
num_leaves=31
num_cat=0
split_feature=6 0 19 1 1 2 5 5 12 0 0 13 4 6 0 0 2 6 1 8 13 2 2 10 10 1 1 0 0 19
split_gain=49.7933 22.7963 24.6064 15.8849 16.6635 13.2493 12.2343 11.5393 11.1433 10.9272 21.2253 17.0504 14.5308 14.108 13.101 11.9851 11.5774 10.6143 10.4691 12.7263 10.4434 11.8079 10.3857 10.3622 10.3567 10.2482 16.1578 9.94476 15.381 21.737
